Language model created by QuickLM on Tue Mar 10 05:24:31 EDT 2015
Copyright (c) 1996-2010 Carnegie Mellon University and Alexander I. Rudnicky

The model is in standard ARPA format, designed by Doug Paul while he was at MITRE.

The code that was used to produce this language model is available in Open Source.
Please visit http://www.speech.cs.cmu.edu/tools/ for more information

The (fixed) discount mass is 0.5. The backoffs are computed using the ratio method.
This model based on a corpus of 3 sentences and 9 words

\data\
ngram 1=9
ngram 2=10
ngram 3=7

\1-grams:
-0.9379 </s> -0.3010
-0.9379 <s> -0.2478
-1.4150 CLOSE -0.2840
-1.4150 DOOR -0.2478
-1.4150 DOWN -0.2478
-1.4150 SIT -0.2840
-1.4150 STAND -0.2840
-1.4150 THE -0.2840
-1.4150 UP -0.2478

\2-grams:
-0.7782 <s> CLOSE 0.0000
-0.7782 <s> SIT 0.0000
-0.7782 <s> STAND 0.0000
-0.3010 CLOSE THE 0.0000
-0.3010 DOOR </s> -0.3010
-0.3010 DOWN </s> -0.3010
-0.3010 SIT DOWN 0.0000
-0.3010 STAND UP 0.0000
-0.3010 THE DOOR 0.0000
-0.3010 UP </s> -0.3010

\3-grams:
-0.3010 <s> CLOSE THE
-0.3010 <s> SIT DOWN
-0.3010 <s> STAND UP
-0.3010 CLOSE THE DOOR
-0.3010 SIT DOWN </s>
-0.3010 STAND UP </s>
-0.3010 THE DOOR </s>

\end\
