Language model created by QuickLM on Wed Apr  8 15:12:46 EDT 2015
Copyright (c) 1996-2010 Carnegie Mellon University and Alexander I. Rudnicky

The model is in standard ARPA format, designed by Doug Paul while he was at MITRE.

The code that was used to produce this language model is available in Open Source.
Please visit http://www.speech.cs.cmu.edu/tools/ for more information

The (fixed) discount mass is 0.5. The backoffs are computed using the ratio method.
This model based on a corpus of 2 sentences and 6 words

\data\
ngram 1=6
ngram 2=6
ngram 3=4

\1-grams:
-0.9031 </s> -0.3010
-0.9031 <s> -0.2430
-1.2041 down -0.2430
-1.2041 sit -0.2730
-1.2041 stand -0.2730
-1.2041 up -0.2430

\2-grams:
-0.6021 <s> sit 0.0000
-0.6021 <s> stand 0.0000
-0.3010 down </s> -0.3010
-0.3010 sit down 0.0000
-0.3010 stand up 0.0000
-0.3010 up </s> -0.3010

\3-grams:
-0.3010 <s> SIT DOWN
-0.3010 <s> STAND UP
-0.3010 SIT DOWN </s>
-0.3010 STAND UP </s>

\end\
