Language model created by QuickLM on Mon Sep 14 08:19:32 EDT 2015
Copyright (c) 1996-2010 Carnegie Mellon University and Alexander I. Rudnicky

The model is in standard ARPA format, designed by Doug Paul while he was at MITRE.

The code that was used to produce this language model is available in Open Source.
Please visit http://www.speech.cs.cmu.edu/tools/ for more information

The (fixed) discount mass is 0.5. The backoffs are computed using the ratio method.
This model based on a corpus of 33 sentences and 42 words

\data\
ngram 1=42
ngram 2=73
ngram 3=50

\1-grams:
-0.8581 </s> -0.3010
-0.8581 <s> -0.2319
-2.3766 ABSCESS -0.2362
-2.3766 ANAESTHESIA -0.2362
-2.3766 BACTERIA -0.2362
-2.3766 BITING -0.2955
-2.3766 BRIDGE -0.2362
-2.0755 CALCULUS -0.2362
-2.0755 CANAL -0.2341
-2.3766 CARIES -0.2362
-2.3766 CHECK-UP -0.2362
-2.3766 DECAY -0.2362
-1.5984 DENTAL -0.2881
-2.3766 DENTINE -0.2362
-2.0755 DISEASE -0.2362
-2.3766 ENAMEL -0.2362
-2.3766 FILLING -0.2362
-2.3766 FLOSS -0.2362
-2.3766 FLUORIDE -0.2362
-2.3766 GUM -0.2974
-2.3766 HALITOSIS -0.2362
-2.3766 IMPLANTS -0.2362
-2.3766 IMPRESSION -0.2362
-2.3766 INFLAMMATION -0.2362
-2.3766 INNER -0.2955
-2.3766 LOCAL -0.2992
-2.3766 MANDIBLE -0.2362
-2.3766 MOUTHRINSE -0.2362
-2.3766 OUTER -0.2955
-2.3766 PERIODONTAL -0.2974
-2.0755 PLAQUE -0.2362
-2.3766 PROTRUDE -0.2992
-2.3766 PULP -0.2362
-2.3766 REGULAR -0.2992
-2.0755 ROOT -0.2974
-2.3766 SCALING -0.2362
-2.3766 SENSITIVE -0.2992
-1.8995 SURFACE -0.2362
-2.3766 TEETH -0.2362
-2.0755 TOOTH -0.2341
-2.3766 TREATMENT -0.2362
-2.3766 WISDOM -0.2974

\2-grams:
-1.8195 <s> ABSCESS 0.0000
-1.8195 <s> BACTERIA 0.0000
-1.8195 <s> BITING 0.0000
-1.8195 <s> BRIDGE 0.0000
-1.8195 <s> CALCULUS 0.0000
-1.0414 <s> DENTAL 0.0000
-1.8195 <s> DENTINE 0.0000
-1.8195 <s> ENAMEL 0.0000
-1.8195 <s> FILLING 0.0000
-1.8195 <s> FLUORIDE 0.0000
-1.8195 <s> GUM 0.0000
-1.8195 <s> HALITOSIS 0.0000
-1.8195 <s> IMPRESSION 0.0000
-1.8195 <s> INFLAMMATION 0.0000
-1.8195 <s> INNER 0.0000
-1.8195 <s> LOCAL 0.0000
-1.8195 <s> MOUTHRINSE 0.0000
-1.8195 <s> OUTER 0.0000
-1.8195 <s> PERIODONTAL 0.0000
-1.8195 <s> PROTRUDE 0.0000
-1.8195 <s> PULP 0.0000
-1.8195 <s> REGULAR 0.0000
-1.5185 <s> ROOT 0.0000
-1.8195 <s> SCALING 0.0000
-1.8195 <s> SENSITIVE 0.0000
-1.8195 <s> TOOTH -0.1761
-1.8195 <s> WISDOM 0.0000
-0.3010 ABSCESS </s> -0.3010
-0.3010 ANAESTHESIA </s> -0.3010
-0.3010 BACTERIA </s> -0.3010
-0.3010 BITING SURFACE 0.0000
-0.3010 BRIDGE </s> -0.3010
-0.3010 CALCULUS </s> -0.3010
-0.6021 CANAL </s> -0.3010
-0.6021 CANAL TREATMENT 0.0000
-0.3010 CARIES </s> -0.3010
-0.3010 CHECK-UP </s> -0.3010
-0.3010 DECAY </s> -0.3010
-1.0792 DENTAL CALCULUS 0.0000
-1.0792 DENTAL CARIES 0.0000
-1.0792 DENTAL FLOSS 0.0000
-1.0792 DENTAL IMPLANTS 0.0000
-0.7782 DENTAL PLAQUE 0.0000
-0.3010 DENTINE </s> -0.3010
-0.3010 DISEASE </s> -0.3010
-0.3010 ENAMEL </s> -0.3010
-0.3010 FILLING </s> -0.3010
-0.3010 FLOSS </s> -0.3010
-0.3010 FLUORIDE </s> -0.3010
-0.3010 GUM DISEASE 0.0000
-0.3010 HALITOSIS </s> -0.3010
-0.3010 IMPLANTS </s> -0.3010
-0.3010 IMPRESSION </s> -0.3010
-0.3010 INFLAMMATION </s> -0.3010
-0.3010 INNER SURFACE 0.0000
-0.3010 LOCAL ANAESTHESIA 0.0000
-0.3010 MANDIBLE </s> -0.3010
-0.3010 MOUTHRINSE </s> -0.3010
-0.3010 OUTER SURFACE 0.0000
-0.3010 PERIODONTAL DISEASE 0.0000
-0.3010 PLAQUE </s> -0.3010
-0.3010 PROTRUDE MANDIBLE 0.0000
-0.3010 PULP </s> -0.3010
-0.3010 REGULAR CHECK-UP 0.0000
-0.3010 ROOT CANAL 0.0000
-0.3010 SCALING </s> -0.3010
-0.3010 SENSITIVE TEETH 0.0000
-0.3010 SURFACE </s> -0.3010
-0.3010 TEETH </s> -0.3010
-0.6021 TOOTH </s> -0.3010
-0.6021 TOOTH DECAY 0.0000
-0.3010 TREATMENT </s> -0.3010
-0.3010 WISDOM TOOTH -0.1761

\3-grams:
-0.3010 <s> ABSCESS </s>
-0.3010 <s> BACTERIA </s>
-0.3010 <s> BITING SURFACE
-0.3010 <s> BRIDGE </s>
-0.3010 <s> CALCULUS </s>
-1.0792 <s> DENTAL CALCULUS
-1.0792 <s> DENTAL CARIES
-1.0792 <s> DENTAL FLOSS
-1.0792 <s> DENTAL IMPLANTS
-0.7782 <s> DENTAL PLAQUE
-0.3010 <s> DENTINE </s>
-0.3010 <s> ENAMEL </s>
-0.3010 <s> FILLING </s>
-0.3010 <s> FLUORIDE </s>
-0.3010 <s> GUM DISEASE
-0.3010 <s> HALITOSIS </s>
-0.3010 <s> IMPRESSION </s>
-0.3010 <s> INFLAMMATION </s>
-0.3010 <s> INNER SURFACE
-0.3010 <s> LOCAL ANAESTHESIA
-0.3010 <s> MOUTHRINSE </s>
-0.3010 <s> OUTER SURFACE
-0.3010 <s> PERIODONTAL DISEASE
-0.3010 <s> PROTRUDE MANDIBLE
-0.3010 <s> PULP </s>
-0.3010 <s> REGULAR CHECK-UP
-0.3010 <s> ROOT CANAL
-0.3010 <s> SCALING </s>
-0.3010 <s> SENSITIVE TEETH
-0.3010 <s> TOOTH DECAY
-0.3010 <s> WISDOM TOOTH
-0.3010 BITING SURFACE </s>
-0.3010 CANAL TREATMENT </s>
-0.3010 DENTAL CALCULUS </s>
-0.3010 DENTAL CARIES </s>
-0.3010 DENTAL FLOSS </s>
-0.3010 DENTAL IMPLANTS </s>
-0.3010 DENTAL PLAQUE </s>
-0.3010 GUM DISEASE </s>
-0.3010 INNER SURFACE </s>
-0.3010 LOCAL ANAESTHESIA </s>
-0.3010 OUTER SURFACE </s>
-0.3010 PERIODONTAL DISEASE </s>
-0.3010 PROTRUDE MANDIBLE </s>
-0.3010 REGULAR CHECK-UP </s>
-0.6021 ROOT CANAL </s>
-0.6021 ROOT CANAL TREATMENT
-0.3010 SENSITIVE TEETH </s>
-0.3010 TOOTH DECAY </s>
-0.3010 WISDOM TOOTH </s>

\end\
