Language model created by QuickLM on Sun Oct 11 14:35:05 EDT 2015
Copyright (c) 1996-2010 Carnegie Mellon University and Alexander I. Rudnicky

The model is in standard ARPA format, designed by Doug Paul while he was at MITRE.

The code that was used to produce this language model is available in Open Source.
Please visit http://www.speech.cs.cmu.edu/tools/ for more information

The (fixed) discount mass is 0.5. The backoffs are computed using the ratio method.
This model based on a corpus of 31 sentences and 36 words

\data\
ngram 1=36
ngram 2=64
ngram 3=38

\1-grams:
-0.8140 </s> -0.3010
-0.8140 <s> -0.2287
-2.3054 下巴 -0.2287
-2.3054 伸出 -0.2989
-2.3054 内层 -0.2287
-2.3054 印模 -0.2287
-2.3054 发炎 -0.2287
-2.3054 口臭 -0.2287
-2.3054 咀嚼 -0.2989
-2.3054 外层 -0.2287
-2.3054 定期 -0.2989
-2.3054 敏感 -0.2287
-2.3054 智慧牙 -0.2287
-2.0043 根管 -0.2261
-2.3054 检查 -0.2287
-2.3054 氟化物 -0.2287
-2.3054 治疗 -0.2287
-2.3054 洗牙齿 -0.2287
-2.3054 漱口水 -0.2287
-2.3054 牙周病 -0.2287
-2.3054 牙垢 -0.2287
-2.3054 牙套 -0.2287
-2.3054 牙本质 -0.2287
-2.3054 牙桥 -0.2287
-2.0043 牙石 -0.2287
-2.3054 牙线 -0.2287
-2.3054 牙髓 -0.2287
-1.7033 牙齿 -0.2923
-2.3054 珐琅质 -0.2287
-2.3054 种牙 -0.2287
-2.3054 细菌 -0.2287
-2.3054 脓肿 -0.2287
-2.3054 蛀牙 -0.2287
-2.3054 补牙 -0.2287
-2.3054 表面 -0.2287
-2.3054 麻醉 -0.2287

\2-grams:
-1.7924 <s> 伸出 0.0000
-1.7924 <s> 印模 0.0000
-1.7924 <s> 发炎 0.0000
-1.7924 <s> 口臭 0.0000
-1.7924 <s> 定期 0.0000
-1.7924 <s> 智慧牙 0.0000
-1.4914 <s> 根管 0.0000
-1.7924 <s> 氟化物 0.0000
-1.7924 <s> 洗牙齿 0.0000
-1.7924 <s> 漱口水 0.0000
-1.7924 <s> 牙周病 0.0000
-1.7924 <s> 牙垢 0.0000
-1.7924 <s> 牙套 0.0000
-1.7924 <s> 牙本质 0.0000
-1.7924 <s> 牙桥 0.0000
-1.4914 <s> 牙石 0.0000
-1.7924 <s> 牙线 0.0000
-1.7924 <s> 牙髓 0.0000
-1.1903 <s> 牙齿 0.0000
-1.7924 <s> 珐琅质 0.0000
-1.7924 <s> 种牙 0.0000
-1.7924 <s> 细菌 0.0000
-1.7924 <s> 脓肿 0.0000
-1.7924 <s> 蛀牙 0.0000
-1.7924 <s> 补牙 0.0000
-1.7924 <s> 麻醉 0.0000
-0.3010 下巴 </s> -0.3010
-0.3010 伸出 下巴 0.0000
-0.3010 内层 </s> -0.3010
-0.3010 印模 </s> -0.3010
-0.3010 发炎 </s> -0.3010
-0.3010 口臭 </s> -0.3010
-0.3010 咀嚼 表面 0.0000
-0.3010 外层 </s> -0.3010
-0.3010 定期 检查 0.0000
-0.3010 敏感 </s> -0.3010
-0.3010 智慧牙 </s> -0.3010
-0.6021 根管 </s> -0.3010
-0.6021 根管 治疗 0.0000
-0.3010 检查 </s> -0.3010
-0.3010 氟化物 </s> -0.3010
-0.3010 治疗 </s> -0.3010
-0.3010 洗牙齿 </s> -0.3010
-0.3010 漱口水 </s> -0.3010
-0.3010 牙周病 </s> -0.3010
-0.3010 牙垢 </s> -0.3010
-0.3010 牙套 </s> -0.3010
-0.3010 牙本质 </s> -0.3010
-0.3010 牙桥 </s> -0.3010
-0.3010 牙石 </s> -0.3010
-0.3010 牙线 </s> -0.3010
-0.3010 牙髓 </s> -0.3010
-0.9031 牙齿 内层 0.0000
-0.9031 牙齿 咀嚼 0.0000
-0.9031 牙齿 外层 0.0000
-0.9031 牙齿 敏感 0.0000
-0.3010 珐琅质 </s> -0.3010
-0.3010 种牙 </s> -0.3010
-0.3010 细菌 </s> -0.3010
-0.3010 脓肿 </s> -0.3010
-0.3010 蛀牙 </s> -0.3010
-0.3010 补牙 </s> -0.3010
-0.3010 表面 </s> -0.3010
-0.3010 麻醉 </s> -0.3010

\3-grams:
-0.3010 <s> 伸出 下巴
-0.3010 <s> 印模 </s>
-0.3010 <s> 发炎 </s>
-0.3010 <s> 口臭 </s>
-0.3010 <s> 定期 检查
-0.3010 <s> 智慧牙 </s>
-0.6021 <s> 根管 </s>
-0.6021 <s> 根管 治疗
-0.3010 <s> 氟化物 </s>
-0.3010 <s> 洗牙齿 </s>
-0.3010 <s> 漱口水 </s>
-0.3010 <s> 牙周病 </s>
-0.3010 <s> 牙垢 </s>
-0.3010 <s> 牙套 </s>
-0.3010 <s> 牙本质 </s>
-0.3010 <s> 牙桥 </s>
-0.3010 <s> 牙石 </s>
-0.3010 <s> 牙线 </s>
-0.3010 <s> 牙髓 </s>
-0.9031 <s> 牙齿 内层
-0.9031 <s> 牙齿 咀嚼
-0.9031 <s> 牙齿 外层
-0.9031 <s> 牙齿 敏感
-0.3010 <s> 珐琅质 </s>
-0.3010 <s> 种牙 </s>
-0.3010 <s> 细菌 </s>
-0.3010 <s> 脓肿 </s>
-0.3010 <s> 蛀牙 </s>
-0.3010 <s> 补牙 </s>
-0.3010 <s> 麻醉 </s>
-0.3010 伸出 下巴 </s>
-0.3010 咀嚼 表面 </s>
-0.3010 定期 检查 </s>
-0.3010 根管 治疗 </s>
-0.3010 牙齿 内层 </s>
-0.3010 牙齿 咀嚼 表面
-0.3010 牙齿 外层 </s>
-0.3010 牙齿 敏感 </s>

\end\
