Language model created by QuickLM on Mon Sep 14 08:21:57 EDT 2015
Copyright (c) 1996-2010 Carnegie Mellon University and Alexander I. Rudnicky

The model is in standard ARPA format, designed by Doug Paul while he was at MITRE.

The code that was used to produce this language model is available in Open Source.
Please visit http://www.speech.cs.cmu.edu/tools/ for more information

The (fixed) discount mass is 0.5. The backoffs are computed using the ratio method.
This model based on a corpus of 33 sentences and 33 words

\data\
ngram 1=33
ngram 2=62
ngram 3=31

\1-grams:
-0.7782 </s> -0.3010
-0.7782 <s> -0.2218
-2.2967 伸出下巴 -0.2218
-2.2967 印模 -0.2218
-2.2967 发炎 -0.2218
-2.2967 口臭 -0.2218
-2.2967 定期检查 -0.2218
-2.2967 智慧牙 -0.2218
-2.2967 根管 -0.2218
-2.2967 根管治疗 -0.2218
-2.2967 氟化物 -0.2218
-2.2967 洗牙齿 -0.2218
-2.2967 漱口水 -0.2218
-2.2967 牙周病 -0.2218
-2.2967 牙垢 -0.2218
-2.2967 牙本质 -0.2218
-2.2967 牙桥 -0.2218
-1.9956 牙石 -0.2218
-2.2967 牙线 -0.2218
-2.2967 牙菌斑 -0.2218
-2.2967 牙髓 -0.2218
-2.2967 牙齿敏感 -0.2218
-2.2967 牙齿的内层 -0.2218
-2.2967 牙齿的咀嚼表面 -0.2218
-2.2967 牙齿的外层 -0.2218
-2.2967 牙龈病 -0.2218
-2.2967 珐琅质 -0.2218
-2.2967 种牙 -0.2218
-2.2967 细菌 -0.2218
-2.2967 脓肿 -0.2218
-1.9956 蛀牙 -0.2218
-2.2967 补牙 -0.2218
-2.2967 麻醉 -0.2218

\2-grams:
-1.8195 <s> 伸出下巴 0.0000
-1.8195 <s> 印模 0.0000
-1.8195 <s> 发炎 0.0000
-1.8195 <s> 口臭 0.0000
-1.8195 <s> 定期检查 0.0000
-1.8195 <s> 智慧牙 0.0000
-1.8195 <s> 根管 0.0000
-1.8195 <s> 根管治疗 0.0000
-1.8195 <s> 氟化物 0.0000
-1.8195 <s> 洗牙齿 0.0000
-1.8195 <s> 漱口水 0.0000
-1.8195 <s> 牙周病 0.0000
-1.8195 <s> 牙垢 0.0000
-1.8195 <s> 牙本质 0.0000
-1.8195 <s> 牙桥 0.0000
-1.5185 <s> 牙石 0.0000
-1.8195 <s> 牙线 0.0000
-1.8195 <s> 牙菌斑 0.0000
-1.8195 <s> 牙髓 0.0000
-1.8195 <s> 牙齿敏感 0.0000
-1.8195 <s> 牙齿的内层 0.0000
-1.8195 <s> 牙齿的咀嚼表面 0.0000
-1.8195 <s> 牙齿的外层 0.0000
-1.8195 <s> 牙龈病 0.0000
-1.8195 <s> 珐琅质 0.0000
-1.8195 <s> 种牙 0.0000
-1.8195 <s> 细菌 0.0000
-1.8195 <s> 脓肿 0.0000
-1.5185 <s> 蛀牙 0.0000
-1.8195 <s> 补牙 0.0000
-1.8195 <s> 麻醉 0.0000
-0.3010 伸出下巴 </s> -0.3010
-0.3010 印模 </s> -0.3010
-0.3010 发炎 </s> -0.3010
-0.3010 口臭 </s> -0.3010
-0.3010 定期检查 </s> -0.3010
-0.3010 智慧牙 </s> -0.3010
-0.3010 根管 </s> -0.3010
-0.3010 根管治疗 </s> -0.3010
-0.3010 氟化物 </s> -0.3010
-0.3010 洗牙齿 </s> -0.3010
-0.3010 漱口水 </s> -0.3010
-0.3010 牙周病 </s> -0.3010
-0.3010 牙垢 </s> -0.3010
-0.3010 牙本质 </s> -0.3010
-0.3010 牙桥 </s> -0.3010
-0.3010 牙石 </s> -0.3010
-0.3010 牙线 </s> -0.3010
-0.3010 牙菌斑 </s> -0.3010
-0.3010 牙髓 </s> -0.3010
-0.3010 牙齿敏感 </s> -0.3010
-0.3010 牙齿的内层 </s> -0.3010
-0.3010 牙齿的咀嚼表面 </s> -0.3010
-0.3010 牙齿的外层 </s> -0.3010
-0.3010 牙龈病 </s> -0.3010
-0.3010 珐琅质 </s> -0.3010
-0.3010 种牙 </s> -0.3010
-0.3010 细菌 </s> -0.3010
-0.3010 脓肿 </s> -0.3010
-0.3010 蛀牙 </s> -0.3010
-0.3010 补牙 </s> -0.3010
-0.3010 麻醉 </s> -0.3010

\3-grams:
-0.3010 <s> 伸出下巴 </s>
-0.3010 <s> 印模 </s>
-0.3010 <s> 发炎 </s>
-0.3010 <s> 口臭 </s>
-0.3010 <s> 定期检查 </s>
-0.3010 <s> 智慧牙 </s>
-0.3010 <s> 根管 </s>
-0.3010 <s> 根管治疗 </s>
-0.3010 <s> 氟化物 </s>
-0.3010 <s> 洗牙齿 </s>
-0.3010 <s> 漱口水 </s>
-0.3010 <s> 牙周病 </s>
-0.3010 <s> 牙垢 </s>
-0.3010 <s> 牙本质 </s>
-0.3010 <s> 牙桥 </s>
-0.3010 <s> 牙石 </s>
-0.3010 <s> 牙线 </s>
-0.3010 <s> 牙菌斑 </s>
-0.3010 <s> 牙髓 </s>
-0.3010 <s> 牙齿敏感 </s>
-0.3010 <s> 牙齿的内层 </s>
-0.3010 <s> 牙齿的咀嚼表面 </s>
-0.3010 <s> 牙齿的外层 </s>
-0.3010 <s> 牙龈病 </s>
-0.3010 <s> 珐琅质 </s>
-0.3010 <s> 种牙 </s>
-0.3010 <s> 细菌 </s>
-0.3010 <s> 脓肿 </s>
-0.3010 <s> 蛀牙 </s>
-0.3010 <s> 补牙 </s>
-0.3010 <s> 麻醉 </s>

\end\
