Language model created by QuickLM on Sun Oct 11 14:33:37 EDT 2015
Copyright (c) 1996-2010 Carnegie Mellon University and Alexander I. Rudnicky

The model is in standard ARPA format, designed by Doug Paul while he was at MITRE.

The code that was used to produce this language model is available in Open Source.
Please visit http://www.speech.cs.cmu.edu/tools/ for more information

The (fixed) discount mass is 0.5. The backoffs are computed using the ratio method.
This model based on a corpus of 31 sentences and 41 words

\data\
ngram 1=41
ngram 2=71
ngram 3=47

\1-grams:
-0.8511 </s> -0.3010
-0.8511 <s> -0.2304
-2.3424 ABSCESS -0.2351
-2.3424 ANAESTHESIA -0.2351
-2.3424 BACTERIA -0.2351
-2.3424 BITING -0.2951
-2.3424 BRIDGE -0.2351
-2.0414 CALCULUS -0.2351
-2.0414 CANAL -0.2328
-2.3424 CHECK-UP -0.2351
-2.3424 CROWN -0.2351
-2.3424 DECAY -0.2351
-1.7404 DENTAL -0.2910
-2.3424 DENTINE -0.2351
-2.3424 DISEASE -0.2351
-2.3424 ENAMEL -0.2351
-2.3424 FILLING -0.2351
-2.3424 FLOSS -0.2351
-2.3424 FLUORIDE -0.2351
-2.3424 GUM -0.2991
-2.3424 HALITOSIS -0.2351
-2.3424 IMPLANTS -0.2351
-2.3424 IMPRESSION -0.2351
-2.3424 INFLAMMATION -0.2351
-2.3424 INNER -0.2951
-2.3424 LOCAL -0.2991
-2.3424 MANDIBLE -0.2351
-2.3424 MOUTHRINSE -0.2351
-2.3424 OUTER -0.2951
-2.3424 PLAQUE -0.2351
-2.3424 PROTRUDE -0.2991
-2.3424 PULP -0.2351
-2.3424 REGULAR -0.2991
-2.0414 ROOT -0.2971
-2.3424 SCALING -0.2351
-2.3424 SENSITIVE -0.2991
-1.8653 SURFACE -0.2351
-2.3424 TEETH -0.2351
-2.0414 TOOTH -0.2328
-2.3424 TREATMENT -0.2351
-2.3424 WISDOM -0.2971

\2-grams:
-1.7924 <s> ABSCESS 0.0000
-1.7924 <s> BACTERIA 0.0000
-1.7924 <s> BITING 0.0000
-1.7924 <s> BRIDGE 0.0000
-1.7924 <s> CALCULUS 0.0000
-1.7924 <s> CROWN 0.0000
-1.1903 <s> DENTAL 0.0000
-1.7924 <s> DENTINE 0.0000
-1.7924 <s> ENAMEL 0.0000
-1.7924 <s> FILLING 0.0000
-1.7924 <s> FLUORIDE 0.0000
-1.7924 <s> GUM 0.0000
-1.7924 <s> HALITOSIS 0.0000
-1.7924 <s> IMPRESSION 0.0000
-1.7924 <s> INFLAMMATION 0.0000
-1.7924 <s> INNER 0.0000
-1.7924 <s> LOCAL 0.0000
-1.7924 <s> MOUTHRINSE 0.0000
-1.7924 <s> OUTER 0.0000
-1.7924 <s> PROTRUDE 0.0000
-1.7924 <s> PULP 0.0000
-1.7924 <s> REGULAR 0.0000
-1.4914 <s> ROOT 0.0000
-1.7924 <s> SCALING 0.0000
-1.7924 <s> SENSITIVE 0.0000
-1.7924 <s> TOOTH -0.1761
-1.7924 <s> WISDOM 0.0000
-0.3010 ABSCESS </s> -0.3010
-0.3010 ANAESTHESIA </s> -0.3010
-0.3010 BACTERIA </s> -0.3010
-0.3010 BITING SURFACE 0.0000
-0.3010 BRIDGE </s> -0.3010
-0.3010 CALCULUS </s> -0.3010
-0.6021 CANAL </s> -0.3010
-0.6021 CANAL TREATMENT 0.0000
-0.3010 CHECK-UP </s> -0.3010
-0.3010 CROWN </s> -0.3010
-0.3010 DECAY </s> -0.3010
-0.9031 DENTAL CALCULUS 0.0000
-0.9031 DENTAL FLOSS 0.0000
-0.9031 DENTAL IMPLANTS 0.0000
-0.9031 DENTAL PLAQUE 0.0000
-0.3010 DENTINE </s> -0.3010
-0.3010 DISEASE </s> -0.3010
-0.3010 ENAMEL </s> -0.3010
-0.3010 FILLING </s> -0.3010
-0.3010 FLOSS </s> -0.3010
-0.3010 FLUORIDE </s> -0.3010
-0.3010 GUM DISEASE 0.0000
-0.3010 HALITOSIS </s> -0.3010
-0.3010 IMPLANTS </s> -0.3010
-0.3010 IMPRESSION </s> -0.3010
-0.3010 INFLAMMATION </s> -0.3010
-0.3010 INNER SURFACE 0.0000
-0.3010 LOCAL ANAESTHESIA 0.0000
-0.3010 MANDIBLE </s> -0.3010
-0.3010 MOUTHRINSE </s> -0.3010
-0.3010 OUTER SURFACE 0.0000
-0.3010 PLAQUE </s> -0.3010
-0.3010 PROTRUDE MANDIBLE 0.0000
-0.3010 PULP </s> -0.3010
-0.3010 REGULAR CHECK-UP 0.0000
-0.3010 ROOT CANAL 0.0000
-0.3010 SCALING </s> -0.3010
-0.3010 SENSITIVE TEETH 0.0000
-0.3010 SURFACE </s> -0.3010
-0.3010 TEETH </s> -0.3010
-0.6021 TOOTH </s> -0.3010
-0.6021 TOOTH DECAY 0.0000
-0.3010 TREATMENT </s> -0.3010
-0.3010 WISDOM TOOTH -0.1761

\3-grams:
-0.3010 <s> ABSCESS </s>
-0.3010 <s> BACTERIA </s>
-0.3010 <s> BITING SURFACE
-0.3010 <s> BRIDGE </s>
-0.3010 <s> CALCULUS </s>
-0.3010 <s> CROWN </s>
-0.9031 <s> DENTAL CALCULUS
-0.9031 <s> DENTAL FLOSS
-0.9031 <s> DENTAL IMPLANTS
-0.9031 <s> DENTAL PLAQUE
-0.3010 <s> DENTINE </s>
-0.3010 <s> ENAMEL </s>
-0.3010 <s> FILLING </s>
-0.3010 <s> FLUORIDE </s>
-0.3010 <s> GUM DISEASE
-0.3010 <s> HALITOSIS </s>
-0.3010 <s> IMPRESSION </s>
-0.3010 <s> INFLAMMATION </s>
-0.3010 <s> INNER SURFACE
-0.3010 <s> LOCAL ANAESTHESIA
-0.3010 <s> MOUTHRINSE </s>
-0.3010 <s> OUTER SURFACE
-0.3010 <s> PROTRUDE MANDIBLE
-0.3010 <s> PULP </s>
-0.3010 <s> REGULAR CHECK-UP
-0.3010 <s> ROOT CANAL
-0.3010 <s> SCALING </s>
-0.3010 <s> SENSITIVE TEETH
-0.3010 <s> TOOTH DECAY
-0.3010 <s> WISDOM TOOTH
-0.3010 BITING SURFACE </s>
-0.3010 CANAL TREATMENT </s>
-0.3010 DENTAL CALCULUS </s>
-0.3010 DENTAL FLOSS </s>
-0.3010 DENTAL IMPLANTS </s>
-0.3010 DENTAL PLAQUE </s>
-0.3010 GUM DISEASE </s>
-0.3010 INNER SURFACE </s>
-0.3010 LOCAL ANAESTHESIA </s>
-0.3010 OUTER SURFACE </s>
-0.3010 PROTRUDE MANDIBLE </s>
-0.3010 REGULAR CHECK-UP </s>
-0.6021 ROOT CANAL </s>
-0.6021 ROOT CANAL TREATMENT
-0.3010 SENSITIVE TEETH </s>
-0.3010 TOOTH DECAY </s>
-0.3010 WISDOM TOOTH </s>

\end\
