Language model created by QuickLM on Sun Oct 25 10:16:49 EDT 2015
Copyright (c) 1996-2010 Carnegie Mellon University and Alexander I. Rudnicky

The model is in standard ARPA format, designed by Doug Paul while he was at MITRE.

The code that was used to produce this language model is available in Open Source.
Please visit http://www.speech.cs.cmu.edu/tools/ for more information

The (fixed) discount mass is 0.5. The backoffs are computed using the ratio method.
This model based on a corpus of 1033 sentences and 1039 words

\data\
ngram 1=1039
ngram 2=2070
ngram 3=1052

\1-grams:
-3.7952 . -0.2224
-0.7811 </s> -0.3010
-0.7811 <s> -0.2218
-3.7952 A -0.2224
-3.7952 ABLE -0.2224
-3.7952 ABOUT -0.2224
-3.7952 ABOVE -0.2224
-3.7952 ABSCESS -0.2224
-3.7952 ACT -0.2224
-3.7952 ADD -0.2224
-3.7952 AFRAID -0.2224
-3.7952 AFTER -0.2224
-3.7952 AGAIN -0.2224
-3.7952 AGAINST -0.2224
-3.7952 AGE -0.2224
-3.7952 AGO -0.2224
-3.7952 AGREE -0.2224
-3.7952 AIR -0.2224
-3.7952 ALL -0.2224
-3.7952 ALLOW -0.2224
-3.7952 ALSO -0.2224
-3.7952 ALWAYS -0.2224
-3.7952 AM -0.2224
-3.7952 AMONG -0.2224
-3.7952 AN -0.2224
-3.7952 ANAESTHESIA -0.2224
-3.7952 AND -0.2224
-3.7952 ANGER -0.2224
-3.7952 ANIMAL -0.2224
-3.7952 ANSWER -0.2224
-3.7952 ANY -0.2224
-3.7952 APPEAR -0.2224
-3.7952 APPLE -0.2224
-3.7952 ARE -0.2224
-3.7952 AREA -0.2224
-3.7952 ARM -0.2224
-3.7952 ARRANGE -0.2224
-3.7952 ARRIVE -0.2224
-3.7952 ART -0.2224
-3.7952 AS -0.2224
-3.7952 ASK -0.2224
-3.7952 AT -0.2224
-3.7952 ATOM -0.2224
-3.7952 BABY -0.2224
-3.7952 BACK -0.2224
-3.7952 BACTERIA -0.2224
-3.7952 BAD -0.2224
-3.7952 BALL -0.2224
-3.7952 BAND -0.2224
-3.7952 BANK -0.2224
-3.7952 BAR -0.2224
-3.7952 BASE -0.2224
-3.7952 BASIC -0.2224
-3.7952 BAT -0.2224
-3.7952 BE -0.2224
-3.7952 BEAR -0.2224
-3.7952 BEAT -0.2224
-3.7952 BEAUTY -0.2224
-3.7952 BED -0.2224
-3.7952 BEEN -0.2224
-3.7952 BEFORE -0.2224
-3.7952 BEGAN -0.2224
-3.7952 BEGIN -0.2224
-3.7952 BEHIND -0.2224
-3.7952 BELIEVE -0.2224
-3.7952 BELL -0.2224
-3.7952 BEST -0.2224
-3.7952 BETTER -0.2224
-3.7952 BETWEEN -0.2224
-3.7952 BIG -0.2224
-3.7952 BIRD -0.2224
-3.7952 BIT -0.2224
-3.7952 BITING -0.3008
-3.7952 BLACK -0.2224
-3.7952 BLOCK -0.2224
-3.7952 BLOOD -0.2224
-3.7952 BLOW -0.2224
-3.7952 BLUE -0.2224
-3.7952 BOARD -0.2224
-3.7952 BOAT -0.2224
-3.7952 BODY -0.2224
-3.7952 BONE -0.2224
-3.7952 BOOK -0.2224
-3.7952 BORN -0.2224
-3.7952 BOTH -0.2224
-3.7952 BOTTOM -0.2224
-3.7952 BOUGHT -0.2224
-3.7952 BOX -0.2224
-3.7952 BOY -0.2224
-3.7952 BRANCH -0.2224
-3.7952 BREAD -0.2224
-3.7952 BREAK -0.2224
-3.7952 BRIDGE -0.2224
-3.7952 BRIGHT -0.2224
-3.7952 BRING -0.2224
-3.7952 BROAD -0.2224
-3.7952 BROKE -0.2224
-3.7952 BROTHER -0.2224
-3.7952 BROUGHT -0.2224
-3.7952 BROWN -0.2224
-3.7952 BUILD -0.2224
-3.7952 BURN -0.2224
-3.7952 BUSY -0.2224
-3.7952 BUT -0.2224
-3.7952 BUY -0.2224
-3.7952 BY -0.2224
-3.4942 CALCULUS -0.2224
-3.7952 CALL -0.2224
-3.7952 CAME -0.2224
-3.7952 CAMP -0.2224
-3.7952 CAN -0.2224
-3.4942 CANAL -0.2223
-3.7952 CAPITAL -0.2224
-3.7952 CAPTAIN -0.2224
-3.7952 CAR -0.2224
-3.7952 CARD -0.2224
-3.7952 CARE -0.2224
-3.7952 CARRY -0.2224
-3.7952 CASE -0.2224
-3.7952 CAT -0.2224
-3.7952 CATCH -0.2224
-3.7952 CAUGHT -0.2224
-3.7952 CAUSE -0.2224
-3.7952 CELL -0.2224
-3.7952 CENT -0.2224
-3.7952 CENTER -0.2224
-3.7952 CENTURY -0.2224
-3.7952 CERTAIN -0.2224
-3.7952 CHAIR -0.2224
-3.7952 CHANCE -0.2224
-3.7952 CHANGE -0.2224
-3.7952 CHARACTER -0.2224
-3.7952 CHARGE -0.2224
-3.7952 CHART -0.2224
-3.7952 CHECK -0.2224
-3.7952 CHECK-UP -0.2224
-3.7952 CHICK -0.2224
-3.7952 CHIEF -0.2224
-3.7952 CHILD -0.2224
-3.7952 CHILDREN -0.2224
-3.7952 CHOOSE -0.2224
-3.7952 CHORD -0.2224
-3.7952 CIRCLE -0.2224
-3.7952 CITY -0.2224
-3.7952 CLAIM -0.2224
-3.7952 CLASS -0.2224
-3.7952 CLEAN -0.2224
-3.7952 CLEAR -0.2224
-3.7952 CLIMB -0.2224
-3.7952 CLOCK -0.2224
-3.7952 CLOSE -0.2224
-3.7952 CLOTHE -0.2224
-3.7952 CLOUD -0.2224
-3.7952 COAST -0.2224
-3.7952 COAT -0.2224
-3.7952 COLD -0.2224
-3.7952 COLLECT -0.2224
-3.7952 COLONY -0.2224
-3.7952 COLOR -0.2224
-3.7952 COLUMN -0.2224
-3.7952 COME -0.2224
-3.7952 COMMON -0.2224
-3.7952 COMPANY -0.2224
-3.7952 COMPARE -0.2224
-3.7952 COMPLETE -0.2224
-3.7952 CONDITION -0.2224
-3.7952 CONNECT -0.2224
-3.7952 CONSIDER -0.2224
-3.7952 CONSONANT -0.2224
-3.7952 CONTAIN -0.2224
-3.7952 CONTINENT -0.2224
-3.7952 CONTINUE -0.2224
-3.7952 CONTROL -0.2224
-3.7952 COOK -0.2224
-3.7952 COOL -0.2224
-3.7952 COPY -0.2224
-3.7952 CORN -0.2224
-3.7952 CORNER -0.2224
-3.7952 CORRECT -0.2224
-3.7952 COST -0.2224
-3.7952 COTTON -0.2224
-3.7952 COULD -0.2224
-3.7952 COUNT -0.2224
-3.7952 COUNTRY -0.2224
-3.7952 COURSE -0.2224
-3.7952 COVER -0.2224
-3.7952 COW -0.2224
-3.7952 CREASE -0.2224
-3.7952 CREATE -0.2224
-3.7952 CROP -0.2224
-3.7952 CROSS -0.2224
-3.7952 CROWD -0.2224
-3.7952 CROWN -0.2224
-3.7952 CRY -0.2224
-3.7952 CURRENT -0.2224
-3.7952 CUT -0.2224
-3.7952 DAD -0.2224
-3.7952 DANCE -0.2224
-3.7952 DANGER -0.2224
-3.7952 DARK -0.2224
-3.7952 DAY -0.2224
-3.7952 DEAD -0.2224
-3.7952 DEAL -0.2224
-3.7952 DEAR -0.2224
-3.7952 DEATH -0.2224
-3.7952 DECAY -0.2224
-3.7952 DECIDE -0.2224
-3.7952 DECIMAL -0.2224
-3.7952 DEEP -0.2224
-3.7952 DEGREE -0.2224
-3.1931 DENTAL -0.3007
-3.7952 DENTINE -0.2224
-3.7952 DEPEND -0.2224
-3.7952 DESCRIBE -0.2224
-3.7952 DESERT -0.2224
-3.7952 DESIGN -0.2224
-3.7952 DETERMINE -0.2224
-3.7952 DEVELOP -0.2224
-3.7952 DICTIONARY -0.2224
-3.7952 DID -0.2224
-3.7952 DIE -0.2224
-3.7952 DIFFER -0.2224
-3.7952 DIFFICULT -0.2224
-3.7952 DIRECT -0.2224
-3.7952 DISCUSS -0.2224
-3.7952 DISEASE -0.2224
-3.7952 DISTANT -0.2224
-3.7952 DIVIDE -0.2224
-3.7952 DIVISION -0.2224
-3.7952 DO -0.2224
-3.7952 DOCTOR -0.2224
-3.7952 DOES -0.2224
-3.7952 DOG -0.2224
-3.7952 DOLLAR -0.2224
-3.7952 DON'T -0.2224
-3.7952 DONE -0.2224
-3.7952 DOOR -0.2224
-3.7952 DOUBLE -0.2224
-3.7952 DOWN -0.2224
-3.7952 DRAW -0.2224
-3.7952 DREAM -0.2224
-3.7952 DRESS -0.2224
-3.7952 DRINK -0.2224
-3.7952 DRIVE -0.2224
-3.7952 DROP -0.2224
-3.7952 DRY -0.2224
-3.7952 DUCK -0.2224
-3.7952 DURING -0.2224
-3.7952 EACH -0.2224
-3.7952 EAR -0.2224
-3.7952 EARLY -0.2224
-3.7952 EARTH -0.2224
-3.7952 EASE -0.2224
-3.7952 EAST -0.2224
-3.7952 EAT -0.2224
-3.7952 EDGE -0.2224
-3.7952 EFFECT -0.2224
-3.7952 EGG -0.2224
-3.7952 EIGHT -0.2224
-3.7952 EITHER -0.2224
-3.7952 ELECTRIC -0.2224
-3.7952 ELEMENT -0.2224
-3.7952 ELSE -0.2224
-3.7952 ENAMEL -0.2224
-3.4942 END -0.2224
-3.7952 ENEMY -0.2224
-3.7952 ENERGY -0.2224
-3.7952 ENGINE -0.2224
-3.7952 ENOUGH -0.2224
-3.7952 ENTER -0.2224
-3.7952 EQUAL -0.2224
-3.7952 EQUATE -0.2224
-3.7952 ESPECIALLY -0.2224
-3.7952 EVEN -0.2224
-3.7952 EVENING -0.2224
-3.7952 EVENT -0.2224
-3.7952 EVER -0.2224
-3.7952 EVERY -0.2224
-3.7952 EXACT -0.2224
-3.7952 EXAMPLE -0.2224
-3.7952 EXCEPT -0.2224
-3.7952 EXCITE -0.2224
-3.7952 EXERCISE -0.2224
-3.7952 EXPECT -0.2224
-3.7952 EXPERIENCE -0.2224
-3.7952 EXPERIMENT -0.2224
-3.7952 EYE -0.2224
-3.7952 FACE -0.2224
-3.7952 FACT -0.2224
-3.7952 FAIR -0.2224
-3.7952 FALL -0.2224
-3.7952 FAMILY -0.2224
-3.7952 FAMOUS -0.2224
-3.7952 FAR -0.2224
-3.7952 FARM -0.2224
-3.7952 FAST -0.2224
-3.7952 FAT -0.2224
-3.7952 FATHER -0.2224
-3.7952 FAVOR -0.2224
-3.7952 FEAR -0.2224
-3.7952 FEED -0.2224
-3.7952 FEEL -0.2224
-3.7952 FEET -0.2224
-3.7952 FELL -0.2224
-3.7952 FELT -0.2224
-3.7952 FEW -0.2224
-3.7952 FIELD -0.2224
-3.7952 FIG -0.2224
-3.7952 FIGHT -0.2224
-3.7952 FIGURE -0.2224
-3.7952 FILL -0.2224
-3.7952 FILLING -0.2224
-3.7952 FINAL -0.2224
-3.7952 FIND -0.2224
-3.7952 FINE -0.2224
-3.7952 FINGER -0.2224
-3.7952 FINISH -0.2224
-3.7952 FIRE -0.2224
-3.7952 FIRST -0.2224
-3.7952 FISH -0.2224
-3.7952 FIT -0.2224
-3.7952 FIVE -0.2224
-3.7952 FLAT -0.2224
-3.7952 FLOOR -0.2224
-3.7952 FLOSS -0.2224
-3.7952 FLOW -0.2224
-3.7952 FLOWER -0.2224
-3.7952 FLUORIDE -0.2224
-3.7952 FLY -0.2224
-3.7952 FOLLOW -0.2224
-3.7952 FOOD -0.2224
-3.7952 FOOT -0.2224
-3.7952 FOR -0.2224
-3.7952 FORCE -0.2224
-3.7952 FOREST -0.2224
-3.7952 FORM -0.2224
-3.7952 FORWARD -0.2224
-3.7952 FOUND -0.2224
-3.7952 FOUR -0.2224
-3.7952 FRACTION -0.2224
-3.7952 FREE -0.2224
-3.7952 FRESH -0.2224
-3.7952 FRIEND -0.2224
-3.7952 FROM -0.2224
-3.7952 FRONT -0.2224
-3.7952 FRUIT -0.2224
-3.7952 FULL -0.2224
-3.7952 FUN -0.2224
-3.7952 GAME -0.2224
-3.7952 GARDEN -0.2224
-3.7952 GAS -0.2224
-3.7952 GATHER -0.2224
-3.7952 GAVE -0.2224
-3.7952 GENERAL -0.2224
-3.7952 GENTLE -0.2224
-3.7952 GET -0.2224
-3.7952 GIRL -0.2224
-3.7952 GIVE -0.2224
-3.7952 GLAD -0.2224
-3.7952 GLASS -0.2224
-3.7952 GO -0.2224
-3.7952 GOLD -0.2224
-3.7952 GONE -0.2224
-3.7952 GOOD -0.2224
-3.7952 GOT -0.2224
-3.7952 GOVERN -0.2224
-3.7952 GRAND -0.2224
-3.7952 GRASS -0.2224
-3.7952 GRAY -0.2224
-3.7952 GREAT -0.2224
-3.7952 GREEN -0.2224
-3.7952 GREW -0.2224
-3.7952 GROUND -0.2224
-3.7952 GROUP -0.2224
-3.7952 GROW -0.2224
-3.7952 GUESS -0.2224
-3.7952 GUIDE -0.2224
-3.7952 GUM -0.3010
-3.7952 GUN -0.2224
-3.7952 HAD -0.2224
-3.7952 HAIR -0.2224
-3.7952 HALF -0.2224
-3.7952 HALITOSIS -0.2224
-3.7952 HAND -0.2224
-3.7952 HAPPEN -0.2224
-3.7952 HAPPY -0.2224
-3.7952 HARD -0.2224
-3.7952 HAS -0.2224
-3.7952 HAT -0.2224
-3.7952 HAVE -0.2224
-3.7952 HE -0.2224
-3.7952 HEAD -0.2224
-3.7952 HEAR -0.2224
-3.7952 HEARD -0.2224
-3.7952 HEART -0.2224
-3.7952 HEAT -0.2224
-3.7952 HEAVY -0.2224
-3.7952 HELD -0.2224
-3.7952 HELP -0.2224
-3.7952 HER -0.2224
-3.7952 HERE -0.2224
-3.7952 HIGH -0.2224
-3.7952 HILL -0.2224
-3.7952 HIM -0.2224
-3.7952 HIS -0.2224
-3.7952 HISTORY -0.2224
-3.7952 HIT -0.2224
-3.7952 HOLD -0.2224
-3.7952 HOLE -0.2224
-3.7952 HOME -0.2224
-3.7952 HOPE -0.2224
-3.7952 HORSE -0.2224
-3.4942 HOT -0.2224
-3.7952 HOUR -0.2224
-3.7952 HOUSE -0.2224
-3.7952 HOW -0.2224
-3.7952 HUGE -0.2224
-3.7952 HUMAN -0.2224
-3.7952 HUNDRED -0.2224
-3.7952 HUNT -0.2224
-3.7952 HURRY -0.2224
-3.7952 I -0.2224
-3.7952 ICE -0.2224
-3.7952 IDEA -0.2224
-3.7952 IF -0.2224
-3.7952 IMAGINE -0.2224
-3.7952 IMPLANTS -0.2224
-3.7952 IMPRESSION -0.2224
-3.7952 IN -0.2224
-3.7952 INCH -0.2224
-3.7952 INCLUDE -0.2224
-3.7952 INDICATE -0.2224
-3.7952 INDUSTRY -0.2224
-3.7952 INFLAMMATION -0.2224
-3.7952 INNER -0.3008
-3.7952 INSECT -0.2224
-3.7952 INSTANT -0.2224
-3.7952 INSTRUMENT -0.2224
-3.7952 INTEREST -0.2224
-3.7952 INVENT -0.2224
-3.7952 IRON -0.2224
-3.7952 IS -0.2224
-3.7952 ISLAND -0.2224
-3.7952 IT -0.2224
-3.7952 JOB -0.2224
-3.7952 JOIN -0.2224
-3.7952 JOY -0.2224
-3.7952 JUMP -0.2224
-3.7952 JUST -0.2224
-3.7952 KEEP -0.2224
-3.7952 KEPT -0.2224
-3.7952 KEY -0.2224
-3.7952 KILL -0.2224
-3.7952 KIND -0.2224
-3.7952 KING -0.2224
-3.7952 KNEW -0.2224
-3.7952 KNOW -0.2224
-3.7952 LADY -0.2224
-3.7952 LAKE -0.2224
-3.7952 LAND -0.2224
-3.7952 LANGUAGE -0.2224
-3.7952 LARGE -0.2224
-3.7952 LAST -0.2224
-3.7952 LATE -0.2224
-3.7952 LAUGH -0.2224
-3.7952 LAW -0.2224
-3.7952 LAY -0.2224
-3.7952 LEAD -0.2224
-3.7952 LEARN -0.2224
-3.7952 LEAST -0.2224
-3.7952 LEAVE -0.2224
-3.7952 LED -0.2224
-3.7952 LEFT -0.2224
-3.7952 LEG -0.2224
-3.7952 LENGTH -0.2224
-3.7952 LESS -0.2224
-3.7952 LET -0.2224
-3.7952 LETTER -0.2224
-3.7952 LEVEL -0.2224
-3.7952 LIE -0.2224
-3.7952 LIFE -0.2224
-3.7952 LIFT -0.2224
-3.7952 LIGHT -0.2224
-3.7952 LIKE -0.2224
-3.7952 LINE -0.2224
-3.7952 LIQUID -0.2224
-3.7952 LIST -0.2224
-3.7952 LISTEN -0.2224
-3.7952 LITTLE -0.2224
-3.7952 LIVE -0.2224
-3.7952 LOCAL -0.3010
-3.7952 LOCATE -0.2224
-3.7952 LOG -0.2224
-3.7952 LONE -0.2224
-3.7952 LONG -0.2224
-3.7952 LOOK -0.2224
-3.7952 LOST -0.2224
-3.7952 LOT -0.2224
-3.7952 LOUD -0.2224
-3.7952 LOVE -0.2224
-3.7952 LOW -0.2224
-3.7952 MACHINE -0.2224
-3.7952 MADE -0.2224
-3.7952 MAGNET -0.2224
-3.7952 MAIN -0.2224
-3.7952 MAJOR -0.2224
-3.7952 MAKE -0.2224
-3.7952 MAN -0.2224
-3.7952 MANDIBLE -0.2224
-3.7952 MANY -0.2224
-3.7952 MAP -0.2224
-3.7952 MARK -0.2224
-3.7952 MARKET -0.2224
-3.7952 MASS -0.2224
-3.7952 MASTER -0.2224
-3.7952 MATCH -0.2224
-3.7952 MATERIAL -0.2224
-3.7952 MATTER -0.2224
-3.7952 MAY -0.2224
-3.7952 ME -0.2224
-3.7952 MEAN -0.2224
-3.7952 MEANT -0.2224
-3.7952 MEASURE -0.2224
-3.7952 MEAT -0.2224
-3.7952 MEET -0.2224
-3.7952 MELODY -0.2224
-3.7952 MEN -0.2224
-3.7952 METAL -0.2224
-3.7952 METHOD -0.2224
-3.7952 MIDDLE -0.2224
-3.7952 MIGHT -0.2224
-3.7952 MILE -0.2224
-3.7952 MILK -0.2224
-3.7952 MILLION -0.2224
-3.7952 MIND -0.2224
-3.7952 MINE -0.2224
-3.7952 MINUTE -0.2224
-3.7952 MISS -0.2224
-3.7952 MIX -0.2224
-3.7952 MODERN -0.2224
-3.7952 MOLECULE -0.2224
-3.7952 MOMENT -0.2224
-3.7952 MONEY -0.2224
-3.7952 MONTH -0.2224
-3.7952 MOON -0.2224
-3.7952 MORE -0.2224
-3.7952 MORNING -0.2224
-3.7952 MOST -0.2224
-3.7952 MOTHER -0.2224
-3.7952 MOTION -0.2224
-3.7952 MOUNT -0.2224
-3.7952 MOUNTAIN -0.2224
-3.4942 MOUTH -0.2223
-3.7952 MOVE -0.2224
-3.7952 MUCH -0.2224
-3.7952 MULTIPLY -0.2224
-3.7952 MUSIC -0.2224
-3.7952 MUST -0.2224
-3.7952 MY -0.2224
-3.7952 NAME -0.2224
-3.7952 NATION -0.2224
-3.7952 NATURAL -0.2224
-3.7952 NATURE -0.2224
-3.7952 NEAR -0.2224
-3.7952 NECESSARY -0.2224
-3.7952 NECK -0.2224
-3.7952 NEED -0.2224
-3.7952 NEIGHBOR -0.2224
-3.7952 NEVER -0.2224
-3.7952 NEW -0.2224
-3.7952 NEXT -0.2224
-3.7952 NIGHT -0.2224
-3.7952 NINE -0.2224
-3.7952 NO -0.2224
-3.7952 NOISE -0.2224
-3.7952 NOON -0.2224
-3.7952 NOR -0.2224
-3.7952 NORTH -0.2224
-3.7952 NOSE -0.2224
-3.7952 NOTE -0.2224
-3.7952 NOTHING -0.2224
-3.7952 NOTICE -0.2224
-3.7952 NOUN -0.2224
-3.7952 NOW -0.2224
-3.7952 NUMBER -0.2224
-3.7952 NUMERAL -0.2224
-3.7952 OBJECT -0.2224
-3.7952 OBSERVE -0.2224
-3.7952 OCCUR -0.2224
-3.7952 OCEAN -0.2224
-3.7952 OF -0.2224
-3.7952 OFF -0.2224
-3.7952 OFFER -0.2224
-3.7952 OFFICE -0.2224
-3.7952 OFTEN -0.2224
-3.7952 OH -0.2224
-3.7952 OIL -0.2224
-3.7952 OLD -0.2224
-3.7952 ON -0.2224
-3.7952 ONCE -0.2224
-3.7952 ONE -0.2224
-3.7952 ONLY -0.2224
-3.7952 OPEN -0.2224
-3.7952 OPERATE -0.2224
-3.7952 OPPOSITE -0.2224
-3.7952 OR -0.2224
-3.7952 ORDER -0.2224
-3.7952 ORGAN -0.2224
-3.7952 ORIGINAL -0.2224
-3.7952 OTHER -0.2224
-3.7952 OUR -0.2224
-3.7952 OUT -0.2224
-3.7952 OUTER -0.3008
-3.7952 OVER -0.2224
-3.7952 OWN -0.2224
-3.7952 OXYGEN -0.2224
-3.7952 PAGE -0.2224
-3.7952 PAINT -0.2224
-3.7952 PAIR -0.2224
-3.7952 PAPER -0.2224
-3.7952 PARAGRAPH -0.2224
-3.7952 PARENT -0.2224
-3.7952 PART -0.2224
-3.7952 PARTICULAR -0.2224
-3.7952 PARTY -0.2224
-3.7952 PASS -0.2224
-3.7952 PAST -0.2224
-3.7952 PATH -0.2224
-3.7952 PATTERN -0.2224
-3.7952 PAY -0.2224
-3.7952 PEOPLE -0.2224
-3.7952 PERHAPS -0.2224
-3.7952 PERIOD -0.2224
-3.7952 PERSON -0.2224
-3.7952 PHRASE -0.2224
-3.7952 PICK -0.2224
-3.7952 PICTURE -0.2224
-3.7952 PIECE -0.2224
-3.7952 PITCH -0.2224
-3.7952 PLACE -0.2224
-3.7952 PLAIN -0.2224
-3.7952 PLAN -0.2224
-3.7952 PLANE -0.2224
-3.7952 PLANET -0.2224
-3.7952 PLANT -0.2224
-3.7952 PLAQUE -0.2224
-3.7952 PLAY -0.2224
-3.7952 PLEASE -0.2224
-3.7952 PLURAL -0.2224
-3.7952 POEM -0.2224
-3.7952 POINT -0.2224
-3.7952 POOR -0.2224
-3.7952 POPULATE -0.2224
-3.7952 PORT -0.2224
-3.7952 POSE -0.2224
-3.7952 POSITION -0.2224
-3.7952 POSSIBLE -0.2224
-3.7952 POST -0.2224
-3.7952 POUND -0.2224
-3.7952 POWER -0.2224
-3.7952 PRACTICE -0.2224
-3.7952 PREPARE -0.2224
-3.7952 PRESENT -0.2224
-3.7952 PRESS -0.2224
-3.7952 PRETTY -0.2224
-3.7952 PRINT -0.2224
-3.7952 PROBABLE -0.2224
-3.7952 PROBLEM -0.2224
-3.7952 PROCESS -0.2224
-3.7952 PRODUCE -0.2224
-3.7952 PRODUCT -0.2224
-3.7952 PROPER -0.2224
-3.7952 PROPERTY -0.2224
-3.7952 PROTECT -0.2224
-3.7952 PROTRUDE -0.3010
-3.7952 PROVE -0.2224
-3.7952 PROVIDE -0.2224
-3.7952 PULL -0.2224
-3.7952 PULP -0.2224
-3.7952 PUSH -0.2224
-3.7952 PUT -0.2224
-3.7952 QUART -0.2224
-3.7952 QUESTION -0.2224
-3.7952 QUICK -0.2224
-3.7952 QUIET -0.2224
-3.7952 QUITE -0.2224
-3.7952 QUOTIENT -0.2224
-3.7952 RACE -0.2224
-3.7952 RADIO -0.2224
-3.7952 RAIL -0.2224
-3.7952 RAIN -0.2224
-3.7952 RAISE -0.2224
-3.7952 RAN -0.2224
-3.7952 RANGE -0.2224
-3.7952 RATHER -0.2224
-3.7952 REACH -0.2224
-3.7952 READ -0.2224
-3.7952 READY -0.2224
-3.7952 REAL -0.2224
-3.7952 REASON -0.2224
-3.7952 RECEIVE -0.2224
-3.7952 RECORD -0.2224
-3.7952 RED -0.2224
-3.7952 REGION -0.2224
-3.7952 REGULAR -0.3010
-3.7952 REMEMBER -0.2224
-3.7952 REPEAT -0.2224
-3.7952 REPLY -0.2224
-3.7952 REPRESENT -0.2224
-3.7952 REQUIRE -0.2224
-3.7952 REST -0.2224
-3.7952 RESULT -0.2224
-3.7952 RICH -0.2224
-3.7952 RIDE -0.2224
-3.7952 RIGHT -0.2224
-3.7952 RING -0.2224
-3.7952 RINSE -0.2224
-3.7952 RISE -0.2224
-3.7952 RIVER -0.2224
-3.7952 ROAD -0.2224
-3.7952 ROCK -0.2224
-3.7952 ROLL -0.2224
-3.7952 ROOM -0.2224
-3.3181 ROOT -0.2223
-3.7952 ROPE -0.2224
-3.7952 ROSE -0.2224
-3.7952 ROUND -0.2224
-3.7952 ROW -0.2224
-3.7952 RUB -0.2224
-3.7952 RULE -0.2224
-3.7952 RUN -0.2224
-3.7952 SAFE -0.2224
-3.7952 SAID -0.2224
-3.7952 SAIL -0.2224
-3.7952 SALT -0.2224
-3.7952 SAME -0.2224
-3.7952 SAND -0.2224
-3.7952 SAT -0.2224
-3.7952 SAVE -0.2224
-3.7952 SAW -0.2224
-3.7952 SAY -0.2224
-3.7952 SCALE -0.2224
-3.7952 SCALING -0.2224
-3.7952 SCHOOL -0.2224
-3.7952 SCIENCE -0.2224
-3.7952 SCORE -0.2224
-3.7952 SEA -0.2224
-3.7952 SEARCH -0.2224
-3.7952 SEASON -0.2224
-3.7952 SEAT -0.2224
-3.7952 SECOND -0.2224
-3.7952 SECTION -0.2224
-3.7952 SEE -0.2224
-3.7952 SEED -0.2224
-3.7952 SEEM -0.2224
-3.7952 SEGMENT -0.2224
-3.7952 SELECT -0.2224
-3.7952 SELF -0.2224
-3.7952 SELL -0.2224
-3.7952 SEND -0.2224
-3.7952 SENSE -0.2224
-3.7952 SENSITIVE -0.3009
-3.7952 SENT -0.2224
-3.7952 SENTENCE -0.2224
-3.7952 SEPARATE -0.2224
-3.7952 SERVE -0.2224
-3.7952 SET -0.2224
-3.7952 SETTLE -0.2224
-3.7952 SEVEN -0.2224
-3.7952 SEVERAL -0.2224
-3.7952 SHALL -0.2224
-3.7952 SHAPE -0.2224
-3.7952 SHARE -0.2224
-3.7952 SHARP -0.2224
-3.7952 SHE -0.2224
-3.7952 SHEET -0.2224
-3.7952 SHELL -0.2224
-3.7952 SHINE -0.2224
-3.7952 SHIP -0.2224
-3.7952 SHOE -0.2224
-3.7952 SHOP -0.2224
-3.7952 SHORE -0.2224
-3.7952 SHORT -0.2224
-3.7952 SHOULD -0.2224
-3.7952 SHOULDER -0.2224
-3.7952 SHOUT -0.2224
-3.7952 SHOW -0.2224
-3.7952 SIDE -0.2224
-3.7952 SIGHT -0.2224
-3.7952 SIGN -0.2224
-3.7952 SILENT -0.2224
-3.7952 SILVER -0.2224
-3.7952 SIMILAR -0.2224
-3.7952 SIMPLE -0.2224
-3.7952 SINCE -0.2224
-3.7952 SING -0.2224
-3.7952 SINGLE -0.2224
-3.7952 SISTER -0.2224
-3.7952 SIT -0.2224
-3.7952 SIX -0.2224
-3.7952 SIZE -0.2224
-3.7952 SKILL -0.2224
-3.7952 SKIN -0.2224
-3.7952 SKY -0.2224
-3.7952 SLAVE -0.2224
-3.7952 SLEEP -0.2224
-3.7952 SLIP -0.2224
-3.7952 SLOW -0.2224
-3.7952 SMALL -0.2224
-3.7952 SMELL -0.2224
-3.7952 SMILE -0.2224
-3.7952 SNOW -0.2224
-3.7952 SO -0.2224
-3.7952 SOFT -0.2224
-3.7952 SOIL -0.2224
-3.7952 SOLDIER -0.2224
-3.7952 SOLUTION -0.2224
-3.7952 SOLVE -0.2224
-3.7952 SOME -0.2224
-3.7952 SON -0.2224
-3.7952 SONG -0.2224
-3.7952 SOON -0.2224
-3.7952 SOUND -0.2224
-3.7952 SOUTH -0.2224
-3.7952 SPACE -0.2224
-3.7952 SPEAK -0.2224
-3.7952 SPECIAL -0.2224
-3.7952 SPEECH -0.2224
-3.7952 SPEED -0.2224
-3.7952 SPELL -0.2224
-3.7952 SPEND -0.2224
-3.7952 SPOKE -0.2224
-3.7952 SPOT -0.2224
-3.7952 SPREAD -0.2224
-3.7952 SPRING -0.2224
-3.7952 SQUARE -0.2224
-3.7952 STAND -0.2224
-3.7952 STAR -0.2224
-3.4942 START -0.2224
-3.7952 STATE -0.2224
-3.7952 STATION -0.2224
-3.7952 STAY -0.2224
-3.7952 STEAD -0.2224
-3.7952 STEAM -0.2224
-3.7952 STEEL -0.2224
-3.7952 STEP -0.2224
-3.7952 STICK -0.2224
-3.7952 STILL -0.2224
-3.7952 STONE -0.2224
-3.7952 STOOD -0.2224
-3.7952 STOP -0.2224
-3.7952 STORE -0.2224
-3.7952 STORY -0.2224
-3.7952 STRAIGHT -0.2224
-3.7952 STRANGE -0.2224
-3.7952 STREAM -0.2224
-3.7952 STREET -0.2224
-3.7952 STRETCH -0.2224
-3.7952 STRING -0.2224
-3.7952 STRONG -0.2224
-3.7952 STUDENT -0.2224
-3.7952 STUDY -0.2224
-3.7952 SUBJECT -0.2224
-3.7952 SUBSTANCE -0.2224
-3.7952 SUBTRACT -0.2224
-3.7952 SUCCESS -0.2224
-3.7952 SUCH -0.2224
-3.7952 SUDDEN -0.2224
-3.7952 SUFFIX -0.2224
-3.7952 SUGAR -0.2224
-3.7952 SUGGEST -0.2224
-3.7952 SUIT -0.2224
-3.7952 SUMMER -0.2224
-3.7952 SUN -0.2224
-3.7952 SUPPLY -0.2224
-3.7952 SUPPORT -0.2224
-3.7952 SURE -0.2224
-3.1931 SURFACE -0.2224
-3.7952 SURPRISE -0.2224
-3.7952 SWIM -0.2224
-3.7952 SYLLABLE -0.2224
-3.7952 SYMBOL -0.2224
-3.7952 SYSTEM -0.2224
-3.7952 TABLE -0.2224
-3.7952 TAIL -0.2224
-3.7952 TAKE -0.2224
-3.7952 TALK -0.2224
-3.7952 TALL -0.2224
-3.7952 TEACH -0.2224
-3.7952 TEAM -0.2224
-3.4942 TEETH -0.2224
-3.7952 TELL -0.2224
-3.7952 TEMPERATURE -0.2224
-3.7952 TEN -0.2224
-3.7952 TERM -0.2224
-3.7952 TEST -0.2224
-3.7952 THAN -0.2224
-3.7952 THANK -0.2224
-3.7952 THAT -0.2224
-3.7952 THE -0.2224
-3.7952 THEIR -0.2224
-3.7952 THEM -0.2224
-3.7952 THEN -0.2224
-3.7952 THERE -0.2224
-3.7952 THESE -0.2224
-3.7952 THEY -0.2224
-3.7952 THICK -0.2224
-3.7952 THIN -0.2224
-3.7952 THING -0.2224
-3.7952 THINK -0.2224
-3.7952 THIRD -0.2224
-3.7952 THIS -0.2224
-3.7952 THOSE -0.2224
-3.7952 THOUGH -0.2224
-3.7952 THOUGHT -0.2224
-3.7952 THOUSAND -0.2224
-3.7952 THREE -0.2224
-3.7952 THROUGH -0.2224
-3.7952 THROW -0.2224
-3.7952 THUS -0.2224
-3.7952 TIE -0.2224
-3.7952 TIME -0.2224
-3.7952 TINY -0.2224
-3.7952 TIRE -0.2224
-3.7952 TO -0.2224
-3.7952 TOGETHER -0.2224
-3.7952 TOLD -0.2224
-3.7952 TONE -0.2224
-3.7952 TOO -0.2224
-3.7952 TOOK -0.2224
-3.7952 TOOL -0.2224
-3.4942 TOOTH -0.2223
-3.7952 TOP -0.2224
-3.7952 TOTAL -0.2224
-3.7952 TOUCH -0.2224
-3.7952 TOWARD -0.2224
-3.7952 TOWN -0.2224
-3.7952 TRACK -0.2224
-3.7952 TRADE -0.2224
-3.7952 TRAIN -0.2224
-3.4942 TRANSLATION -0.3008
-3.7952 TRAVEL -0.2224
-3.7952 TREATMENT -0.2224
-3.7952 TREE -0.2224
-3.7952 TRIANGLE -0.2224
-3.7952 TRIP -0.2224
-3.7952 TROUBLE -0.2224
-3.7952 TRUCK -0.2224
-3.7952 TRUE -0.3010
-3.7952 TRY -0.2224
-3.7952 TUBE -0.2224
-3.7952 TURN -0.2224
-3.7952 TWENTY -0.2224
-3.7952 TWO -0.2224
-3.7952 TYPE -0.2224
-3.7952 UNDER -0.2224
-3.7952 UNIT -0.2224
-3.7952 UNTIL -0.2224
-3.7952 UP -0.2224
-3.7952 US -0.2224
-3.7952 USE -0.2224
-3.7952 USUAL -0.2224
-3.7952 VALLEY -0.2224
-3.7952 VALUE -0.2224
-3.7952 VARY -0.2224
-3.7952 VERB -0.2224
-3.7952 VERY -0.2224
-3.7952 VIEW -0.2224
-3.7952 VILLAGE -0.2224
-3.7952 VISIT -0.2224
-3.7952 VOICE -0.2224
-3.7952 VOWEL -0.2224
-3.7952 WAIT -0.2224
-3.7952 WALK -0.2224
-3.7952 WALL -0.2224
-3.7952 WANT -0.2224
-3.7952 WAR -0.2224
-3.7952 WARM -0.2224
-3.7952 WAS -0.2224
-3.7952 WASH -0.2224
-3.7952 WATCH -0.2224
-3.7952 WATER -0.2224
-3.7952 WAVE -0.2224
-3.7952 WAY -0.2224
-3.7952 WE -0.2224
-3.7952 WEAR -0.2224
-3.7952 WEATHER -0.2224
-3.7952 WEEK -0.2224
-3.7952 WEIGHT -0.2224
-3.7952 WELL -0.2224
-3.7952 WENT -0.2224
-3.7952 WERE -0.2224
-3.7952 WEST -0.2224
-3.7952 WHAT -0.2224
-3.7952 WHEEL -0.2224
-3.7952 WHEN -0.2224
-3.7952 WHERE -0.2224
-3.7952 WHETHER -0.2224
-3.7952 WHICH -0.2224
-3.7952 WHILE -0.2224
-3.7952 WHITE -0.2224
-3.7952 WHO -0.2224
-3.7952 WHOLE -0.2224
-3.7952 WHOSE -0.2224
-3.7952 WHY -0.2224
-3.7952 WIDE -0.2224
-3.7952 WIFE -0.2224
-3.7952 WILD -0.2224
-3.7952 WILL -0.2224
-3.7952 WIN -0.2224
-3.7952 WIND -0.2224
-3.7952 WINDOW -0.2224
-3.7952 WING -0.2224
-3.7952 WINTER -0.2224
-3.7952 WIRE -0.2224
-3.7952 WISDOM -0.3009
-3.7952 WISH -0.2224
-3.7952 WITH -0.2224
-3.7952 WOMAN -0.2224
-3.7952 WOMEN -0.2224
-3.7952 WON'T -0.2224
-3.7952 WONDER -0.2224
-3.7952 WOOD -0.2224
-3.7952 WORD -0.2224
-3.7952 WORK -0.2224
-3.7952 WORLD -0.2224
-3.7952 WOULD -0.2224
-3.7952 WRITE -0.2224
-3.7952 WRITTEN -0.2224
-3.7952 WRONG -0.2224
-3.7952 WROTE -0.2224
-3.7952 YARD -0.2224
-3.7952 YEAR -0.2224
-3.7952 YELLOW -0.2224
-3.7952 YES -0.2224
-3.7952 YET -0.2224
-3.7952 YOU -0.2224
-3.7952 YOUNG -0.2224
-3.7952 YOUR -0.2224

\2-grams:
-0.3010 . </s> -0.3010
-3.3151 <s> A 0.0000
-3.3151 <s> ABLE 0.0000
-3.3151 <s> ABOUT 0.0000
-3.3151 <s> ABOVE 0.0000
-3.3151 <s> ABSCESS 0.0000
-3.3151 <s> ACT 0.0000
-3.3151 <s> ADD 0.0000
-3.3151 <s> AFRAID 0.0000
-3.3151 <s> AFTER 0.0000
-3.3151 <s> AGAIN 0.0000
-3.3151 <s> AGAINST 0.0000
-3.3151 <s> AGE 0.0000
-3.3151 <s> AGO 0.0000
-3.3151 <s> AGREE 0.0000
-3.3151 <s> AIR 0.0000
-3.3151 <s> ALL 0.0000
-3.3151 <s> ALLOW 0.0000
-3.3151 <s> ALSO 0.0000
-3.3151 <s> ALWAYS 0.0000
-3.3151 <s> AM 0.0000
-3.3151 <s> AMONG 0.0000
-3.3151 <s> AN 0.0000
-3.3151 <s> AND 0.0000
-3.3151 <s> ANGER 0.0000
-3.3151 <s> ANIMAL 0.0000
-3.3151 <s> ANSWER 0.0000
-3.3151 <s> ANY 0.0000
-3.3151 <s> APPEAR 0.0000
-3.3151 <s> APPLE 0.0000
-3.3151 <s> ARE 0.0000
-3.3151 <s> AREA 0.0000
-3.3151 <s> ARM 0.0000
-3.3151 <s> ARRANGE 0.0000
-3.3151 <s> ARRIVE 0.0000
-3.3151 <s> ART 0.0000
-3.3151 <s> AS 0.0000
-3.3151 <s> ASK 0.0000
-3.3151 <s> AT 0.0000
-3.3151 <s> ATOM 0.0000
-3.3151 <s> BABY 0.0000
-3.3151 <s> BACK 0.0000
-3.3151 <s> BACTERIA 0.0000
-3.3151 <s> BAD 0.0000
-3.3151 <s> BALL 0.0000
-3.3151 <s> BAND 0.0000
-3.3151 <s> BANK 0.0000
-3.3151 <s> BAR 0.0000
-3.3151 <s> BASE 0.0000
-3.3151 <s> BASIC 0.0000
-3.3151 <s> BAT 0.0000
-3.3151 <s> BE 0.0000
-3.3151 <s> BEAR 0.0000
-3.3151 <s> BEAT 0.0000
-3.3151 <s> BEAUTY 0.0000
-3.3151 <s> BED 0.0000
-3.3151 <s> BEEN 0.0000
-3.3151 <s> BEFORE 0.0000
-3.3151 <s> BEGAN 0.0000
-3.3151 <s> BEGIN 0.0000
-3.3151 <s> BEHIND 0.0000
-3.3151 <s> BELIEVE 0.0000
-3.3151 <s> BELL 0.0000
-3.3151 <s> BEST 0.0000
-3.3151 <s> BETTER 0.0000
-3.3151 <s> BETWEEN 0.0000
-3.3151 <s> BIG 0.0000
-3.3151 <s> BIRD 0.0000
-3.3151 <s> BIT 0.0000
-3.3151 <s> BITING 0.0000
-3.3151 <s> BLACK 0.0000
-3.3151 <s> BLOCK 0.0000
-3.3151 <s> BLOOD 0.0000
-3.3151 <s> BLOW 0.0000
-3.3151 <s> BLUE 0.0000
-3.3151 <s> BOARD 0.0000
-3.3151 <s> BOAT 0.0000
-3.3151 <s> BODY 0.0000
-3.3151 <s> BONE 0.0000
-3.3151 <s> BOOK 0.0000
-3.3151 <s> BORN 0.0000
-3.3151 <s> BOTH 0.0000
-3.3151 <s> BOTTOM 0.0000
-3.3151 <s> BOUGHT 0.0000
-3.3151 <s> BOX 0.0000
-3.3151 <s> BOY 0.0000
-3.3151 <s> BRANCH 0.0000
-3.3151 <s> BREAD 0.0000
-3.3151 <s> BREAK 0.0000
-3.3151 <s> BRIDGE 0.0000
-3.3151 <s> BRIGHT 0.0000
-3.3151 <s> BRING 0.0000
-3.3151 <s> BROAD 0.0000
-3.3151 <s> BROKE 0.0000
-3.3151 <s> BROTHER 0.0000
-3.3151 <s> BROUGHT 0.0000
-3.3151 <s> BROWN 0.0000
-3.3151 <s> BUILD 0.0000
-3.3151 <s> BURN 0.0000
-3.3151 <s> BUSY 0.0000
-3.3151 <s> BUT 0.0000
-3.3151 <s> BUY 0.0000
-3.3151 <s> BY 0.0000
-3.3151 <s> CALCULUS 0.0000
-3.3151 <s> CALL 0.0000
-3.3151 <s> CAME 0.0000
-3.3151 <s> CAMP 0.0000
-3.3151 <s> CAN 0.0000
-3.3151 <s> CAPITAL 0.0000
-3.3151 <s> CAPTAIN 0.0000
-3.3151 <s> CAR 0.0000
-3.3151 <s> CARD 0.0000
-3.3151 <s> CARE 0.0000
-3.3151 <s> CARRY 0.0000
-3.3151 <s> CASE 0.0000
-3.3151 <s> CAT 0.0000
-3.3151 <s> CATCH 0.0000
-3.3151 <s> CAUGHT 0.0000
-3.3151 <s> CAUSE 0.0000
-3.3151 <s> CELL 0.0000
-3.3151 <s> CENT 0.0000
-3.3151 <s> CENTER 0.0000
-3.3151 <s> CENTURY 0.0000
-3.3151 <s> CERTAIN 0.0000
-3.3151 <s> CHAIR 0.0000
-3.3151 <s> CHANCE 0.0000
-3.3151 <s> CHANGE 0.0000
-3.3151 <s> CHARACTER 0.0000
-3.3151 <s> CHARGE 0.0000
-3.3151 <s> CHART 0.0000
-3.3151 <s> CHECK 0.0000
-3.3151 <s> CHICK 0.0000
-3.3151 <s> CHIEF 0.0000
-3.3151 <s> CHILD 0.0000
-3.3151 <s> CHILDREN 0.0000
-3.3151 <s> CHOOSE 0.0000
-3.3151 <s> CHORD 0.0000
-3.3151 <s> CIRCLE 0.0000
-3.3151 <s> CITY 0.0000
-3.3151 <s> CLAIM 0.0000
-3.3151 <s> CLASS 0.0000
-3.3151 <s> CLEAN 0.0000
-3.3151 <s> CLEAR 0.0000
-3.3151 <s> CLIMB 0.0000
-3.3151 <s> CLOCK 0.0000
-3.3151 <s> CLOSE 0.0000
-3.3151 <s> CLOTHE 0.0000
-3.3151 <s> CLOUD 0.0000
-3.3151 <s> COAST 0.0000
-3.3151 <s> COAT 0.0000
-3.3151 <s> COLD 0.0000
-3.3151 <s> COLLECT 0.0000
-3.3151 <s> COLONY 0.0000
-3.3151 <s> COLOR 0.0000
-3.3151 <s> COLUMN 0.0000
-3.3151 <s> COME 0.0000
-3.3151 <s> COMMON 0.0000
-3.3151 <s> COMPANY 0.0000
-3.3151 <s> COMPARE 0.0000
-3.3151 <s> COMPLETE 0.0000
-3.3151 <s> CONDITION 0.0000
-3.3151 <s> CONNECT 0.0000
-3.3151 <s> CONSIDER 0.0000
-3.3151 <s> CONSONANT 0.0000
-3.3151 <s> CONTAIN 0.0000
-3.3151 <s> CONTINENT 0.0000
-3.3151 <s> CONTINUE 0.0000
-3.3151 <s> CONTROL 0.0000
-3.3151 <s> COOK 0.0000
-3.3151 <s> COOL 0.0000
-3.3151 <s> COPY 0.0000
-3.3151 <s> CORN 0.0000
-3.3151 <s> CORNER 0.0000
-3.3151 <s> CORRECT 0.0000
-3.3151 <s> COST 0.0000
-3.3151 <s> COTTON 0.0000
-3.3151 <s> COULD 0.0000
-3.3151 <s> COUNT 0.0000
-3.3151 <s> COUNTRY 0.0000
-3.3151 <s> COURSE 0.0000
-3.3151 <s> COVER 0.0000
-3.3151 <s> COW 0.0000
-3.3151 <s> CREASE 0.0000
-3.3151 <s> CREATE 0.0000
-3.3151 <s> CROP 0.0000
-3.3151 <s> CROSS 0.0000
-3.3151 <s> CROWD 0.0000
-3.3151 <s> CROWN 0.0000
-3.3151 <s> CRY 0.0000
-3.3151 <s> CURRENT 0.0000
-3.3151 <s> CUT 0.0000
-3.3151 <s> DAD 0.0000
-3.3151 <s> DANCE 0.0000
-3.3151 <s> DANGER 0.0000
-3.3151 <s> DARK 0.0000
-3.3151 <s> DAY 0.0000
-3.3151 <s> DEAD 0.0000
-3.3151 <s> DEAL 0.0000
-3.3151 <s> DEAR 0.0000
-3.3151 <s> DEATH 0.0000
-3.3151 <s> DECIDE 0.0000
-3.3151 <s> DECIMAL 0.0000
-3.3151 <s> DEEP 0.0000
-3.3151 <s> DEGREE 0.0000
-2.7131 <s> DENTAL 0.0000
-3.3151 <s> DENTINE 0.0000
-3.3151 <s> DEPEND 0.0000
-3.3151 <s> DESCRIBE 0.0000
-3.3151 <s> DESERT 0.0000
-3.3151 <s> DESIGN 0.0000
-3.3151 <s> DETERMINE 0.0000
-3.3151 <s> DEVELOP 0.0000
-3.3151 <s> DICTIONARY 0.0000
-3.3151 <s> DID 0.0000
-3.3151 <s> DIE 0.0000
-3.3151 <s> DIFFER 0.0000
-3.3151 <s> DIFFICULT 0.0000
-3.3151 <s> DIRECT 0.0000
-3.3151 <s> DISCUSS 0.0000
-3.3151 <s> DISTANT 0.0000
-3.3151 <s> DIVIDE 0.0000
-3.3151 <s> DIVISION 0.0000
-3.3151 <s> DO 0.0000
-3.3151 <s> DOCTOR 0.0000
-3.3151 <s> DOES 0.0000
-3.3151 <s> DOG 0.0000
-3.3151 <s> DOLLAR 0.0000
-3.3151 <s> DON'T 0.0000
-3.3151 <s> DONE 0.0000
-3.3151 <s> DOOR 0.0000
-3.3151 <s> DOUBLE 0.0000
-3.3151 <s> DOWN 0.0000
-3.3151 <s> DRAW 0.0000
-3.3151 <s> DREAM 0.0000
-3.3151 <s> DRESS 0.0000
-3.3151 <s> DRINK 0.0000
-3.3151 <s> DRIVE 0.0000
-3.3151 <s> DROP 0.0000
-3.3151 <s> DRY 0.0000
-3.3151 <s> DUCK 0.0000
-3.3151 <s> DURING 0.0000
-3.3151 <s> EACH 0.0000
-3.3151 <s> EAR 0.0000
-3.3151 <s> EARLY 0.0000
-3.3151 <s> EARTH 0.0000
-3.3151 <s> EASE 0.0000
-3.3151 <s> EAST 0.0000
-3.3151 <s> EAT 0.0000
-3.3151 <s> EDGE 0.0000
-3.3151 <s> EFFECT 0.0000
-3.3151 <s> EGG 0.0000
-3.3151 <s> EIGHT 0.0000
-3.3151 <s> EITHER 0.0000
-3.3151 <s> ELECTRIC 0.0000
-3.3151 <s> ELEMENT 0.0000
-3.3151 <s> ELSE 0.0000
-3.3151 <s> ENAMEL 0.0000
-3.3151 <s> END 0.0000
-3.3151 <s> ENEMY 0.0000
-3.3151 <s> ENERGY 0.0000
-3.3151 <s> ENGINE 0.0000
-3.3151 <s> ENOUGH 0.0000
-3.3151 <s> ENTER 0.0000
-3.3151 <s> EQUAL 0.0000
-3.3151 <s> EQUATE 0.0000
-3.3151 <s> ESPECIALLY 0.0000
-3.3151 <s> EVEN 0.0000
-3.3151 <s> EVENING 0.0000
-3.3151 <s> EVENT 0.0000
-3.3151 <s> EVER 0.0000
-3.3151 <s> EVERY 0.0000
-3.3151 <s> EXACT 0.0000
-3.3151 <s> EXAMPLE 0.0000
-3.3151 <s> EXCEPT 0.0000
-3.3151 <s> EXCITE 0.0000
-3.3151 <s> EXERCISE 0.0000
-3.3151 <s> EXPECT 0.0000
-3.3151 <s> EXPERIENCE 0.0000
-3.3151 <s> EXPERIMENT 0.0000
-3.3151 <s> EYE 0.0000
-3.3151 <s> FACE 0.0000
-3.3151 <s> FACT 0.0000
-3.3151 <s> FAIR 0.0000
-3.3151 <s> FALL 0.0000
-3.3151 <s> FAMILY 0.0000
-3.3151 <s> FAMOUS 0.0000
-3.3151 <s> FAR 0.0000
-3.3151 <s> FARM 0.0000
-3.3151 <s> FAST 0.0000
-3.3151 <s> FAT 0.0000
-3.3151 <s> FATHER 0.0000
-3.3151 <s> FAVOR 0.0000
-3.3151 <s> FEAR 0.0000
-3.3151 <s> FEED 0.0000
-3.3151 <s> FEEL 0.0000
-3.3151 <s> FEET 0.0000
-3.3151 <s> FELL 0.0000
-3.3151 <s> FELT 0.0000
-3.3151 <s> FEW 0.0000
-3.3151 <s> FIELD 0.0000
-3.3151 <s> FIG 0.0000
-3.3151 <s> FIGHT 0.0000
-3.3151 <s> FIGURE 0.0000
-3.3151 <s> FILL 0.0000
-3.3151 <s> FILLING 0.0000
-3.3151 <s> FINAL 0.0000
-3.3151 <s> FIND 0.0000
-3.3151 <s> FINE 0.0000
-3.3151 <s> FINGER 0.0000
-3.3151 <s> FINISH 0.0000
-3.3151 <s> FIRE 0.0000
-3.3151 <s> FIRST 0.0000
-3.3151 <s> FISH 0.0000
-3.3151 <s> FIT 0.0000
-3.3151 <s> FIVE 0.0000
-3.3151 <s> FLAT 0.0000
-3.3151 <s> FLOOR 0.0000
-3.3151 <s> FLOW 0.0000
-3.3151 <s> FLOWER 0.0000
-3.3151 <s> FLUORIDE 0.0000
-3.3151 <s> FLY 0.0000
-3.3151 <s> FOLLOW 0.0000
-3.3151 <s> FOOD 0.0000
-3.3151 <s> FOOT 0.0000
-3.3151 <s> FOR 0.0000
-3.3151 <s> FORCE 0.0000
-3.3151 <s> FOREST 0.0000
-3.3151 <s> FORM 0.0000
-3.3151 <s> FORWARD 0.0000
-3.3151 <s> FOUND 0.0000
-3.3151 <s> FOUR 0.0000
-3.3151 <s> FRACTION 0.0000
-3.3151 <s> FREE 0.0000
-3.3151 <s> FRESH 0.0000
-3.3151 <s> FRIEND 0.0000
-3.3151 <s> FROM 0.0000
-3.3151 <s> FRONT 0.0000
-3.3151 <s> FRUIT 0.0000
-3.3151 <s> FULL 0.0000
-3.3151 <s> FUN 0.0000
-3.3151 <s> GAME 0.0000
-3.3151 <s> GARDEN 0.0000
-3.3151 <s> GAS 0.0000
-3.3151 <s> GATHER 0.0000
-3.3151 <s> GAVE 0.0000
-3.3151 <s> GENERAL 0.0000
-3.3151 <s> GENTLE 0.0000
-3.3151 <s> GET 0.0000
-3.3151 <s> GIRL 0.0000
-3.3151 <s> GIVE 0.0000
-3.3151 <s> GLAD 0.0000
-3.3151 <s> GLASS 0.0000
-3.3151 <s> GO 0.0000
-3.3151 <s> GOLD 0.0000
-3.3151 <s> GONE 0.0000
-3.3151 <s> GOOD 0.0000
-3.3151 <s> GOT 0.0000
-3.3151 <s> GOVERN 0.0000
-3.3151 <s> GRAND 0.0000
-3.3151 <s> GRASS 0.0000
-3.3151 <s> GRAY 0.0000
-3.3151 <s> GREAT 0.0000
-3.3151 <s> GREEN 0.0000
-3.3151 <s> GREW 0.0000
-3.3151 <s> GROUND 0.0000
-3.3151 <s> GROUP 0.0000
-3.3151 <s> GROW 0.0000
-3.3151 <s> GUESS 0.0000
-3.3151 <s> GUIDE 0.0000
-3.3151 <s> GUM 0.0000
-3.3151 <s> GUN 0.0000
-3.3151 <s> HAD 0.0000
-3.3151 <s> HAIR 0.0000
-3.3151 <s> HALF 0.0000
-3.3151 <s> HALITOSIS 0.0000
-3.3151 <s> HAND 0.0000
-3.3151 <s> HAPPEN 0.0000
-3.3151 <s> HAPPY 0.0000
-3.3151 <s> HARD 0.0000
-3.3151 <s> HAS 0.0000
-3.3151 <s> HAT 0.0000
-3.3151 <s> HAVE 0.0000
-3.3151 <s> HE 0.0000
-3.3151 <s> HEAD 0.0000
-3.3151 <s> HEAR 0.0000
-3.3151 <s> HEARD 0.0000
-3.3151 <s> HEART 0.0000
-3.3151 <s> HEAT 0.0000
-3.3151 <s> HEAVY 0.0000
-3.3151 <s> HELD 0.0000
-3.3151 <s> HELP 0.0000
-3.3151 <s> HER 0.0000
-3.3151 <s> HERE 0.0000
-3.3151 <s> HIGH 0.0000
-3.3151 <s> HILL 0.0000
-3.3151 <s> HIM 0.0000
-3.3151 <s> HIS 0.0000
-3.3151 <s> HISTORY 0.0000
-3.3151 <s> HIT 0.0000
-3.3151 <s> HOLD 0.0000
-3.3151 <s> HOLE 0.0000
-3.3151 <s> HOME 0.0000
-3.3151 <s> HOPE 0.0000
-3.3151 <s> HORSE 0.0000
-3.0141 <s> HOT 0.0000
-3.3151 <s> HOUR 0.0000
-3.3151 <s> HOUSE 0.0000
-3.3151 <s> HOW 0.0000
-3.3151 <s> HUGE 0.0000
-3.3151 <s> HUMAN 0.0000
-3.3151 <s> HUNDRED 0.0000
-3.3151 <s> HUNT 0.0000
-3.3151 <s> HURRY 0.0000
-3.3151 <s> I 0.0000
-3.3151 <s> ICE 0.0000
-3.3151 <s> IDEA 0.0000
-3.3151 <s> IF 0.0000
-3.3151 <s> IMAGINE 0.0000
-3.3151 <s> IMPRESSION 0.0000
-3.3151 <s> IN 0.0000
-3.3151 <s> INCH 0.0000
-3.3151 <s> INCLUDE 0.0000
-3.3151 <s> INDICATE 0.0000
-3.3151 <s> INDUSTRY 0.0000
-3.3151 <s> INFLAMMATION 0.0000
-3.3151 <s> INNER 0.0000
-3.3151 <s> INSECT 0.0000
-3.3151 <s> INSTANT 0.0000
-3.3151 <s> INSTRUMENT 0.0000
-3.3151 <s> INTEREST 0.0000
-3.3151 <s> INVENT 0.0000
-3.3151 <s> IRON 0.0000
-3.3151 <s> IS 0.0000
-3.3151 <s> ISLAND 0.0000
-3.3151 <s> IT 0.0000
-3.3151 <s> JOB 0.0000
-3.3151 <s> JOIN 0.0000
-3.3151 <s> JOY 0.0000
-3.3151 <s> JUMP 0.0000
-3.3151 <s> JUST 0.0000
-3.3151 <s> KEEP 0.0000
-3.3151 <s> KEPT 0.0000
-3.3151 <s> KEY 0.0000
-3.3151 <s> KILL 0.0000
-3.3151 <s> KIND 0.0000
-3.3151 <s> KING 0.0000
-3.3151 <s> KNEW 0.0000
-3.3151 <s> KNOW 0.0000
-3.3151 <s> LADY 0.0000
-3.3151 <s> LAKE 0.0000
-3.3151 <s> LAND 0.0000
-3.3151 <s> LANGUAGE 0.0000
-3.3151 <s> LARGE 0.0000
-3.3151 <s> LAST 0.0000
-3.3151 <s> LATE 0.0000
-3.3151 <s> LAUGH 0.0000
-3.3151 <s> LAW 0.0000
-3.3151 <s> LAY 0.0000
-3.3151 <s> LEAD 0.0000
-3.3151 <s> LEARN 0.0000
-3.3151 <s> LEAST 0.0000
-3.3151 <s> LEAVE 0.0000
-3.3151 <s> LED 0.0000
-3.3151 <s> LEFT 0.0000
-3.3151 <s> LEG 0.0000
-3.3151 <s> LENGTH 0.0000
-3.3151 <s> LESS 0.0000
-3.3151 <s> LET 0.0000
-3.3151 <s> LETTER 0.0000
-3.3151 <s> LEVEL 0.0000
-3.3151 <s> LIE 0.0000
-3.3151 <s> LIFE 0.0000
-3.3151 <s> LIFT 0.0000
-3.3151 <s> LIGHT 0.0000
-3.3151 <s> LIKE 0.0000
-3.3151 <s> LINE 0.0000
-3.3151 <s> LIQUID 0.0000
-3.3151 <s> LIST 0.0000
-3.3151 <s> LISTEN 0.0000
-3.3151 <s> LITTLE 0.0000
-3.3151 <s> LIVE 0.0000
-3.3151 <s> LOCAL 0.0000
-3.3151 <s> LOCATE 0.0000
-3.3151 <s> LOG 0.0000
-3.3151 <s> LONE 0.0000
-3.3151 <s> LONG 0.0000
-3.3151 <s> LOOK 0.0000
-3.3151 <s> LOST 0.0000
-3.3151 <s> LOT 0.0000
-3.3151 <s> LOUD 0.0000
-3.3151 <s> LOVE 0.0000
-3.3151 <s> LOW 0.0000
-3.3151 <s> MACHINE 0.0000
-3.3151 <s> MADE 0.0000
-3.3151 <s> MAGNET 0.0000
-3.3151 <s> MAIN 0.0000
-3.3151 <s> MAJOR 0.0000
-3.3151 <s> MAKE 0.0000
-3.3151 <s> MAN 0.0000
-3.3151 <s> MANY 0.0000
-3.3151 <s> MAP 0.0000
-3.3151 <s> MARK 0.0000
-3.3151 <s> MARKET 0.0000
-3.3151 <s> MASS 0.0000
-3.3151 <s> MASTER 0.0000
-3.3151 <s> MATCH 0.0000
-3.3151 <s> MATERIAL 0.0000
-3.3151 <s> MATTER 0.0000
-3.3151 <s> MAY 0.0000
-3.3151 <s> ME 0.0000
-3.3151 <s> MEAN 0.0000
-3.3151 <s> MEANT 0.0000
-3.3151 <s> MEASURE 0.0000
-3.3151 <s> MEAT 0.0000
-3.3151 <s> MEET 0.0000
-3.3151 <s> MELODY 0.0000
-3.3151 <s> MEN 0.0000
-3.3151 <s> METAL 0.0000
-3.3151 <s> METHOD 0.0000
-3.3151 <s> MIDDLE 0.0000
-3.3151 <s> MIGHT 0.0000
-3.3151 <s> MILE 0.0000
-3.3151 <s> MILK 0.0000
-3.3151 <s> MILLION 0.0000
-3.3151 <s> MIND 0.0000
-3.3151 <s> MINE 0.0000
-3.3151 <s> MINUTE 0.0000
-3.3151 <s> MISS 0.0000
-3.3151 <s> MIX 0.0000
-3.3151 <s> MODERN 0.0000
-3.3151 <s> MOLECULE 0.0000
-3.3151 <s> MOMENT 0.0000
-3.3151 <s> MONEY 0.0000
-3.3151 <s> MONTH 0.0000
-3.3151 <s> MOON 0.0000
-3.3151 <s> MORE 0.0000
-3.3151 <s> MORNING 0.0000
-3.3151 <s> MOST 0.0000
-3.3151 <s> MOTHER 0.0000
-3.3151 <s> MOTION 0.0000
-3.3151 <s> MOUNT 0.0000
-3.3151 <s> MOUNTAIN 0.0000
-3.0141 <s> MOUTH 0.0000
-3.3151 <s> MOVE 0.0000
-3.3151 <s> MUCH 0.0000
-3.3151 <s> MULTIPLY 0.0000
-3.3151 <s> MUSIC 0.0000
-3.3151 <s> MUST 0.0000
-3.3151 <s> MY 0.0000
-3.3151 <s> NAME 0.0000
-3.3151 <s> NATION 0.0000
-3.3151 <s> NATURAL 0.0000
-3.3151 <s> NATURE 0.0000
-3.3151 <s> NEAR 0.0000
-3.3151 <s> NECESSARY 0.0000
-3.3151 <s> NECK 0.0000
-3.3151 <s> NEED 0.0000
-3.3151 <s> NEIGHBOR 0.0000
-3.3151 <s> NEVER 0.0000
-3.3151 <s> NEW 0.0000
-3.3151 <s> NEXT 0.0000
-3.3151 <s> NIGHT 0.0000
-3.3151 <s> NINE 0.0000
-3.3151 <s> NO 0.0000
-3.3151 <s> NOISE 0.0000
-3.3151 <s> NOON 0.0000
-3.3151 <s> NOR 0.0000
-3.3151 <s> NORTH 0.0000
-3.3151 <s> NOSE 0.0000
-3.3151 <s> NOTE 0.0000
-3.3151 <s> NOTHING 0.0000
-3.3151 <s> NOTICE 0.0000
-3.3151 <s> NOUN 0.0000
-3.3151 <s> NOW 0.0000
-3.3151 <s> NUMBER 0.0000
-3.3151 <s> NUMERAL 0.0000
-3.3151 <s> OBJECT 0.0000
-3.3151 <s> OBSERVE 0.0000
-3.3151 <s> OCCUR 0.0000
-3.3151 <s> OCEAN 0.0000
-3.3151 <s> OF 0.0000
-3.3151 <s> OFF 0.0000
-3.3151 <s> OFFER 0.0000
-3.3151 <s> OFFICE 0.0000
-3.3151 <s> OFTEN 0.0000
-3.3151 <s> OH 0.0000
-3.3151 <s> OIL 0.0000
-3.3151 <s> OLD 0.0000
-3.3151 <s> ON 0.0000
-3.3151 <s> ONCE 0.0000
-3.3151 <s> ONE 0.0000
-3.3151 <s> ONLY 0.0000
-3.3151 <s> OPEN 0.0000
-3.3151 <s> OPERATE 0.0000
-3.3151 <s> OPPOSITE 0.0000
-3.3151 <s> OR 0.0000
-3.3151 <s> ORDER 0.0000
-3.3151 <s> ORGAN 0.0000
-3.3151 <s> ORIGINAL 0.0000
-3.3151 <s> OTHER 0.0000
-3.3151 <s> OUR 0.0000
-3.3151 <s> OUT 0.0000
-3.3151 <s> OUTER 0.0000
-3.3151 <s> OVER 0.0000
-3.3151 <s> OWN 0.0000
-3.3151 <s> OXYGEN 0.0000
-3.3151 <s> PAGE 0.0000
-3.3151 <s> PAINT 0.0000
-3.3151 <s> PAIR 0.0000
-3.3151 <s> PAPER 0.0000
-3.3151 <s> PARAGRAPH 0.0000
-3.3151 <s> PARENT 0.0000
-3.3151 <s> PART 0.0000
-3.3151 <s> PARTICULAR 0.0000
-3.3151 <s> PARTY 0.0000
-3.3151 <s> PASS 0.0000
-3.3151 <s> PAST 0.0000
-3.3151 <s> PATH 0.0000
-3.3151 <s> PATTERN 0.0000
-3.3151 <s> PAY 0.0000
-3.3151 <s> PEOPLE 0.0000
-3.3151 <s> PERHAPS 0.0000
-3.3151 <s> PERIOD 0.0000
-3.3151 <s> PERSON 0.0000
-3.3151 <s> PHRASE 0.0000
-3.3151 <s> PICK 0.0000
-3.3151 <s> PICTURE 0.0000
-3.3151 <s> PIECE 0.0000
-3.3151 <s> PITCH 0.0000
-3.3151 <s> PLACE 0.0000
-3.3151 <s> PLAIN 0.0000
-3.3151 <s> PLAN 0.0000
-3.3151 <s> PLANE 0.0000
-3.3151 <s> PLANET 0.0000
-3.3151 <s> PLANT 0.0000
-3.3151 <s> PLAY 0.0000
-3.3151 <s> PLEASE 0.0000
-3.3151 <s> PLURAL 0.0000
-3.3151 <s> POEM 0.0000
-3.3151 <s> POINT 0.0000
-3.3151 <s> POOR 0.0000
-3.3151 <s> POPULATE 0.0000
-3.3151 <s> PORT 0.0000
-3.3151 <s> POSE 0.0000
-3.3151 <s> POSITION 0.0000
-3.3151 <s> POSSIBLE 0.0000
-3.3151 <s> POST 0.0000
-3.3151 <s> POUND 0.0000
-3.3151 <s> POWER 0.0000
-3.3151 <s> PRACTICE 0.0000
-3.3151 <s> PREPARE 0.0000
-3.3151 <s> PRESENT 0.0000
-3.3151 <s> PRESS 0.0000
-3.3151 <s> PRETTY 0.0000
-3.3151 <s> PRINT 0.0000
-3.3151 <s> PROBABLE 0.0000
-3.3151 <s> PROBLEM 0.0000
-3.3151 <s> PROCESS 0.0000
-3.3151 <s> PRODUCE 0.0000
-3.3151 <s> PRODUCT 0.0000
-3.3151 <s> PROPER 0.0000
-3.3151 <s> PROPERTY 0.0000
-3.3151 <s> PROTECT 0.0000
-3.3151 <s> PROTRUDE 0.0000
-3.3151 <s> PROVE 0.0000
-3.3151 <s> PROVIDE 0.0000
-3.3151 <s> PULL 0.0000
-3.3151 <s> PULP 0.0000
-3.3151 <s> PUSH 0.0000
-3.3151 <s> PUT 0.0000
-3.3151 <s> QUART 0.0000
-3.3151 <s> QUESTION 0.0000
-3.3151 <s> QUICK 0.0000
-3.3151 <s> QUIET 0.0000
-3.3151 <s> QUITE 0.0000
-3.3151 <s> QUOTIENT 0.0000
-3.3151 <s> RACE 0.0000
-3.3151 <s> RADIO 0.0000
-3.3151 <s> RAIL 0.0000
-3.3151 <s> RAIN 0.0000
-3.3151 <s> RAISE 0.0000
-3.3151 <s> RAN 0.0000
-3.3151 <s> RANGE 0.0000
-3.3151 <s> RATHER 0.0000
-3.3151 <s> REACH 0.0000
-3.3151 <s> READ 0.0000
-3.3151 <s> READY 0.0000
-3.3151 <s> REAL 0.0000
-3.3151 <s> REASON 0.0000
-3.3151 <s> RECEIVE 0.0000
-3.3151 <s> RECORD 0.0000
-3.3151 <s> RED 0.0000
-3.3151 <s> REGION 0.0000
-3.3151 <s> REGULAR 0.0000
-3.3151 <s> REMEMBER 0.0000
-3.3151 <s> REPEAT 0.0000
-3.3151 <s> REPLY 0.0000
-3.3151 <s> REPRESENT 0.0000
-3.3151 <s> REQUIRE 0.0000
-3.3151 <s> REST 0.0000
-3.3151 <s> RESULT 0.0000
-3.3151 <s> RICH 0.0000
-3.3151 <s> RIDE 0.0000
-3.3151 <s> RIGHT 0.0000
-3.3151 <s> RING 0.0000
-3.3151 <s> RISE 0.0000
-3.3151 <s> RIVER 0.0000
-3.3151 <s> ROAD 0.0000
-3.3151 <s> ROCK 0.0000
-3.3151 <s> ROLL 0.0000
-3.3151 <s> ROOM 0.0000
-2.8380 <s> ROOT 0.0000
-3.3151 <s> ROPE 0.0000
-3.3151 <s> ROSE 0.0000
-3.3151 <s> ROUND 0.0000
-3.3151 <s> ROW 0.0000
-3.3151 <s> RUB 0.0000
-3.3151 <s> RULE 0.0000
-3.3151 <s> RUN 0.0000
-3.3151 <s> SAFE 0.0000
-3.3151 <s> SAID 0.0000
-3.3151 <s> SAIL 0.0000
-3.3151 <s> SALT 0.0000
-3.3151 <s> SAME 0.0000
-3.3151 <s> SAND 0.0000
-3.3151 <s> SAT 0.0000
-3.3151 <s> SAVE 0.0000
-3.3151 <s> SAW 0.0000
-3.3151 <s> SAY 0.0000
-3.3151 <s> SCALE 0.0000
-3.3151 <s> SCALING 0.0000
-3.3151 <s> SCHOOL 0.0000
-3.3151 <s> SCIENCE 0.0000
-3.3151 <s> SCORE 0.0000
-3.3151 <s> SEA 0.0000
-3.3151 <s> SEARCH 0.0000
-3.3151 <s> SEASON 0.0000
-3.3151 <s> SEAT 0.0000
-3.3151 <s> SECOND 0.0000
-3.3151 <s> SECTION 0.0000
-3.3151 <s> SEE 0.0000
-3.3151 <s> SEED 0.0000
-3.3151 <s> SEEM 0.0000
-3.3151 <s> SEGMENT 0.0000
-3.3151 <s> SELECT 0.0000
-3.3151 <s> SELF 0.0000
-3.3151 <s> SELL 0.0000
-3.3151 <s> SEND 0.0000
-3.3151 <s> SENSE 0.0000
-3.3151 <s> SENSITIVE 0.0000
-3.3151 <s> SENT 0.0000
-3.3151 <s> SENTENCE 0.0000
-3.3151 <s> SEPARATE 0.0000
-3.3151 <s> SERVE 0.0000
-3.3151 <s> SET 0.0000
-3.3151 <s> SETTLE 0.0000
-3.3151 <s> SEVEN 0.0000
-3.3151 <s> SEVERAL 0.0000
-3.3151 <s> SHALL 0.0000
-3.3151 <s> SHAPE 0.0000
-3.3151 <s> SHARE 0.0000
-3.3151 <s> SHARP 0.0000
-3.3151 <s> SHE 0.0000
-3.3151 <s> SHEET 0.0000
-3.3151 <s> SHELL 0.0000
-3.3151 <s> SHINE 0.0000
-3.3151 <s> SHIP 0.0000
-3.3151 <s> SHOE 0.0000
-3.3151 <s> SHOP 0.0000
-3.3151 <s> SHORE 0.0000
-3.3151 <s> SHORT 0.0000
-3.3151 <s> SHOULD 0.0000
-3.3151 <s> SHOULDER 0.0000
-3.3151 <s> SHOUT 0.0000
-3.3151 <s> SHOW 0.0000
-3.3151 <s> SIDE 0.0000
-3.3151 <s> SIGHT 0.0000
-3.3151 <s> SIGN 0.0000
-3.3151 <s> SILENT 0.0000
-3.3151 <s> SILVER 0.0000
-3.3151 <s> SIMILAR 0.0000
-3.3151 <s> SIMPLE 0.0000
-3.3151 <s> SINCE 0.0000
-3.3151 <s> SING 0.0000
-3.3151 <s> SINGLE 0.0000
-3.3151 <s> SISTER 0.0000
-3.3151 <s> SIT 0.0000
-3.3151 <s> SIX 0.0000
-3.3151 <s> SIZE 0.0000
-3.3151 <s> SKILL 0.0000
-3.3151 <s> SKIN 0.0000
-3.3151 <s> SKY 0.0000
-3.3151 <s> SLAVE 0.0000
-3.3151 <s> SLEEP 0.0000
-3.3151 <s> SLIP 0.0000
-3.3151 <s> SLOW 0.0000
-3.3151 <s> SMALL 0.0000
-3.3151 <s> SMELL 0.0000
-3.3151 <s> SMILE 0.0000
-3.3151 <s> SNOW 0.0000
-3.3151 <s> SO 0.0000
-3.3151 <s> SOFT 0.0000
-3.3151 <s> SOIL 0.0000
-3.3151 <s> SOLDIER 0.0000
-3.3151 <s> SOLUTION 0.0000
-3.3151 <s> SOLVE 0.0000
-3.3151 <s> SOME 0.0000
-3.3151 <s> SON 0.0000
-3.3151 <s> SONG 0.0000
-3.3151 <s> SOON 0.0000
-3.3151 <s> SOUND 0.0000
-3.3151 <s> SOUTH 0.0000
-3.3151 <s> SPACE 0.0000
-3.3151 <s> SPEAK 0.0000
-3.3151 <s> SPECIAL 0.0000
-3.3151 <s> SPEECH 0.0000
-3.3151 <s> SPEED 0.0000
-3.3151 <s> SPELL 0.0000
-3.3151 <s> SPEND 0.0000
-3.3151 <s> SPOKE 0.0000
-3.3151 <s> SPOT 0.0000
-3.3151 <s> SPREAD 0.0000
-3.3151 <s> SPRING 0.0000
-3.3151 <s> SQUARE 0.0000
-3.3151 <s> STAND 0.0000
-3.3151 <s> STAR 0.0000
-3.3151 <s> START 0.0000
-3.3151 <s> STATE 0.0000
-3.3151 <s> STATION 0.0000
-3.3151 <s> STAY 0.0000
-3.3151 <s> STEAD 0.0000
-3.3151 <s> STEAM 0.0000
-3.3151 <s> STEEL 0.0000
-3.3151 <s> STEP 0.0000
-3.3151 <s> STICK 0.0000
-3.3151 <s> STILL 0.0000
-3.3151 <s> STONE 0.0000
-3.3151 <s> STOOD 0.0000
-3.3151 <s> STOP 0.0000
-3.3151 <s> STORE 0.0000
-3.3151 <s> STORY 0.0000
-3.3151 <s> STRAIGHT 0.0000
-3.3151 <s> STRANGE 0.0000
-3.3151 <s> STREAM 0.0000
-3.3151 <s> STREET 0.0000
-3.3151 <s> STRETCH 0.0000
-3.3151 <s> STRING 0.0000
-3.3151 <s> STRONG 0.0000
-3.3151 <s> STUDENT 0.0000
-3.3151 <s> STUDY 0.0000
-3.3151 <s> SUBJECT 0.0000
-3.3151 <s> SUBSTANCE 0.0000
-3.3151 <s> SUBTRACT 0.0000
-3.3151 <s> SUCCESS 0.0000
-3.3151 <s> SUCH 0.0000
-3.3151 <s> SUDDEN 0.0000
-3.3151 <s> SUFFIX 0.0000
-3.3151 <s> SUGAR 0.0000
-3.3151 <s> SUGGEST 0.0000
-3.3151 <s> SUIT 0.0000
-3.3151 <s> SUMMER 0.0000
-3.3151 <s> SUN 0.0000
-3.3151 <s> SUPPLY 0.0000
-3.3151 <s> SUPPORT 0.0000
-3.3151 <s> SURE 0.0000
-3.3151 <s> SURFACE 0.0000
-3.3151 <s> SURPRISE 0.0000
-3.3151 <s> SWIM 0.0000
-3.3151 <s> SYLLABLE 0.0000
-3.3151 <s> SYMBOL 0.0000
-3.3151 <s> SYSTEM 0.0000
-3.3151 <s> TABLE 0.0000
-3.3151 <s> TAIL 0.0000
-3.3151 <s> TAKE 0.0000
-3.3151 <s> TALK 0.0000
-3.3151 <s> TALL 0.0000
-3.3151 <s> TEACH 0.0000
-3.3151 <s> TEAM 0.0000
-3.3151 <s> TEETH 0.0000
-3.3151 <s> TELL 0.0000
-3.3151 <s> TEMPERATURE 0.0000
-3.3151 <s> TEN 0.0000
-3.3151 <s> TERM 0.0000
-3.3151 <s> TEST 0.0000
-3.3151 <s> THAN 0.0000
-3.3151 <s> THANK 0.0000
-3.3151 <s> THAT 0.0000
-3.3151 <s> THE 0.0000
-3.3151 <s> THEIR 0.0000
-3.3151 <s> THEM 0.0000
-3.3151 <s> THEN 0.0000
-3.3151 <s> THERE 0.0000
-3.3151 <s> THESE 0.0000
-3.3151 <s> THEY 0.0000
-3.3151 <s> THICK 0.0000
-3.3151 <s> THIN 0.0000
-3.3151 <s> THING 0.0000
-3.3151 <s> THINK 0.0000
-3.3151 <s> THIRD 0.0000
-3.3151 <s> THIS 0.0000
-3.3151 <s> THOSE 0.0000
-3.3151 <s> THOUGH 0.0000
-3.3151 <s> THOUGHT 0.0000
-3.3151 <s> THOUSAND 0.0000
-3.3151 <s> THREE 0.0000
-3.3151 <s> THROUGH 0.0000
-3.3151 <s> THROW 0.0000
-3.3151 <s> THUS 0.0000
-3.3151 <s> TIE 0.0000
-3.3151 <s> TIME 0.0000
-3.3151 <s> TINY 0.0000
-3.3151 <s> TIRE 0.0000
-3.3151 <s> TO 0.0000
-3.3151 <s> TOGETHER 0.0000
-3.3151 <s> TOLD 0.0000
-3.3151 <s> TONE 0.0000
-3.3151 <s> TOO 0.0000
-3.3151 <s> TOOK 0.0000
-3.3151 <s> TOOL 0.0000
-3.3151 <s> TOOTH -0.1761
-3.3151 <s> TOP 0.0000
-3.3151 <s> TOTAL 0.0000
-3.3151 <s> TOUCH 0.0000
-3.3151 <s> TOWARD 0.0000
-3.3151 <s> TOWN 0.0000
-3.3151 <s> TRACK 0.0000
-3.3151 <s> TRADE 0.0000
-3.3151 <s> TRAIN 0.0000
-3.0141 <s> TRANSLATION 0.0000
-3.3151 <s> TRAVEL 0.0000
-3.3151 <s> TREE 0.0000
-3.3151 <s> TRIANGLE 0.0000
-3.3151 <s> TRIP 0.0000
-3.3151 <s> TROUBLE 0.0000
-3.3151 <s> TRUCK 0.0000
-3.3151 <s> TRUE 0.0000
-3.3151 <s> TRY 0.0000
-3.3151 <s> TUBE 0.0000
-3.3151 <s> TURN 0.0000
-3.3151 <s> TWENTY 0.0000
-3.3151 <s> TWO 0.0000
-3.3151 <s> TYPE 0.0000
-3.3151 <s> UNDER 0.0000
-3.3151 <s> UNIT 0.0000
-3.3151 <s> UNTIL 0.0000
-3.3151 <s> UP 0.0000
-3.3151 <s> US 0.0000
-3.3151 <s> USE 0.0000
-3.3151 <s> USUAL 0.0000
-3.3151 <s> VALLEY 0.0000
-3.3151 <s> VALUE 0.0000
-3.3151 <s> VARY 0.0000
-3.3151 <s> VERB 0.0000
-3.3151 <s> VERY 0.0000
-3.3151 <s> VIEW 0.0000
-3.3151 <s> VILLAGE 0.0000
-3.3151 <s> VISIT 0.0000
-3.3151 <s> VOICE 0.0000
-3.3151 <s> VOWEL 0.0000
-3.3151 <s> WAIT 0.0000
-3.3151 <s> WALK 0.0000
-3.3151 <s> WALL 0.0000
-3.3151 <s> WANT 0.0000
-3.3151 <s> WAR 0.0000
-3.3151 <s> WARM 0.0000
-3.3151 <s> WAS 0.0000
-3.3151 <s> WASH 0.0000
-3.3151 <s> WATCH 0.0000
-3.3151 <s> WATER 0.0000
-3.3151 <s> WAVE 0.0000
-3.3151 <s> WAY 0.0000
-3.3151 <s> WE 0.0000
-3.3151 <s> WEAR 0.0000
-3.3151 <s> WEATHER 0.0000
-3.3151 <s> WEEK 0.0000
-3.3151 <s> WEIGHT 0.0000
-3.3151 <s> WELL 0.0000
-3.3151 <s> WENT 0.0000
-3.3151 <s> WERE 0.0000
-3.3151 <s> WEST 0.0000
-3.3151 <s> WHAT 0.0000
-3.3151 <s> WHEEL 0.0000
-3.3151 <s> WHEN 0.0000
-3.3151 <s> WHERE 0.0000
-3.3151 <s> WHETHER 0.0000
-3.3151 <s> WHICH 0.0000
-3.3151 <s> WHILE 0.0000
-3.3151 <s> WHITE 0.0000
-3.3151 <s> WHO 0.0000
-3.3151 <s> WHOLE 0.0000
-3.3151 <s> WHOSE 0.0000
-3.3151 <s> WHY 0.0000
-3.3151 <s> WIDE 0.0000
-3.3151 <s> WIFE 0.0000
-3.3151 <s> WILD 0.0000
-3.3151 <s> WILL 0.0000
-3.3151 <s> WIN 0.0000
-3.3151 <s> WIND 0.0000
-3.3151 <s> WINDOW 0.0000
-3.3151 <s> WING 0.0000
-3.3151 <s> WINTER 0.0000
-3.3151 <s> WIRE 0.0000
-3.3151 <s> WISDOM 0.0000
-3.3151 <s> WISH 0.0000
-3.3151 <s> WITH 0.0000
-3.3151 <s> WOMAN 0.0000
-3.3151 <s> WOMEN 0.0000
-3.3151 <s> WON'T 0.0000
-3.3151 <s> WONDER 0.0000
-3.3151 <s> WOOD 0.0000
-3.3151 <s> WORD 0.0000
-3.3151 <s> WORK 0.0000
-3.3151 <s> WORLD 0.0000
-3.3151 <s> WOULD 0.0000
-3.3151 <s> WRITE 0.0000
-3.3151 <s> WRITTEN 0.0000
-3.3151 <s> WRONG 0.0000
-3.3151 <s> WROTE 0.0000
-3.3151 <s> YARD 0.0000
-3.3151 <s> YEAR 0.0000
-3.3151 <s> YELLOW 0.0000
-3.3151 <s> YES 0.0000
-3.3151 <s> YET 0.0000
-3.3151 <s> YOU 0.0000
-3.3151 <s> YOUNG 0.0000
-3.3151 <s> YOUR 0.0000
-0.3010 A </s> -0.3010
-0.3010 ABLE </s> -0.3010
-0.3010 ABOUT </s> -0.3010
-0.3010 ABOVE </s> -0.3010
-0.3010 ABSCESS </s> -0.3010
-0.3010 ACT </s> -0.3010
-0.3010 ADD </s> -0.3010
-0.3010 AFRAID </s> -0.3010
-0.3010 AFTER </s> -0.3010
-0.3010 AGAIN </s> -0.3010
-0.3010 AGAINST </s> -0.3010
-0.3010 AGE </s> -0.3010
-0.3010 AGO </s> -0.3010
-0.3010 AGREE </s> -0.3010
-0.3010 AIR </s> -0.3010
-0.3010 ALL </s> -0.3010
-0.3010 ALLOW </s> -0.3010
-0.3010 ALSO </s> -0.3010
-0.3010 ALWAYS </s> -0.3010
-0.3010 AM </s> -0.3010
-0.3010 AMONG </s> -0.3010
-0.3010 AN </s> -0.3010
-0.3010 ANAESTHESIA </s> -0.3010
-0.3010 AND </s> -0.3010
-0.3010 ANGER </s> -0.3010
-0.3010 ANIMAL </s> -0.3010
-0.3010 ANSWER </s> -0.3010
-0.3010 ANY </s> -0.3010
-0.3010 APPEAR </s> -0.3010
-0.3010 APPLE </s> -0.3010
-0.3010 ARE </s> -0.3010
-0.3010 AREA </s> -0.3010
-0.3010 ARM </s> -0.3010
-0.3010 ARRANGE </s> -0.3010
-0.3010 ARRIVE </s> -0.3010
-0.3010 ART </s> -0.3010
-0.3010 AS </s> -0.3010
-0.3010 ASK </s> -0.3010
-0.3010 AT </s> -0.3010
-0.3010 ATOM </s> -0.3010
-0.3010 BABY </s> -0.3010
-0.3010 BACK </s> -0.3010
-0.3010 BACTERIA </s> -0.3010
-0.3010 BAD </s> -0.3010
-0.3010 BALL </s> -0.3010
-0.3010 BAND </s> -0.3010
-0.3010 BANK </s> -0.3010
-0.3010 BAR </s> -0.3010
-0.3010 BASE </s> -0.3010
-0.3010 BASIC </s> -0.3010
-0.3010 BAT </s> -0.3010
-0.3010 BE </s> -0.3010
-0.3010 BEAR </s> -0.3010
-0.3010 BEAT </s> -0.3010
-0.3010 BEAUTY </s> -0.3010
-0.3010 BED </s> -0.3010
-0.3010 BEEN </s> -0.3010
-0.3010 BEFORE </s> -0.3010
-0.3010 BEGAN </s> -0.3010
-0.3010 BEGIN </s> -0.3010
-0.3010 BEHIND </s> -0.3010
-0.3010 BELIEVE </s> -0.3010
-0.3010 BELL </s> -0.3010
-0.3010 BEST </s> -0.3010
-0.3010 BETTER </s> -0.3010
-0.3010 BETWEEN </s> -0.3010
-0.3010 BIG </s> -0.3010
-0.3010 BIRD </s> -0.3010
-0.3010 BIT </s> -0.3010
-0.3010 BITING SURFACE 0.0000
-0.3010 BLACK </s> -0.3010
-0.3010 BLOCK </s> -0.3010
-0.3010 BLOOD </s> -0.3010
-0.3010 BLOW </s> -0.3010
-0.3010 BLUE </s> -0.3010
-0.3010 BOARD </s> -0.3010
-0.3010 BOAT </s> -0.3010
-0.3010 BODY </s> -0.3010
-0.3010 BONE </s> -0.3010
-0.3010 BOOK </s> -0.3010
-0.3010 BORN </s> -0.3010
-0.3010 BOTH </s> -0.3010
-0.3010 BOTTOM </s> -0.3010
-0.3010 BOUGHT </s> -0.3010
-0.3010 BOX </s> -0.3010
-0.3010 BOY </s> -0.3010
-0.3010 BRANCH </s> -0.3010
-0.3010 BREAD </s> -0.3010
-0.3010 BREAK </s> -0.3010
-0.3010 BRIDGE </s> -0.3010
-0.3010 BRIGHT </s> -0.3010
-0.3010 BRING </s> -0.3010
-0.3010 BROAD </s> -0.3010
-0.3010 BROKE </s> -0.3010
-0.3010 BROTHER </s> -0.3010
-0.3010 BROUGHT </s> -0.3010
-0.3010 BROWN </s> -0.3010
-0.3010 BUILD </s> -0.3010
-0.3010 BURN </s> -0.3010
-0.3010 BUSY </s> -0.3010
-0.3010 BUT </s> -0.3010
-0.3010 BUY </s> -0.3010
-0.3010 BY </s> -0.3010
-0.3010 CALCULUS </s> -0.3010
-0.3010 CALL </s> -0.3010
-0.3010 CAME </s> -0.3010
-0.3010 CAMP </s> -0.3010
-0.3010 CAN </s> -0.3010
-0.6021 CANAL </s> -0.3010
-0.6021 CANAL TREATMENT 0.0000
-0.3010 CAPITAL </s> -0.3010
-0.3010 CAPTAIN </s> -0.3010
-0.3010 CAR </s> -0.3010
-0.3010 CARD </s> -0.3010
-0.3010 CARE </s> -0.3010
-0.3010 CARRY </s> -0.3010
-0.3010 CASE </s> -0.3010
-0.3010 CAT </s> -0.3010
-0.3010 CATCH </s> -0.3010
-0.3010 CAUGHT </s> -0.3010
-0.3010 CAUSE </s> -0.3010
-0.3010 CELL </s> -0.3010
-0.3010 CENT </s> -0.3010
-0.3010 CENTER </s> -0.3010
-0.3010 CENTURY </s> -0.3010
-0.3010 CERTAIN </s> -0.3010
-0.3010 CHAIR </s> -0.3010
-0.3010 CHANCE </s> -0.3010
-0.3010 CHANGE </s> -0.3010
-0.3010 CHARACTER </s> -0.3010
-0.3010 CHARGE </s> -0.3010
-0.3010 CHART </s> -0.3010
-0.3010 CHECK </s> -0.3010
-0.3010 CHECK-UP </s> -0.3010
-0.3010 CHICK </s> -0.3010
-0.3010 CHIEF </s> -0.3010
-0.3010 CHILD </s> -0.3010
-0.3010 CHILDREN </s> -0.3010
-0.3010 CHOOSE </s> -0.3010
-0.3010 CHORD </s> -0.3010
-0.3010 CIRCLE </s> -0.3010
-0.3010 CITY </s> -0.3010
-0.3010 CLAIM </s> -0.3010
-0.3010 CLASS </s> -0.3010
-0.3010 CLEAN </s> -0.3010
-0.3010 CLEAR </s> -0.3010
-0.3010 CLIMB </s> -0.3010
-0.3010 CLOCK </s> -0.3010
-0.3010 CLOSE </s> -0.3010
-0.3010 CLOTHE </s> -0.3010
-0.3010 CLOUD </s> -0.3010
-0.3010 COAST </s> -0.3010
-0.3010 COAT </s> -0.3010
-0.3010 COLD </s> -0.3010
-0.3010 COLLECT </s> -0.3010
-0.3010 COLONY </s> -0.3010
-0.3010 COLOR </s> -0.3010
-0.3010 COLUMN </s> -0.3010
-0.3010 COME </s> -0.3010
-0.3010 COMMON </s> -0.3010
-0.3010 COMPANY </s> -0.3010
-0.3010 COMPARE </s> -0.3010
-0.3010 COMPLETE </s> -0.3010
-0.3010 CONDITION </s> -0.3010
-0.3010 CONNECT </s> -0.3010
-0.3010 CONSIDER </s> -0.3010
-0.3010 CONSONANT </s> -0.3010
-0.3010 CONTAIN </s> -0.3010
-0.3010 CONTINENT </s> -0.3010
-0.3010 CONTINUE </s> -0.3010
-0.3010 CONTROL </s> -0.3010
-0.3010 COOK </s> -0.3010
-0.3010 COOL </s> -0.3010
-0.3010 COPY </s> -0.3010
-0.3010 CORN </s> -0.3010
-0.3010 CORNER </s> -0.3010
-0.3010 CORRECT </s> -0.3010
-0.3010 COST </s> -0.3010
-0.3010 COTTON </s> -0.3010
-0.3010 COULD </s> -0.3010
-0.3010 COUNT </s> -0.3010
-0.3010 COUNTRY </s> -0.3010
-0.3010 COURSE </s> -0.3010
-0.3010 COVER </s> -0.3010
-0.3010 COW </s> -0.3010
-0.3010 CREASE </s> -0.3010
-0.3010 CREATE </s> -0.3010
-0.3010 CROP </s> -0.3010
-0.3010 CROSS </s> -0.3010
-0.3010 CROWD </s> -0.3010
-0.3010 CROWN </s> -0.3010
-0.3010 CRY </s> -0.3010
-0.3010 CURRENT </s> -0.3010
-0.3010 CUT </s> -0.3010
-0.3010 DAD </s> -0.3010
-0.3010 DANCE </s> -0.3010
-0.3010 DANGER </s> -0.3010
-0.3010 DARK </s> -0.3010
-0.3010 DAY </s> -0.3010
-0.3010 DEAD </s> -0.3010
-0.3010 DEAL </s> -0.3010
-0.3010 DEAR </s> -0.3010
-0.3010 DEATH </s> -0.3010
-0.3010 DECAY </s> -0.3010
-0.3010 DECIDE </s> -0.3010
-0.3010 DECIMAL </s> -0.3010
-0.3010 DEEP </s> -0.3010
-0.3010 DEGREE </s> -0.3010
-0.9031 DENTAL CALCULUS 0.0000
-0.9031 DENTAL FLOSS 0.0000
-0.9031 DENTAL IMPLANTS 0.0000
-0.9031 DENTAL PLAQUE 0.0000
-0.3010 DENTINE </s> -0.3010
-0.3010 DEPEND </s> -0.3010
-0.3010 DESCRIBE </s> -0.3010
-0.3010 DESERT </s> -0.3010
-0.3010 DESIGN </s> -0.3010
-0.3010 DETERMINE </s> -0.3010
-0.3010 DEVELOP </s> -0.3010
-0.3010 DICTIONARY </s> -0.3010
-0.3010 DID </s> -0.3010
-0.3010 DIE </s> -0.3010
-0.3010 DIFFER </s> -0.3010
-0.3010 DIFFICULT </s> -0.3010
-0.3010 DIRECT </s> -0.3010
-0.3010 DISCUSS </s> -0.3010
-0.3010 DISEASE </s> -0.3010
-0.3010 DISTANT </s> -0.3010
-0.3010 DIVIDE </s> -0.3010
-0.3010 DIVISION </s> -0.3010
-0.3010 DO </s> -0.3010
-0.3010 DOCTOR </s> -0.3010
-0.3010 DOES </s> -0.3010
-0.3010 DOG </s> -0.3010
-0.3010 DOLLAR </s> -0.3010
-0.3010 DON'T </s> -0.3010
-0.3010 DONE </s> -0.3010
-0.3010 DOOR </s> -0.3010
-0.3010 DOUBLE </s> -0.3010
-0.3010 DOWN </s> -0.3010
-0.3010 DRAW </s> -0.3010
-0.3010 DREAM </s> -0.3010
-0.3010 DRESS </s> -0.3010
-0.3010 DRINK </s> -0.3010
-0.3010 DRIVE </s> -0.3010
-0.3010 DROP </s> -0.3010
-0.3010 DRY </s> -0.3010
-0.3010 DUCK </s> -0.3010
-0.3010 DURING </s> -0.3010
-0.3010 EACH </s> -0.3010
-0.3010 EAR </s> -0.3010
-0.3010 EARLY </s> -0.3010
-0.3010 EARTH </s> -0.3010
-0.3010 EASE </s> -0.3010
-0.3010 EAST </s> -0.3010
-0.3010 EAT </s> -0.3010
-0.3010 EDGE </s> -0.3010
-0.3010 EFFECT </s> -0.3010
-0.3010 EGG </s> -0.3010
-0.3010 EIGHT </s> -0.3010
-0.3010 EITHER </s> -0.3010
-0.3010 ELECTRIC </s> -0.3010
-0.3010 ELEMENT </s> -0.3010
-0.3010 ELSE </s> -0.3010
-0.3010 ENAMEL </s> -0.3010
-0.3010 END </s> -0.3010
-0.3010 ENEMY </s> -0.3010
-0.3010 ENERGY </s> -0.3010
-0.3010 ENGINE </s> -0.3010
-0.3010 ENOUGH </s> -0.3010
-0.3010 ENTER </s> -0.3010
-0.3010 EQUAL </s> -0.3010
-0.3010 EQUATE </s> -0.3010
-0.3010 ESPECIALLY </s> -0.3010
-0.3010 EVEN </s> -0.3010
-0.3010 EVENING </s> -0.3010
-0.3010 EVENT </s> -0.3010
-0.3010 EVER </s> -0.3010
-0.3010 EVERY </s> -0.3010
-0.3010 EXACT </s> -0.3010
-0.3010 EXAMPLE </s> -0.3010
-0.3010 EXCEPT </s> -0.3010
-0.3010 EXCITE </s> -0.3010
-0.3010 EXERCISE </s> -0.3010
-0.3010 EXPECT </s> -0.3010
-0.3010 EXPERIENCE </s> -0.3010
-0.3010 EXPERIMENT </s> -0.3010
-0.3010 EYE </s> -0.3010
-0.3010 FACE </s> -0.3010
-0.3010 FACT </s> -0.3010
-0.3010 FAIR </s> -0.3010
-0.3010 FALL </s> -0.3010
-0.3010 FAMILY </s> -0.3010
-0.3010 FAMOUS </s> -0.3010
-0.3010 FAR </s> -0.3010
-0.3010 FARM </s> -0.3010
-0.3010 FAST </s> -0.3010
-0.3010 FAT </s> -0.3010
-0.3010 FATHER </s> -0.3010
-0.3010 FAVOR </s> -0.3010
-0.3010 FEAR </s> -0.3010
-0.3010 FEED </s> -0.3010
-0.3010 FEEL </s> -0.3010
-0.3010 FEET </s> -0.3010
-0.3010 FELL </s> -0.3010
-0.3010 FELT </s> -0.3010
-0.3010 FEW </s> -0.3010
-0.3010 FIELD </s> -0.3010
-0.3010 FIG </s> -0.3010
-0.3010 FIGHT </s> -0.3010
-0.3010 FIGURE </s> -0.3010
-0.3010 FILL </s> -0.3010
-0.3010 FILLING </s> -0.3010
-0.3010 FINAL </s> -0.3010
-0.3010 FIND </s> -0.3010
-0.3010 FINE </s> -0.3010
-0.3010 FINGER </s> -0.3010
-0.3010 FINISH </s> -0.3010
-0.3010 FIRE </s> -0.3010
-0.3010 FIRST </s> -0.3010
-0.3010 FISH </s> -0.3010
-0.3010 FIT </s> -0.3010
-0.3010 FIVE </s> -0.3010
-0.3010 FLAT </s> -0.3010
-0.3010 FLOOR </s> -0.3010
-0.3010 FLOSS </s> -0.3010
-0.3010 FLOW </s> -0.3010
-0.3010 FLOWER </s> -0.3010
-0.3010 FLUORIDE </s> -0.3010
-0.3010 FLY </s> -0.3010
-0.3010 FOLLOW </s> -0.3010
-0.3010 FOOD </s> -0.3010
-0.3010 FOOT </s> -0.3010
-0.3010 FOR </s> -0.3010
-0.3010 FORCE </s> -0.3010
-0.3010 FOREST </s> -0.3010
-0.3010 FORM </s> -0.3010
-0.3010 FORWARD </s> -0.3010
-0.3010 FOUND </s> -0.3010
-0.3010 FOUR </s> -0.3010
-0.3010 FRACTION </s> -0.3010
-0.3010 FREE </s> -0.3010
-0.3010 FRESH </s> -0.3010
-0.3010 FRIEND </s> -0.3010
-0.3010 FROM </s> -0.3010
-0.3010 FRONT </s> -0.3010
-0.3010 FRUIT </s> -0.3010
-0.3010 FULL </s> -0.3010
-0.3010 FUN </s> -0.3010
-0.3010 GAME </s> -0.3010
-0.3010 GARDEN </s> -0.3010
-0.3010 GAS </s> -0.3010
-0.3010 GATHER </s> -0.3010
-0.3010 GAVE </s> -0.3010
-0.3010 GENERAL </s> -0.3010
-0.3010 GENTLE </s> -0.3010
-0.3010 GET </s> -0.3010
-0.3010 GIRL </s> -0.3010
-0.3010 GIVE </s> -0.3010
-0.3010 GLAD </s> -0.3010
-0.3010 GLASS </s> -0.3010
-0.3010 GO </s> -0.3010
-0.3010 GOLD </s> -0.3010
-0.3010 GONE </s> -0.3010
-0.3010 GOOD </s> -0.3010
-0.3010 GOT </s> -0.3010
-0.3010 GOVERN </s> -0.3010
-0.3010 GRAND </s> -0.3010
-0.3010 GRASS </s> -0.3010
-0.3010 GRAY </s> -0.3010
-0.3010 GREAT </s> -0.3010
-0.3010 GREEN </s> -0.3010
-0.3010 GREW </s> -0.3010
-0.3010 GROUND </s> -0.3010
-0.3010 GROUP </s> -0.3010
-0.3010 GROW </s> -0.3010
-0.3010 GUESS </s> -0.3010
-0.3010 GUIDE </s> -0.3010
-0.3010 GUM DISEASE 0.0000
-0.3010 GUN </s> -0.3010
-0.3010 HAD </s> -0.3010
-0.3010 HAIR </s> -0.3010
-0.3010 HALF </s> -0.3010
-0.3010 HALITOSIS </s> -0.3010
-0.3010 HAND </s> -0.3010
-0.3010 HAPPEN </s> -0.3010
-0.3010 HAPPY </s> -0.3010
-0.3010 HARD </s> -0.3010
-0.3010 HAS </s> -0.3010
-0.3010 HAT </s> -0.3010
-0.3010 HAVE </s> -0.3010
-0.3010 HE </s> -0.3010
-0.3010 HEAD </s> -0.3010
-0.3010 HEAR </s> -0.3010
-0.3010 HEARD </s> -0.3010
-0.3010 HEART </s> -0.3010
-0.3010 HEAT </s> -0.3010
-0.3010 HEAVY </s> -0.3010
-0.3010 HELD </s> -0.3010
-0.3010 HELP </s> -0.3010
-0.3010 HER </s> -0.3010
-0.3010 HERE </s> -0.3010
-0.3010 HIGH </s> -0.3010
-0.3010 HILL </s> -0.3010
-0.3010 HIM </s> -0.3010
-0.3010 HIS </s> -0.3010
-0.3010 HISTORY </s> -0.3010
-0.3010 HIT </s> -0.3010
-0.3010 HOLD </s> -0.3010
-0.3010 HOLE </s> -0.3010
-0.3010 HOME </s> -0.3010
-0.3010 HOPE </s> -0.3010
-0.3010 HORSE </s> -0.3010
-0.3010 HOT </s> -0.3010
-0.3010 HOUR </s> -0.3010
-0.3010 HOUSE </s> -0.3010
-0.3010 HOW </s> -0.3010
-0.3010 HUGE </s> -0.3010
-0.3010 HUMAN </s> -0.3010
-0.3010 HUNDRED </s> -0.3010
-0.3010 HUNT </s> -0.3010
-0.3010 HURRY </s> -0.3010
-0.3010 I </s> -0.3010
-0.3010 ICE </s> -0.3010
-0.3010 IDEA </s> -0.3010
-0.3010 IF </s> -0.3010
-0.3010 IMAGINE </s> -0.3010
-0.3010 IMPLANTS </s> -0.3010
-0.3010 IMPRESSION </s> -0.3010
-0.3010 IN </s> -0.3010
-0.3010 INCH </s> -0.3010
-0.3010 INCLUDE </s> -0.3010
-0.3010 INDICATE </s> -0.3010
-0.3010 INDUSTRY </s> -0.3010
-0.3010 INFLAMMATION </s> -0.3010
-0.3010 INNER SURFACE 0.0000
-0.3010 INSECT </s> -0.3010
-0.3010 INSTANT </s> -0.3010
-0.3010 INSTRUMENT </s> -0.3010
-0.3010 INTEREST </s> -0.3010
-0.3010 INVENT </s> -0.3010
-0.3010 IRON </s> -0.3010
-0.3010 IS </s> -0.3010
-0.3010 ISLAND </s> -0.3010
-0.3010 IT </s> -0.3010
-0.3010 JOB </s> -0.3010
-0.3010 JOIN </s> -0.3010
-0.3010 JOY </s> -0.3010
-0.3010 JUMP </s> -0.3010
-0.3010 JUST </s> -0.3010
-0.3010 KEEP </s> -0.3010
-0.3010 KEPT </s> -0.3010
-0.3010 KEY </s> -0.3010
-0.3010 KILL </s> -0.3010
-0.3010 KIND </s> -0.3010
-0.3010 KING </s> -0.3010
-0.3010 KNEW </s> -0.3010
-0.3010 KNOW </s> -0.3010
-0.3010 LADY </s> -0.3010
-0.3010 LAKE </s> -0.3010
-0.3010 LAND </s> -0.3010
-0.3010 LANGUAGE </s> -0.3010
-0.3010 LARGE </s> -0.3010
-0.3010 LAST </s> -0.3010
-0.3010 LATE </s> -0.3010
-0.3010 LAUGH </s> -0.3010
-0.3010 LAW </s> -0.3010
-0.3010 LAY </s> -0.3010
-0.3010 LEAD </s> -0.3010
-0.3010 LEARN </s> -0.3010
-0.3010 LEAST </s> -0.3010
-0.3010 LEAVE </s> -0.3010
-0.3010 LED </s> -0.3010
-0.3010 LEFT </s> -0.3010
-0.3010 LEG </s> -0.3010
-0.3010 LENGTH </s> -0.3010
-0.3010 LESS </s> -0.3010
-0.3010 LET </s> -0.3010
-0.3010 LETTER </s> -0.3010
-0.3010 LEVEL </s> -0.3010
-0.3010 LIE </s> -0.3010
-0.3010 LIFE </s> -0.3010
-0.3010 LIFT </s> -0.3010
-0.3010 LIGHT </s> -0.3010
-0.3010 LIKE </s> -0.3010
-0.3010 LINE </s> -0.3010
-0.3010 LIQUID </s> -0.3010
-0.3010 LIST </s> -0.3010
-0.3010 LISTEN </s> -0.3010
-0.3010 LITTLE </s> -0.3010
-0.3010 LIVE </s> -0.3010
-0.3010 LOCAL ANAESTHESIA 0.0000
-0.3010 LOCATE </s> -0.3010
-0.3010 LOG </s> -0.3010
-0.3010 LONE </s> -0.3010
-0.3010 LONG </s> -0.3010
-0.3010 LOOK </s> -0.3010
-0.3010 LOST </s> -0.3010
-0.3010 LOT </s> -0.3010
-0.3010 LOUD </s> -0.3010
-0.3010 LOVE </s> -0.3010
-0.3010 LOW </s> -0.3010
-0.3010 MACHINE </s> -0.3010
-0.3010 MADE </s> -0.3010
-0.3010 MAGNET </s> -0.3010
-0.3010 MAIN </s> -0.3010
-0.3010 MAJOR </s> -0.3010
-0.3010 MAKE </s> -0.3010
-0.3010 MAN </s> -0.3010
-0.3010 MANDIBLE </s> -0.3010
-0.3010 MANY </s> -0.3010
-0.3010 MAP </s> -0.3010
-0.3010 MARK </s> -0.3010
-0.3010 MARKET </s> -0.3010
-0.3010 MASS </s> -0.3010
-0.3010 MASTER </s> -0.3010
-0.3010 MATCH </s> -0.3010
-0.3010 MATERIAL </s> -0.3010
-0.3010 MATTER </s> -0.3010
-0.3010 MAY </s> -0.3010
-0.3010 ME </s> -0.3010
-0.3010 MEAN </s> -0.3010
-0.3010 MEANT </s> -0.3010
-0.3010 MEASURE </s> -0.3010
-0.3010 MEAT </s> -0.3010
-0.3010 MEET </s> -0.3010
-0.3010 MELODY </s> -0.3010
-0.3010 MEN </s> -0.3010
-0.3010 METAL </s> -0.3010
-0.3010 METHOD </s> -0.3010
-0.3010 MIDDLE </s> -0.3010
-0.3010 MIGHT </s> -0.3010
-0.3010 MILE </s> -0.3010
-0.3010 MILK </s> -0.3010
-0.3010 MILLION </s> -0.3010
-0.3010 MIND </s> -0.3010
-0.3010 MINE </s> -0.3010
-0.3010 MINUTE </s> -0.3010
-0.3010 MISS </s> -0.3010
-0.3010 MIX </s> -0.3010
-0.3010 MODERN </s> -0.3010
-0.3010 MOLECULE </s> -0.3010
-0.3010 MOMENT </s> -0.3010
-0.3010 MONEY </s> -0.3010
-0.3010 MONTH </s> -0.3010
-0.3010 MOON </s> -0.3010
-0.3010 MORE </s> -0.3010
-0.3010 MORNING </s> -0.3010
-0.3010 MOST </s> -0.3010
-0.3010 MOTHER </s> -0.3010
-0.3010 MOTION </s> -0.3010
-0.3010 MOUNT </s> -0.3010
-0.3010 MOUNTAIN </s> -0.3010
-0.6021 MOUTH </s> -0.3010
-0.6021 MOUTH RINSE 0.0000
-0.3010 MOVE </s> -0.3010
-0.3010 MUCH </s> -0.3010
-0.3010 MULTIPLY </s> -0.3010
-0.3010 MUSIC </s> -0.3010
-0.3010 MUST </s> -0.3010
-0.3010 MY </s> -0.3010
-0.3010 NAME </s> -0.3010
-0.3010 NATION </s> -0.3010
-0.3010 NATURAL </s> -0.3010
-0.3010 NATURE </s> -0.3010
-0.3010 NEAR </s> -0.3010
-0.3010 NECESSARY </s> -0.3010
-0.3010 NECK </s> -0.3010
-0.3010 NEED </s> -0.3010
-0.3010 NEIGHBOR </s> -0.3010
-0.3010 NEVER </s> -0.3010
-0.3010 NEW </s> -0.3010
-0.3010 NEXT </s> -0.3010
-0.3010 NIGHT </s> -0.3010
-0.3010 NINE </s> -0.3010
-0.3010 NO </s> -0.3010
-0.3010 NOISE </s> -0.3010
-0.3010 NOON </s> -0.3010
-0.3010 NOR </s> -0.3010
-0.3010 NORTH </s> -0.3010
-0.3010 NOSE </s> -0.3010
-0.3010 NOTE </s> -0.3010
-0.3010 NOTHING </s> -0.3010
-0.3010 NOTICE </s> -0.3010
-0.3010 NOUN </s> -0.3010
-0.3010 NOW </s> -0.3010
-0.3010 NUMBER </s> -0.3010
-0.3010 NUMERAL </s> -0.3010
-0.3010 OBJECT </s> -0.3010
-0.3010 OBSERVE </s> -0.3010
-0.3010 OCCUR </s> -0.3010
-0.3010 OCEAN </s> -0.3010
-0.3010 OF </s> -0.3010
-0.3010 OFF </s> -0.3010
-0.3010 OFFER </s> -0.3010
-0.3010 OFFICE </s> -0.3010
-0.3010 OFTEN </s> -0.3010
-0.3010 OH </s> -0.3010
-0.3010 OIL </s> -0.3010
-0.3010 OLD </s> -0.3010
-0.3010 ON </s> -0.3010
-0.3010 ONCE </s> -0.3010
-0.3010 ONE </s> -0.3010
-0.3010 ONLY </s> -0.3010
-0.3010 OPEN </s> -0.3010
-0.3010 OPERATE </s> -0.3010
-0.3010 OPPOSITE </s> -0.3010
-0.3010 OR </s> -0.3010
-0.3010 ORDER </s> -0.3010
-0.3010 ORGAN </s> -0.3010
-0.3010 ORIGINAL </s> -0.3010
-0.3010 OTHER </s> -0.3010
-0.3010 OUR </s> -0.3010
-0.3010 OUT </s> -0.3010
-0.3010 OUTER SURFACE 0.0000
-0.3010 OVER </s> -0.3010
-0.3010 OWN </s> -0.3010
-0.3010 OXYGEN </s> -0.3010
-0.3010 PAGE </s> -0.3010
-0.3010 PAINT </s> -0.3010
-0.3010 PAIR </s> -0.3010
-0.3010 PAPER </s> -0.3010
-0.3010 PARAGRAPH </s> -0.3010
-0.3010 PARENT </s> -0.3010
-0.3010 PART </s> -0.3010
-0.3010 PARTICULAR </s> -0.3010
-0.3010 PARTY </s> -0.3010
-0.3010 PASS </s> -0.3010
-0.3010 PAST </s> -0.3010
-0.3010 PATH </s> -0.3010
-0.3010 PATTERN </s> -0.3010
-0.3010 PAY </s> -0.3010
-0.3010 PEOPLE </s> -0.3010
-0.3010 PERHAPS </s> -0.3010
-0.3010 PERIOD </s> -0.3010
-0.3010 PERSON </s> -0.3010
-0.3010 PHRASE </s> -0.3010
-0.3010 PICK </s> -0.3010
-0.3010 PICTURE </s> -0.3010
-0.3010 PIECE </s> -0.3010
-0.3010 PITCH </s> -0.3010
-0.3010 PLACE </s> -0.3010
-0.3010 PLAIN </s> -0.3010
-0.3010 PLAN </s> -0.3010
-0.3010 PLANE </s> -0.3010
-0.3010 PLANET </s> -0.3010
-0.3010 PLANT </s> -0.3010
-0.3010 PLAQUE </s> -0.3010
-0.3010 PLAY </s> -0.3010
-0.3010 PLEASE </s> -0.3010
-0.3010 PLURAL </s> -0.3010
-0.3010 POEM </s> -0.3010
-0.3010 POINT </s> -0.3010
-0.3010 POOR </s> -0.3010
-0.3010 POPULATE </s> -0.3010
-0.3010 PORT </s> -0.3010
-0.3010 POSE </s> -0.3010
-0.3010 POSITION </s> -0.3010
-0.3010 POSSIBLE </s> -0.3010
-0.3010 POST </s> -0.3010
-0.3010 POUND </s> -0.3010
-0.3010 POWER </s> -0.3010
-0.3010 PRACTICE </s> -0.3010
-0.3010 PREPARE </s> -0.3010
-0.3010 PRESENT </s> -0.3010
-0.3010 PRESS </s> -0.3010
-0.3010 PRETTY </s> -0.3010
-0.3010 PRINT </s> -0.3010
-0.3010 PROBABLE </s> -0.3010
-0.3010 PROBLEM </s> -0.3010
-0.3010 PROCESS </s> -0.3010
-0.3010 PRODUCE </s> -0.3010
-0.3010 PRODUCT </s> -0.3010
-0.3010 PROPER </s> -0.3010
-0.3010 PROPERTY </s> -0.3010
-0.3010 PROTECT </s> -0.3010
-0.3010 PROTRUDE MANDIBLE 0.0000
-0.3010 PROVE </s> -0.3010
-0.3010 PROVIDE </s> -0.3010
-0.3010 PULL </s> -0.3010
-0.3010 PULP </s> -0.3010
-0.3010 PUSH </s> -0.3010
-0.3010 PUT </s> -0.3010
-0.3010 QUART </s> -0.3010
-0.3010 QUESTION </s> -0.3010
-0.3010 QUICK </s> -0.3010
-0.3010 QUIET </s> -0.3010
-0.3010 QUITE </s> -0.3010
-0.3010 QUOTIENT </s> -0.3010
-0.3010 RACE </s> -0.3010
-0.3010 RADIO </s> -0.3010
-0.3010 RAIL </s> -0.3010
-0.3010 RAIN </s> -0.3010
-0.3010 RAISE </s> -0.3010
-0.3010 RAN </s> -0.3010
-0.3010 RANGE </s> -0.3010
-0.3010 RATHER </s> -0.3010
-0.3010 REACH </s> -0.3010
-0.3010 READ </s> -0.3010
-0.3010 READY </s> -0.3010
-0.3010 REAL </s> -0.3010
-0.3010 REASON </s> -0.3010
-0.3010 RECEIVE </s> -0.3010
-0.3010 RECORD </s> -0.3010
-0.3010 RED </s> -0.3010
-0.3010 REGION </s> -0.3010
-0.3010 REGULAR CHECK-UP 0.0000
-0.3010 REMEMBER </s> -0.3010
-0.3010 REPEAT </s> -0.3010
-0.3010 REPLY </s> -0.3010
-0.3010 REPRESENT </s> -0.3010
-0.3010 REQUIRE </s> -0.3010
-0.3010 REST </s> -0.3010
-0.3010 RESULT </s> -0.3010
-0.3010 RICH </s> -0.3010
-0.3010 RIDE </s> -0.3010
-0.3010 RIGHT </s> -0.3010
-0.3010 RING </s> -0.3010
-0.3010 RINSE </s> -0.3010
-0.3010 RISE </s> -0.3010
-0.3010 RIVER </s> -0.3010
-0.3010 ROAD </s> -0.3010
-0.3010 ROCK </s> -0.3010
-0.3010 ROLL </s> -0.3010
-0.3010 ROOM </s> -0.3010
-0.7782 ROOT </s> -0.3010
-0.4771 ROOT CANAL 0.0000
-0.3010 ROPE </s> -0.3010
-0.3010 ROSE </s> -0.3010
-0.3010 ROUND </s> -0.3010
-0.3010 ROW </s> -0.3010
-0.3010 RUB </s> -0.3010
-0.3010 RULE </s> -0.3010
-0.3010 RUN </s> -0.3010
-0.3010 SAFE </s> -0.3010
-0.3010 SAID </s> -0.3010
-0.3010 SAIL </s> -0.3010
-0.3010 SALT </s> -0.3010
-0.3010 SAME </s> -0.3010
-0.3010 SAND </s> -0.3010
-0.3010 SAT </s> -0.3010
-0.3010 SAVE </s> -0.3010
-0.3010 SAW </s> -0.3010
-0.3010 SAY </s> -0.3010
-0.3010 SCALE </s> -0.3010
-0.3010 SCALING </s> -0.3010
-0.3010 SCHOOL </s> -0.3010
-0.3010 SCIENCE </s> -0.3010
-0.3010 SCORE </s> -0.3010
-0.3010 SEA </s> -0.3010
-0.3010 SEARCH </s> -0.3010
-0.3010 SEASON </s> -0.3010
-0.3010 SEAT </s> -0.3010
-0.3010 SECOND </s> -0.3010
-0.3010 SECTION </s> -0.3010
-0.3010 SEE </s> -0.3010
-0.3010 SEED </s> -0.3010
-0.3010 SEEM </s> -0.3010
-0.3010 SEGMENT </s> -0.3010
-0.3010 SELECT </s> -0.3010
-0.3010 SELF </s> -0.3010
-0.3010 SELL </s> -0.3010
-0.3010 SEND </s> -0.3010
-0.3010 SENSE </s> -0.3010
-0.3010 SENSITIVE TEETH 0.0000
-0.3010 SENT </s> -0.3010
-0.3010 SENTENCE </s> -0.3010
-0.3010 SEPARATE </s> -0.3010
-0.3010 SERVE </s> -0.3010
-0.3010 SET </s> -0.3010
-0.3010 SETTLE </s> -0.3010
-0.3010 SEVEN </s> -0.3010
-0.3010 SEVERAL </s> -0.3010
-0.3010 SHALL </s> -0.3010
-0.3010 SHAPE </s> -0.3010
-0.3010 SHARE </s> -0.3010
-0.3010 SHARP </s> -0.3010
-0.3010 SHE </s> -0.3010
-0.3010 SHEET </s> -0.3010
-0.3010 SHELL </s> -0.3010
-0.3010 SHINE </s> -0.3010
-0.3010 SHIP </s> -0.3010
-0.3010 SHOE </s> -0.3010
-0.3010 SHOP </s> -0.3010
-0.3010 SHORE </s> -0.3010
-0.3010 SHORT </s> -0.3010
-0.3010 SHOULD </s> -0.3010
-0.3010 SHOULDER </s> -0.3010
-0.3010 SHOUT </s> -0.3010
-0.3010 SHOW </s> -0.3010
-0.3010 SIDE </s> -0.3010
-0.3010 SIGHT </s> -0.3010
-0.3010 SIGN </s> -0.3010
-0.3010 SILENT </s> -0.3010
-0.3010 SILVER </s> -0.3010
-0.3010 SIMILAR </s> -0.3010
-0.3010 SIMPLE </s> -0.3010
-0.3010 SINCE </s> -0.3010
-0.3010 SING </s> -0.3010
-0.3010 SINGLE </s> -0.3010
-0.3010 SISTER </s> -0.3010
-0.3010 SIT </s> -0.3010
-0.3010 SIX </s> -0.3010
-0.3010 SIZE </s> -0.3010
-0.3010 SKILL </s> -0.3010
-0.3010 SKIN </s> -0.3010
-0.3010 SKY </s> -0.3010
-0.3010 SLAVE </s> -0.3010
-0.3010 SLEEP </s> -0.3010
-0.3010 SLIP </s> -0.3010
-0.3010 SLOW </s> -0.3010
-0.3010 SMALL </s> -0.3010
-0.3010 SMELL </s> -0.3010
-0.3010 SMILE </s> -0.3010
-0.3010 SNOW </s> -0.3010
-0.3010 SO </s> -0.3010
-0.3010 SOFT </s> -0.3010
-0.3010 SOIL </s> -0.3010
-0.3010 SOLDIER </s> -0.3010
-0.3010 SOLUTION </s> -0.3010
-0.3010 SOLVE </s> -0.3010
-0.3010 SOME </s> -0.3010
-0.3010 SON </s> -0.3010
-0.3010 SONG </s> -0.3010
-0.3010 SOON </s> -0.3010
-0.3010 SOUND </s> -0.3010
-0.3010 SOUTH </s> -0.3010
-0.3010 SPACE </s> -0.3010
-0.3010 SPEAK </s> -0.3010
-0.3010 SPECIAL </s> -0.3010
-0.3010 SPEECH </s> -0.3010
-0.3010 SPEED </s> -0.3010
-0.3010 SPELL </s> -0.3010
-0.3010 SPEND </s> -0.3010
-0.3010 SPOKE </s> -0.3010
-0.3010 SPOT </s> -0.3010
-0.3010 SPREAD </s> -0.3010
-0.3010 SPRING </s> -0.3010
-0.3010 SQUARE </s> -0.3010
-0.3010 STAND </s> -0.3010
-0.3010 STAR </s> -0.3010
-0.3010 START </s> -0.3010
-0.3010 STATE </s> -0.3010
-0.3010 STATION </s> -0.3010
-0.3010 STAY </s> -0.3010
-0.3010 STEAD </s> -0.3010
-0.3010 STEAM </s> -0.3010
-0.3010 STEEL </s> -0.3010
-0.3010 STEP </s> -0.3010
-0.3010 STICK </s> -0.3010
-0.3010 STILL </s> -0.3010
-0.3010 STONE </s> -0.3010
-0.3010 STOOD </s> -0.3010
-0.3010 STOP </s> -0.3010
-0.3010 STORE </s> -0.3010
-0.3010 STORY </s> -0.3010
-0.3010 STRAIGHT </s> -0.3010
-0.3010 STRANGE </s> -0.3010
-0.3010 STREAM </s> -0.3010
-0.3010 STREET </s> -0.3010
-0.3010 STRETCH </s> -0.3010
-0.3010 STRING </s> -0.3010
-0.3010 STRONG </s> -0.3010
-0.3010 STUDENT </s> -0.3010
-0.3010 STUDY </s> -0.3010
-0.3010 SUBJECT </s> -0.3010
-0.3010 SUBSTANCE </s> -0.3010
-0.3010 SUBTRACT </s> -0.3010
-0.3010 SUCCESS </s> -0.3010
-0.3010 SUCH </s> -0.3010
-0.3010 SUDDEN </s> -0.3010
-0.3010 SUFFIX </s> -0.3010
-0.3010 SUGAR </s> -0.3010
-0.3010 SUGGEST </s> -0.3010
-0.3010 SUIT </s> -0.3010
-0.3010 SUMMER </s> -0.3010
-0.3010 SUN </s> -0.3010
-0.3010 SUPPLY </s> -0.3010
-0.3010 SUPPORT </s> -0.3010
-0.3010 SURE </s> -0.3010
-0.3010 SURFACE </s> -0.3010
-0.3010 SURPRISE </s> -0.3010
-0.3010 SWIM </s> -0.3010
-0.3010 SYLLABLE </s> -0.3010
-0.3010 SYMBOL </s> -0.3010
-0.3010 SYSTEM </s> -0.3010
-0.3010 TABLE </s> -0.3010
-0.3010 TAIL </s> -0.3010
-0.3010 TAKE </s> -0.3010
-0.3010 TALK </s> -0.3010
-0.3010 TALL </s> -0.3010
-0.3010 TEACH </s> -0.3010
-0.3010 TEAM </s> -0.3010
-0.3010 TEETH </s> -0.3010
-0.3010 TELL </s> -0.3010
-0.3010 TEMPERATURE </s> -0.3010
-0.3010 TEN </s> -0.3010
-0.3010 TERM </s> -0.3010
-0.3010 TEST </s> -0.3010
-0.3010 THAN </s> -0.3010
-0.3010 THANK </s> -0.3010
-0.3010 THAT </s> -0.3010
-0.3010 THE </s> -0.3010
-0.3010 THEIR </s> -0.3010
-0.3010 THEM </s> -0.3010
-0.3010 THEN </s> -0.3010
-0.3010 THERE </s> -0.3010
-0.3010 THESE </s> -0.3010
-0.3010 THEY </s> -0.3010
-0.3010 THICK </s> -0.3010
-0.3010 THIN </s> -0.3010
-0.3010 THING </s> -0.3010
-0.3010 THINK </s> -0.3010
-0.3010 THIRD </s> -0.3010
-0.3010 THIS </s> -0.3010
-0.3010 THOSE </s> -0.3010
-0.3010 THOUGH </s> -0.3010
-0.3010 THOUGHT </s> -0.3010
-0.3010 THOUSAND </s> -0.3010
-0.3010 THREE </s> -0.3010
-0.3010 THROUGH </s> -0.3010
-0.3010 THROW </s> -0.3010
-0.3010 THUS </s> -0.3010
-0.3010 TIE </s> -0.3010
-0.3010 TIME </s> -0.3010
-0.3010 TINY </s> -0.3010
-0.3010 TIRE </s> -0.3010
-0.3010 TO </s> -0.3010
-0.3010 TOGETHER </s> -0.3010
-0.3010 TOLD </s> -0.3010
-0.3010 TONE </s> -0.3010
-0.3010 TOO </s> -0.3010
-0.3010 TOOK </s> -0.3010
-0.3010 TOOL </s> -0.3010
-0.6021 TOOTH </s> -0.3010
-0.6021 TOOTH DECAY 0.0000
-0.3010 TOP </s> -0.3010
-0.3010 TOTAL </s> -0.3010
-0.3010 TOUCH </s> -0.3010
-0.3010 TOWARD </s> -0.3010
-0.3010 TOWN </s> -0.3010
-0.3010 TRACK </s> -0.3010
-0.3010 TRADE </s> -0.3010
-0.3010 TRAIN </s> -0.3010
-0.6021 TRANSLATION END 0.0000
-0.6021 TRANSLATION START 0.0000
-0.3010 TRAVEL </s> -0.3010
-0.3010 TREATMENT </s> -0.3010
-0.3010 TREE </s> -0.3010
-0.3010 TRIANGLE </s> -0.3010
-0.3010 TRIP </s> -0.3010
-0.3010 TROUBLE </s> -0.3010
-0.3010 TRUCK </s> -0.3010
-0.3010 TRUE . 0.0000
-0.3010 TRY </s> -0.3010
-0.3010 TUBE </s> -0.3010
-0.3010 TURN </s> -0.3010
-0.3010 TWENTY </s> -0.3010
-0.3010 TWO </s> -0.3010
-0.3010 TYPE </s> -0.3010
-0.3010 UNDER </s> -0.3010
-0.3010 UNIT </s> -0.3010
-0.3010 UNTIL </s> -0.3010
-0.3010 UP </s> -0.3010
-0.3010 US </s> -0.3010
-0.3010 USE </s> -0.3010
-0.3010 USUAL </s> -0.3010
-0.3010 VALLEY </s> -0.3010
-0.3010 VALUE </s> -0.3010
-0.3010 VARY </s> -0.3010
-0.3010 VERB </s> -0.3010
-0.3010 VERY </s> -0.3010
-0.3010 VIEW </s> -0.3010
-0.3010 VILLAGE </s> -0.3010
-0.3010 VISIT </s> -0.3010
-0.3010 VOICE </s> -0.3010
-0.3010 VOWEL </s> -0.3010
-0.3010 WAIT </s> -0.3010
-0.3010 WALK </s> -0.3010
-0.3010 WALL </s> -0.3010
-0.3010 WANT </s> -0.3010
-0.3010 WAR </s> -0.3010
-0.3010 WARM </s> -0.3010
-0.3010 WAS </s> -0.3010
-0.3010 WASH </s> -0.3010
-0.3010 WATCH </s> -0.3010
-0.3010 WATER </s> -0.3010
-0.3010 WAVE </s> -0.3010
-0.3010 WAY </s> -0.3010
-0.3010 WE </s> -0.3010
-0.3010 WEAR </s> -0.3010
-0.3010 WEATHER </s> -0.3010
-0.3010 WEEK </s> -0.3010
-0.3010 WEIGHT </s> -0.3010
-0.3010 WELL </s> -0.3010
-0.3010 WENT </s> -0.3010
-0.3010 WERE </s> -0.3010
-0.3010 WEST </s> -0.3010
-0.3010 WHAT </s> -0.3010
-0.3010 WHEEL </s> -0.3010
-0.3010 WHEN </s> -0.3010
-0.3010 WHERE </s> -0.3010
-0.3010 WHETHER </s> -0.3010
-0.3010 WHICH </s> -0.3010
-0.3010 WHILE </s> -0.3010
-0.3010 WHITE </s> -0.3010
-0.3010 WHO </s> -0.3010
-0.3010 WHOLE </s> -0.3010
-0.3010 WHOSE </s> -0.3010
-0.3010 WHY </s> -0.3010
-0.3010 WIDE </s> -0.3010
-0.3010 WIFE </s> -0.3010
-0.3010 WILD </s> -0.3010
-0.3010 WILL </s> -0.3010
-0.3010 WIN </s> -0.3010
-0.3010 WIND </s> -0.3010
-0.3010 WINDOW </s> -0.3010
-0.3010 WING </s> -0.3010
-0.3010 WINTER </s> -0.3010
-0.3010 WIRE </s> -0.3010
-0.3010 WISDOM TOOTH -0.1761
-0.3010 WISH </s> -0.3010
-0.3010 WITH </s> -0.3010
-0.3010 WOMAN </s> -0.3010
-0.3010 WOMEN </s> -0.3010
-0.3010 WON'T </s> -0.3010
-0.3010 WONDER </s> -0.3010
-0.3010 WOOD </s> -0.3010
-0.3010 WORD </s> -0.3010
-0.3010 WORK </s> -0.3010
-0.3010 WORLD </s> -0.3010
-0.3010 WOULD </s> -0.3010
-0.3010 WRITE </s> -0.3010
-0.3010 WRITTEN </s> -0.3010
-0.3010 WRONG </s> -0.3010
-0.3010 WROTE </s> -0.3010
-0.3010 YARD </s> -0.3010
-0.3010 YEAR </s> -0.3010
-0.3010 YELLOW </s> -0.3010
-0.3010 YES </s> -0.3010
-0.3010 YET </s> -0.3010
-0.3010 YOU </s> -0.3010
-0.3010 YOUNG </s> -0.3010
-0.3010 YOUR </s> -0.3010

\3-grams:
-0.3010 <s> A </s>
-0.3010 <s> ABLE </s>
-0.3010 <s> ABOUT </s>
-0.3010 <s> ABOVE </s>
-0.3010 <s> ABSCESS </s>
-0.3010 <s> ACT </s>
-0.3010 <s> ADD </s>
-0.3010 <s> AFRAID </s>
-0.3010 <s> AFTER </s>
-0.3010 <s> AGAIN </s>
-0.3010 <s> AGAINST </s>
-0.3010 <s> AGE </s>
-0.3010 <s> AGO </s>
-0.3010 <s> AGREE </s>
-0.3010 <s> AIR </s>
-0.3010 <s> ALL </s>
-0.3010 <s> ALLOW </s>
-0.3010 <s> ALSO </s>
-0.3010 <s> ALWAYS </s>
-0.3010 <s> AM </s>
-0.3010 <s> AMONG </s>
-0.3010 <s> AN </s>
-0.3010 <s> AND </s>
-0.3010 <s> ANGER </s>
-0.3010 <s> ANIMAL </s>
-0.3010 <s> ANSWER </s>
-0.3010 <s> ANY </s>
-0.3010 <s> APPEAR </s>
-0.3010 <s> APPLE </s>
-0.3010 <s> ARE </s>
-0.3010 <s> AREA </s>
-0.3010 <s> ARM </s>
-0.3010 <s> ARRANGE </s>
-0.3010 <s> ARRIVE </s>
-0.3010 <s> ART </s>
-0.3010 <s> AS </s>
-0.3010 <s> ASK </s>
-0.3010 <s> AT </s>
-0.3010 <s> ATOM </s>
-0.3010 <s> BABY </s>
-0.3010 <s> BACK </s>
-0.3010 <s> BACTERIA </s>
-0.3010 <s> BAD </s>
-0.3010 <s> BALL </s>
-0.3010 <s> BAND </s>
-0.3010 <s> BANK </s>
-0.3010 <s> BAR </s>
-0.3010 <s> BASE </s>
-0.3010 <s> BASIC </s>
-0.3010 <s> BAT </s>
-0.3010 <s> BE </s>
-0.3010 <s> BEAR </s>
-0.3010 <s> BEAT </s>
-0.3010 <s> BEAUTY </s>
-0.3010 <s> BED </s>
-0.3010 <s> BEEN </s>
-0.3010 <s> BEFORE </s>
-0.3010 <s> BEGAN </s>
-0.3010 <s> BEGIN </s>
-0.3010 <s> BEHIND </s>
-0.3010 <s> BELIEVE </s>
-0.3010 <s> BELL </s>
-0.3010 <s> BEST </s>
-0.3010 <s> BETTER </s>
-0.3010 <s> BETWEEN </s>
-0.3010 <s> BIG </s>
-0.3010 <s> BIRD </s>
-0.3010 <s> BIT </s>
-0.3010 <s> BITING SURFACE
-0.3010 <s> BLACK </s>
-0.3010 <s> BLOCK </s>
-0.3010 <s> BLOOD </s>
-0.3010 <s> BLOW </s>
-0.3010 <s> BLUE </s>
-0.3010 <s> BOARD </s>
-0.3010 <s> BOAT </s>
-0.3010 <s> BODY </s>
-0.3010 <s> BONE </s>
-0.3010 <s> BOOK </s>
-0.3010 <s> BORN </s>
-0.3010 <s> BOTH </s>
-0.3010 <s> BOTTOM </s>
-0.3010 <s> BOUGHT </s>
-0.3010 <s> BOX </s>
-0.3010 <s> BOY </s>
-0.3010 <s> BRANCH </s>
-0.3010 <s> BREAD </s>
-0.3010 <s> BREAK </s>
-0.3010 <s> BRIDGE </s>
-0.3010 <s> BRIGHT </s>
-0.3010 <s> BRING </s>
-0.3010 <s> BROAD </s>
-0.3010 <s> BROKE </s>
-0.3010 <s> BROTHER </s>
-0.3010 <s> BROUGHT </s>
-0.3010 <s> BROWN </s>
-0.3010 <s> BUILD </s>
-0.3010 <s> BURN </s>
-0.3010 <s> BUSY </s>
-0.3010 <s> BUT </s>
-0.3010 <s> BUY </s>
-0.3010 <s> BY </s>
-0.3010 <s> CALCULUS </s>
-0.3010 <s> CALL </s>
-0.3010 <s> CAME </s>
-0.3010 <s> CAMP </s>
-0.3010 <s> CAN </s>
-0.3010 <s> CAPITAL </s>
-0.3010 <s> CAPTAIN </s>
-0.3010 <s> CAR </s>
-0.3010 <s> CARD </s>
-0.3010 <s> CARE </s>
-0.3010 <s> CARRY </s>
-0.3010 <s> CASE </s>
-0.3010 <s> CAT </s>
-0.3010 <s> CATCH </s>
-0.3010 <s> CAUGHT </s>
-0.3010 <s> CAUSE </s>
-0.3010 <s> CELL </s>
-0.3010 <s> CENT </s>
-0.3010 <s> CENTER </s>
-0.3010 <s> CENTURY </s>
-0.3010 <s> CERTAIN </s>
-0.3010 <s> CHAIR </s>
-0.3010 <s> CHANCE </s>
-0.3010 <s> CHANGE </s>
-0.3010 <s> CHARACTER </s>
-0.3010 <s> CHARGE </s>
-0.3010 <s> CHART </s>
-0.3010 <s> CHECK </s>
-0.3010 <s> CHICK </s>
-0.3010 <s> CHIEF </s>
-0.3010 <s> CHILD </s>
-0.3010 <s> CHILDREN </s>
-0.3010 <s> CHOOSE </s>
-0.3010 <s> CHORD </s>
-0.3010 <s> CIRCLE </s>
-0.3010 <s> CITY </s>
-0.3010 <s> CLAIM </s>
-0.3010 <s> CLASS </s>
-0.3010 <s> CLEAN </s>
-0.3010 <s> CLEAR </s>
-0.3010 <s> CLIMB </s>
-0.3010 <s> CLOCK </s>
-0.3010 <s> CLOSE </s>
-0.3010 <s> CLOTHE </s>
-0.3010 <s> CLOUD </s>
-0.3010 <s> COAST </s>
-0.3010 <s> COAT </s>
-0.3010 <s> COLD </s>
-0.3010 <s> COLLECT </s>
-0.3010 <s> COLONY </s>
-0.3010 <s> COLOR </s>
-0.3010 <s> COLUMN </s>
-0.3010 <s> COME </s>
-0.3010 <s> COMMON </s>
-0.3010 <s> COMPANY </s>
-0.3010 <s> COMPARE </s>
-0.3010 <s> COMPLETE </s>
-0.3010 <s> CONDITION </s>
-0.3010 <s> CONNECT </s>
-0.3010 <s> CONSIDER </s>
-0.3010 <s> CONSONANT </s>
-0.3010 <s> CONTAIN </s>
-0.3010 <s> CONTINENT </s>
-0.3010 <s> CONTINUE </s>
-0.3010 <s> CONTROL </s>
-0.3010 <s> COOK </s>
-0.3010 <s> COOL </s>
-0.3010 <s> COPY </s>
-0.3010 <s> CORN </s>
-0.3010 <s> CORNER </s>
-0.3010 <s> CORRECT </s>
-0.3010 <s> COST </s>
-0.3010 <s> COTTON </s>
-0.3010 <s> COULD </s>
-0.3010 <s> COUNT </s>
-0.3010 <s> COUNTRY </s>
-0.3010 <s> COURSE </s>
-0.3010 <s> COVER </s>
-0.3010 <s> COW </s>
-0.3010 <s> CREASE </s>
-0.3010 <s> CREATE </s>
-0.3010 <s> CROP </s>
-0.3010 <s> CROSS </s>
-0.3010 <s> CROWD </s>
-0.3010 <s> CROWN </s>
-0.3010 <s> CRY </s>
-0.3010 <s> CURRENT </s>
-0.3010 <s> CUT </s>
-0.3010 <s> DAD </s>
-0.3010 <s> DANCE </s>
-0.3010 <s> DANGER </s>
-0.3010 <s> DARK </s>
-0.3010 <s> DAY </s>
-0.3010 <s> DEAD </s>
-0.3010 <s> DEAL </s>
-0.3010 <s> DEAR </s>
-0.3010 <s> DEATH </s>
-0.3010 <s> DECIDE </s>
-0.3010 <s> DECIMAL </s>
-0.3010 <s> DEEP </s>
-0.3010 <s> DEGREE </s>
-0.9031 <s> DENTAL CALCULUS
-0.9031 <s> DENTAL FLOSS
-0.9031 <s> DENTAL IMPLANTS
-0.9031 <s> DENTAL PLAQUE
-0.3010 <s> DENTINE </s>
-0.3010 <s> DEPEND </s>
-0.3010 <s> DESCRIBE </s>
-0.3010 <s> DESERT </s>
-0.3010 <s> DESIGN </s>
-0.3010 <s> DETERMINE </s>
-0.3010 <s> DEVELOP </s>
-0.3010 <s> DICTIONARY </s>
-0.3010 <s> DID </s>
-0.3010 <s> DIE </s>
-0.3010 <s> DIFFER </s>
-0.3010 <s> DIFFICULT </s>
-0.3010 <s> DIRECT </s>
-0.3010 <s> DISCUSS </s>
-0.3010 <s> DISTANT </s>
-0.3010 <s> DIVIDE </s>
-0.3010 <s> DIVISION </s>
-0.3010 <s> DO </s>
-0.3010 <s> DOCTOR </s>
-0.3010 <s> DOES </s>
-0.3010 <s> DOG </s>
-0.3010 <s> DOLLAR </s>
-0.3010 <s> DON'T </s>
-0.3010 <s> DONE </s>
-0.3010 <s> DOOR </s>
-0.3010 <s> DOUBLE </s>
-0.3010 <s> DOWN </s>
-0.3010 <s> DRAW </s>
-0.3010 <s> DREAM </s>
-0.3010 <s> DRESS </s>
-0.3010 <s> DRINK </s>
-0.3010 <s> DRIVE </s>
-0.3010 <s> DROP </s>
-0.3010 <s> DRY </s>
-0.3010 <s> DUCK </s>
-0.3010 <s> DURING </s>
-0.3010 <s> EACH </s>
-0.3010 <s> EAR </s>
-0.3010 <s> EARLY </s>
-0.3010 <s> EARTH </s>
-0.3010 <s> EASE </s>
-0.3010 <s> EAST </s>
-0.3010 <s> EAT </s>
-0.3010 <s> EDGE </s>
-0.3010 <s> EFFECT </s>
-0.3010 <s> EGG </s>
-0.3010 <s> EIGHT </s>
-0.3010 <s> EITHER </s>
-0.3010 <s> ELECTRIC </s>
-0.3010 <s> ELEMENT </s>
-0.3010 <s> ELSE </s>
-0.3010 <s> ENAMEL </s>
-0.3010 <s> END </s>
-0.3010 <s> ENEMY </s>
-0.3010 <s> ENERGY </s>
-0.3010 <s> ENGINE </s>
-0.3010 <s> ENOUGH </s>
-0.3010 <s> ENTER </s>
-0.3010 <s> EQUAL </s>
-0.3010 <s> EQUATE </s>
-0.3010 <s> ESPECIALLY </s>
-0.3010 <s> EVEN </s>
-0.3010 <s> EVENING </s>
-0.3010 <s> EVENT </s>
-0.3010 <s> EVER </s>
-0.3010 <s> EVERY </s>
-0.3010 <s> EXACT </s>
-0.3010 <s> EXAMPLE </s>
-0.3010 <s> EXCEPT </s>
-0.3010 <s> EXCITE </s>
-0.3010 <s> EXERCISE </s>
-0.3010 <s> EXPECT </s>
-0.3010 <s> EXPERIENCE </s>
-0.3010 <s> EXPERIMENT </s>
-0.3010 <s> EYE </s>
-0.3010 <s> FACE </s>
-0.3010 <s> FACT </s>
-0.3010 <s> FAIR </s>
-0.3010 <s> FALL </s>
-0.3010 <s> FAMILY </s>
-0.3010 <s> FAMOUS </s>
-0.3010 <s> FAR </s>
-0.3010 <s> FARM </s>
-0.3010 <s> FAST </s>
-0.3010 <s> FAT </s>
-0.3010 <s> FATHER </s>
-0.3010 <s> FAVOR </s>
-0.3010 <s> FEAR </s>
-0.3010 <s> FEED </s>
-0.3010 <s> FEEL </s>
-0.3010 <s> FEET </s>
-0.3010 <s> FELL </s>
-0.3010 <s> FELT </s>
-0.3010 <s> FEW </s>
-0.3010 <s> FIELD </s>
-0.3010 <s> FIG </s>
-0.3010 <s> FIGHT </s>
-0.3010 <s> FIGURE </s>
-0.3010 <s> FILL </s>
-0.3010 <s> FILLING </s>
-0.3010 <s> FINAL </s>
-0.3010 <s> FIND </s>
-0.3010 <s> FINE </s>
-0.3010 <s> FINGER </s>
-0.3010 <s> FINISH </s>
-0.3010 <s> FIRE </s>
-0.3010 <s> FIRST </s>
-0.3010 <s> FISH </s>
-0.3010 <s> FIT </s>
-0.3010 <s> FIVE </s>
-0.3010 <s> FLAT </s>
-0.3010 <s> FLOOR </s>
-0.3010 <s> FLOW </s>
-0.3010 <s> FLOWER </s>
-0.3010 <s> FLUORIDE </s>
-0.3010 <s> FLY </s>
-0.3010 <s> FOLLOW </s>
-0.3010 <s> FOOD </s>
-0.3010 <s> FOOT </s>
-0.3010 <s> FOR </s>
-0.3010 <s> FORCE </s>
-0.3010 <s> FOREST </s>
-0.3010 <s> FORM </s>
-0.3010 <s> FORWARD </s>
-0.3010 <s> FOUND </s>
-0.3010 <s> FOUR </s>
-0.3010 <s> FRACTION </s>
-0.3010 <s> FREE </s>
-0.3010 <s> FRESH </s>
-0.3010 <s> FRIEND </s>
-0.3010 <s> FROM </s>
-0.3010 <s> FRONT </s>
-0.3010 <s> FRUIT </s>
-0.3010 <s> FULL </s>
-0.3010 <s> FUN </s>
-0.3010 <s> GAME </s>
-0.3010 <s> GARDEN </s>
-0.3010 <s> GAS </s>
-0.3010 <s> GATHER </s>
-0.3010 <s> GAVE </s>
-0.3010 <s> GENERAL </s>
-0.3010 <s> GENTLE </s>
-0.3010 <s> GET </s>
-0.3010 <s> GIRL </s>
-0.3010 <s> GIVE </s>
-0.3010 <s> GLAD </s>
-0.3010 <s> GLASS </s>
-0.3010 <s> GO </s>
-0.3010 <s> GOLD </s>
-0.3010 <s> GONE </s>
-0.3010 <s> GOOD </s>
-0.3010 <s> GOT </s>
-0.3010 <s> GOVERN </s>
-0.3010 <s> GRAND </s>
-0.3010 <s> GRASS </s>
-0.3010 <s> GRAY </s>
-0.3010 <s> GREAT </s>
-0.3010 <s> GREEN </s>
-0.3010 <s> GREW </s>
-0.3010 <s> GROUND </s>
-0.3010 <s> GROUP </s>
-0.3010 <s> GROW </s>
-0.3010 <s> GUESS </s>
-0.3010 <s> GUIDE </s>
-0.3010 <s> GUM DISEASE
-0.3010 <s> GUN </s>
-0.3010 <s> HAD </s>
-0.3010 <s> HAIR </s>
-0.3010 <s> HALF </s>
-0.3010 <s> HALITOSIS </s>
-0.3010 <s> HAND </s>
-0.3010 <s> HAPPEN </s>
-0.3010 <s> HAPPY </s>
-0.3010 <s> HARD </s>
-0.3010 <s> HAS </s>
-0.3010 <s> HAT </s>
-0.3010 <s> HAVE </s>
-0.3010 <s> HE </s>
-0.3010 <s> HEAD </s>
-0.3010 <s> HEAR </s>
-0.3010 <s> HEARD </s>
-0.3010 <s> HEART </s>
-0.3010 <s> HEAT </s>
-0.3010 <s> HEAVY </s>
-0.3010 <s> HELD </s>
-0.3010 <s> HELP </s>
-0.3010 <s> HER </s>
-0.3010 <s> HERE </s>
-0.3010 <s> HIGH </s>
-0.3010 <s> HILL </s>
-0.3010 <s> HIM </s>
-0.3010 <s> HIS </s>
-0.3010 <s> HISTORY </s>
-0.3010 <s> HIT </s>
-0.3010 <s> HOLD </s>
-0.3010 <s> HOLE </s>
-0.3010 <s> HOME </s>
-0.3010 <s> HOPE </s>
-0.3010 <s> HORSE </s>
-0.3010 <s> HOT </s>
-0.3010 <s> HOUR </s>
-0.3010 <s> HOUSE </s>
-0.3010 <s> HOW </s>
-0.3010 <s> HUGE </s>
-0.3010 <s> HUMAN </s>
-0.3010 <s> HUNDRED </s>
-0.3010 <s> HUNT </s>
-0.3010 <s> HURRY </s>
-0.3010 <s> I </s>
-0.3010 <s> ICE </s>
-0.3010 <s> IDEA </s>
-0.3010 <s> IF </s>
-0.3010 <s> IMAGINE </s>
-0.3010 <s> IMPRESSION </s>
-0.3010 <s> IN </s>
-0.3010 <s> INCH </s>
-0.3010 <s> INCLUDE </s>
-0.3010 <s> INDICATE </s>
-0.3010 <s> INDUSTRY </s>
-0.3010 <s> INFLAMMATION </s>
-0.3010 <s> INNER SURFACE
-0.3010 <s> INSECT </s>
-0.3010 <s> INSTANT </s>
-0.3010 <s> INSTRUMENT </s>
-0.3010 <s> INTEREST </s>
-0.3010 <s> INVENT </s>
-0.3010 <s> IRON </s>
-0.3010 <s> IS </s>
-0.3010 <s> ISLAND </s>
-0.3010 <s> IT </s>
-0.3010 <s> JOB </s>
-0.3010 <s> JOIN </s>
-0.3010 <s> JOY </s>
-0.3010 <s> JUMP </s>
-0.3010 <s> JUST </s>
-0.3010 <s> KEEP </s>
-0.3010 <s> KEPT </s>
-0.3010 <s> KEY </s>
-0.3010 <s> KILL </s>
-0.3010 <s> KIND </s>
-0.3010 <s> KING </s>
-0.3010 <s> KNEW </s>
-0.3010 <s> KNOW </s>
-0.3010 <s> LADY </s>
-0.3010 <s> LAKE </s>
-0.3010 <s> LAND </s>
-0.3010 <s> LANGUAGE </s>
-0.3010 <s> LARGE </s>
-0.3010 <s> LAST </s>
-0.3010 <s> LATE </s>
-0.3010 <s> LAUGH </s>
-0.3010 <s> LAW </s>
-0.3010 <s> LAY </s>
-0.3010 <s> LEAD </s>
-0.3010 <s> LEARN </s>
-0.3010 <s> LEAST </s>
-0.3010 <s> LEAVE </s>
-0.3010 <s> LED </s>
-0.3010 <s> LEFT </s>
-0.3010 <s> LEG </s>
-0.3010 <s> LENGTH </s>
-0.3010 <s> LESS </s>
-0.3010 <s> LET </s>
-0.3010 <s> LETTER </s>
-0.3010 <s> LEVEL </s>
-0.3010 <s> LIE </s>
-0.3010 <s> LIFE </s>
-0.3010 <s> LIFT </s>
-0.3010 <s> LIGHT </s>
-0.3010 <s> LIKE </s>
-0.3010 <s> LINE </s>
-0.3010 <s> LIQUID </s>
-0.3010 <s> LIST </s>
-0.3010 <s> LISTEN </s>
-0.3010 <s> LITTLE </s>
-0.3010 <s> LIVE </s>
-0.3010 <s> LOCAL ANAESTHESIA
-0.3010 <s> LOCATE </s>
-0.3010 <s> LOG </s>
-0.3010 <s> LONE </s>
-0.3010 <s> LONG </s>
-0.3010 <s> LOOK </s>
-0.3010 <s> LOST </s>
-0.3010 <s> LOT </s>
-0.3010 <s> LOUD </s>
-0.3010 <s> LOVE </s>
-0.3010 <s> LOW </s>
-0.3010 <s> MACHINE </s>
-0.3010 <s> MADE </s>
-0.3010 <s> MAGNET </s>
-0.3010 <s> MAIN </s>
-0.3010 <s> MAJOR </s>
-0.3010 <s> MAKE </s>
-0.3010 <s> MAN </s>
-0.3010 <s> MANY </s>
-0.3010 <s> MAP </s>
-0.3010 <s> MARK </s>
-0.3010 <s> MARKET </s>
-0.3010 <s> MASS </s>
-0.3010 <s> MASTER </s>
-0.3010 <s> MATCH </s>
-0.3010 <s> MATERIAL </s>
-0.3010 <s> MATTER </s>
-0.3010 <s> MAY </s>
-0.3010 <s> ME </s>
-0.3010 <s> MEAN </s>
-0.3010 <s> MEANT </s>
-0.3010 <s> MEASURE </s>
-0.3010 <s> MEAT </s>
-0.3010 <s> MEET </s>
-0.3010 <s> MELODY </s>
-0.3010 <s> MEN </s>
-0.3010 <s> METAL </s>
-0.3010 <s> METHOD </s>
-0.3010 <s> MIDDLE </s>
-0.3010 <s> MIGHT </s>
-0.3010 <s> MILE </s>
-0.3010 <s> MILK </s>
-0.3010 <s> MILLION </s>
-0.3010 <s> MIND </s>
-0.3010 <s> MINE </s>
-0.3010 <s> MINUTE </s>
-0.3010 <s> MISS </s>
-0.3010 <s> MIX </s>
-0.3010 <s> MODERN </s>
-0.3010 <s> MOLECULE </s>
-0.3010 <s> MOMENT </s>
-0.3010 <s> MONEY </s>
-0.3010 <s> MONTH </s>
-0.3010 <s> MOON </s>
-0.3010 <s> MORE </s>
-0.3010 <s> MORNING </s>
-0.3010 <s> MOST </s>
-0.3010 <s> MOTHER </s>
-0.3010 <s> MOTION </s>
-0.3010 <s> MOUNT </s>
-0.3010 <s> MOUNTAIN </s>
-0.6021 <s> MOUTH </s>
-0.6021 <s> MOUTH RINSE
-0.3010 <s> MOVE </s>
-0.3010 <s> MUCH </s>
-0.3010 <s> MULTIPLY </s>
-0.3010 <s> MUSIC </s>
-0.3010 <s> MUST </s>
-0.3010 <s> MY </s>
-0.3010 <s> NAME </s>
-0.3010 <s> NATION </s>
-0.3010 <s> NATURAL </s>
-0.3010 <s> NATURE </s>
-0.3010 <s> NEAR </s>
-0.3010 <s> NECESSARY </s>
-0.3010 <s> NECK </s>
-0.3010 <s> NEED </s>
-0.3010 <s> NEIGHBOR </s>
-0.3010 <s> NEVER </s>
-0.3010 <s> NEW </s>
-0.3010 <s> NEXT </s>
-0.3010 <s> NIGHT </s>
-0.3010 <s> NINE </s>
-0.3010 <s> NO </s>
-0.3010 <s> NOISE </s>
-0.3010 <s> NOON </s>
-0.3010 <s> NOR </s>
-0.3010 <s> NORTH </s>
-0.3010 <s> NOSE </s>
-0.3010 <s> NOTE </s>
-0.3010 <s> NOTHING </s>
-0.3010 <s> NOTICE </s>
-0.3010 <s> NOUN </s>
-0.3010 <s> NOW </s>
-0.3010 <s> NUMBER </s>
-0.3010 <s> NUMERAL </s>
-0.3010 <s> OBJECT </s>
-0.3010 <s> OBSERVE </s>
-0.3010 <s> OCCUR </s>
-0.3010 <s> OCEAN </s>
-0.3010 <s> OF </s>
-0.3010 <s> OFF </s>
-0.3010 <s> OFFER </s>
-0.3010 <s> OFFICE </s>
-0.3010 <s> OFTEN </s>
-0.3010 <s> OH </s>
-0.3010 <s> OIL </s>
-0.3010 <s> OLD </s>
-0.3010 <s> ON </s>
-0.3010 <s> ONCE </s>
-0.3010 <s> ONE </s>
-0.3010 <s> ONLY </s>
-0.3010 <s> OPEN </s>
-0.3010 <s> OPERATE </s>
-0.3010 <s> OPPOSITE </s>
-0.3010 <s> OR </s>
-0.3010 <s> ORDER </s>
-0.3010 <s> ORGAN </s>
-0.3010 <s> ORIGINAL </s>
-0.3010 <s> OTHER </s>
-0.3010 <s> OUR </s>
-0.3010 <s> OUT </s>
-0.3010 <s> OUTER SURFACE
-0.3010 <s> OVER </s>
-0.3010 <s> OWN </s>
-0.3010 <s> OXYGEN </s>
-0.3010 <s> PAGE </s>
-0.3010 <s> PAINT </s>
-0.3010 <s> PAIR </s>
-0.3010 <s> PAPER </s>
-0.3010 <s> PARAGRAPH </s>
-0.3010 <s> PARENT </s>
-0.3010 <s> PART </s>
-0.3010 <s> PARTICULAR </s>
-0.3010 <s> PARTY </s>
-0.3010 <s> PASS </s>
-0.3010 <s> PAST </s>
-0.3010 <s> PATH </s>
-0.3010 <s> PATTERN </s>
-0.3010 <s> PAY </s>
-0.3010 <s> PEOPLE </s>
-0.3010 <s> PERHAPS </s>
-0.3010 <s> PERIOD </s>
-0.3010 <s> PERSON </s>
-0.3010 <s> PHRASE </s>
-0.3010 <s> PICK </s>
-0.3010 <s> PICTURE </s>
-0.3010 <s> PIECE </s>
-0.3010 <s> PITCH </s>
-0.3010 <s> PLACE </s>
-0.3010 <s> PLAIN </s>
-0.3010 <s> PLAN </s>
-0.3010 <s> PLANE </s>
-0.3010 <s> PLANET </s>
-0.3010 <s> PLANT </s>
-0.3010 <s> PLAY </s>
-0.3010 <s> PLEASE </s>
-0.3010 <s> PLURAL </s>
-0.3010 <s> POEM </s>
-0.3010 <s> POINT </s>
-0.3010 <s> POOR </s>
-0.3010 <s> POPULATE </s>
-0.3010 <s> PORT </s>
-0.3010 <s> POSE </s>
-0.3010 <s> POSITION </s>
-0.3010 <s> POSSIBLE </s>
-0.3010 <s> POST </s>
-0.3010 <s> POUND </s>
-0.3010 <s> POWER </s>
-0.3010 <s> PRACTICE </s>
-0.3010 <s> PREPARE </s>
-0.3010 <s> PRESENT </s>
-0.3010 <s> PRESS </s>
-0.3010 <s> PRETTY </s>
-0.3010 <s> PRINT </s>
-0.3010 <s> PROBABLE </s>
-0.3010 <s> PROBLEM </s>
-0.3010 <s> PROCESS </s>
-0.3010 <s> PRODUCE </s>
-0.3010 <s> PRODUCT </s>
-0.3010 <s> PROPER </s>
-0.3010 <s> PROPERTY </s>
-0.3010 <s> PROTECT </s>
-0.3010 <s> PROTRUDE MANDIBLE
-0.3010 <s> PROVE </s>
-0.3010 <s> PROVIDE </s>
-0.3010 <s> PULL </s>
-0.3010 <s> PULP </s>
-0.3010 <s> PUSH </s>
-0.3010 <s> PUT </s>
-0.3010 <s> QUART </s>
-0.3010 <s> QUESTION </s>
-0.3010 <s> QUICK </s>
-0.3010 <s> QUIET </s>
-0.3010 <s> QUITE </s>
-0.3010 <s> QUOTIENT </s>
-0.3010 <s> RACE </s>
-0.3010 <s> RADIO </s>
-0.3010 <s> RAIL </s>
-0.3010 <s> RAIN </s>
-0.3010 <s> RAISE </s>
-0.3010 <s> RAN </s>
-0.3010 <s> RANGE </s>
-0.3010 <s> RATHER </s>
-0.3010 <s> REACH </s>
-0.3010 <s> READ </s>
-0.3010 <s> READY </s>
-0.3010 <s> REAL </s>
-0.3010 <s> REASON </s>
-0.3010 <s> RECEIVE </s>
-0.3010 <s> RECORD </s>
-0.3010 <s> RED </s>
-0.3010 <s> REGION </s>
-0.3010 <s> REGULAR CHECK-UP
-0.3010 <s> REMEMBER </s>
-0.3010 <s> REPEAT </s>
-0.3010 <s> REPLY </s>
-0.3010 <s> REPRESENT </s>
-0.3010 <s> REQUIRE </s>
-0.3010 <s> REST </s>
-0.3010 <s> RESULT </s>
-0.3010 <s> RICH </s>
-0.3010 <s> RIDE </s>
-0.3010 <s> RIGHT </s>
-0.3010 <s> RING </s>
-0.3010 <s> RISE </s>
-0.3010 <s> RIVER </s>
-0.3010 <s> ROAD </s>
-0.3010 <s> ROCK </s>
-0.3010 <s> ROLL </s>
-0.3010 <s> ROOM </s>
-0.7782 <s> ROOT </s>
-0.4771 <s> ROOT CANAL
-0.3010 <s> ROPE </s>
-0.3010 <s> ROSE </s>
-0.3010 <s> ROUND </s>
-0.3010 <s> ROW </s>
-0.3010 <s> RUB </s>
-0.3010 <s> RULE </s>
-0.3010 <s> RUN </s>
-0.3010 <s> SAFE </s>
-0.3010 <s> SAID </s>
-0.3010 <s> SAIL </s>
-0.3010 <s> SALT </s>
-0.3010 <s> SAME </s>
-0.3010 <s> SAND </s>
-0.3010 <s> SAT </s>
-0.3010 <s> SAVE </s>
-0.3010 <s> SAW </s>
-0.3010 <s> SAY </s>
-0.3010 <s> SCALE </s>
-0.3010 <s> SCALING </s>
-0.3010 <s> SCHOOL </s>
-0.3010 <s> SCIENCE </s>
-0.3010 <s> SCORE </s>
-0.3010 <s> SEA </s>
-0.3010 <s> SEARCH </s>
-0.3010 <s> SEASON </s>
-0.3010 <s> SEAT </s>
-0.3010 <s> SECOND </s>
-0.3010 <s> SECTION </s>
-0.3010 <s> SEE </s>
-0.3010 <s> SEED </s>
-0.3010 <s> SEEM </s>
-0.3010 <s> SEGMENT </s>
-0.3010 <s> SELECT </s>
-0.3010 <s> SELF </s>
-0.3010 <s> SELL </s>
-0.3010 <s> SEND </s>
-0.3010 <s> SENSE </s>
-0.3010 <s> SENSITIVE TEETH
-0.3010 <s> SENT </s>
-0.3010 <s> SENTENCE </s>
-0.3010 <s> SEPARATE </s>
-0.3010 <s> SERVE </s>
-0.3010 <s> SET </s>
-0.3010 <s> SETTLE </s>
-0.3010 <s> SEVEN </s>
-0.3010 <s> SEVERAL </s>
-0.3010 <s> SHALL </s>
-0.3010 <s> SHAPE </s>
-0.3010 <s> SHARE </s>
-0.3010 <s> SHARP </s>
-0.3010 <s> SHE </s>
-0.3010 <s> SHEET </s>
-0.3010 <s> SHELL </s>
-0.3010 <s> SHINE </s>
-0.3010 <s> SHIP </s>
-0.3010 <s> SHOE </s>
-0.3010 <s> SHOP </s>
-0.3010 <s> SHORE </s>
-0.3010 <s> SHORT </s>
-0.3010 <s> SHOULD </s>
-0.3010 <s> SHOULDER </s>
-0.3010 <s> SHOUT </s>
-0.3010 <s> SHOW </s>
-0.3010 <s> SIDE </s>
-0.3010 <s> SIGHT </s>
-0.3010 <s> SIGN </s>
-0.3010 <s> SILENT </s>
-0.3010 <s> SILVER </s>
-0.3010 <s> SIMILAR </s>
-0.3010 <s> SIMPLE </s>
-0.3010 <s> SINCE </s>
-0.3010 <s> SING </s>
-0.3010 <s> SINGLE </s>
-0.3010 <s> SISTER </s>
-0.3010 <s> SIT </s>
-0.3010 <s> SIX </s>
-0.3010 <s> SIZE </s>
-0.3010 <s> SKILL </s>
-0.3010 <s> SKIN </s>
-0.3010 <s> SKY </s>
-0.3010 <s> SLAVE </s>
-0.3010 <s> SLEEP </s>
-0.3010 <s> SLIP </s>
-0.3010 <s> SLOW </s>
-0.3010 <s> SMALL </s>
-0.3010 <s> SMELL </s>
-0.3010 <s> SMILE </s>
-0.3010 <s> SNOW </s>
-0.3010 <s> SO </s>
-0.3010 <s> SOFT </s>
-0.3010 <s> SOIL </s>
-0.3010 <s> SOLDIER </s>
-0.3010 <s> SOLUTION </s>
-0.3010 <s> SOLVE </s>
-0.3010 <s> SOME </s>
-0.3010 <s> SON </s>
-0.3010 <s> SONG </s>
-0.3010 <s> SOON </s>
-0.3010 <s> SOUND </s>
-0.3010 <s> SOUTH </s>
-0.3010 <s> SPACE </s>
-0.3010 <s> SPEAK </s>
-0.3010 <s> SPECIAL </s>
-0.3010 <s> SPEECH </s>
-0.3010 <s> SPEED </s>
-0.3010 <s> SPELL </s>
-0.3010 <s> SPEND </s>
-0.3010 <s> SPOKE </s>
-0.3010 <s> SPOT </s>
-0.3010 <s> SPREAD </s>
-0.3010 <s> SPRING </s>
-0.3010 <s> SQUARE </s>
-0.3010 <s> STAND </s>
-0.3010 <s> STAR </s>
-0.3010 <s> START </s>
-0.3010 <s> STATE </s>
-0.3010 <s> STATION </s>
-0.3010 <s> STAY </s>
-0.3010 <s> STEAD </s>
-0.3010 <s> STEAM </s>
-0.3010 <s> STEEL </s>
-0.3010 <s> STEP </s>
-0.3010 <s> STICK </s>
-0.3010 <s> STILL </s>
-0.3010 <s> STONE </s>
-0.3010 <s> STOOD </s>
-0.3010 <s> STOP </s>
-0.3010 <s> STORE </s>
-0.3010 <s> STORY </s>
-0.3010 <s> STRAIGHT </s>
-0.3010 <s> STRANGE </s>
-0.3010 <s> STREAM </s>
-0.3010 <s> STREET </s>
-0.3010 <s> STRETCH </s>
-0.3010 <s> STRING </s>
-0.3010 <s> STRONG </s>
-0.3010 <s> STUDENT </s>
-0.3010 <s> STUDY </s>
-0.3010 <s> SUBJECT </s>
-0.3010 <s> SUBSTANCE </s>
-0.3010 <s> SUBTRACT </s>
-0.3010 <s> SUCCESS </s>
-0.3010 <s> SUCH </s>
-0.3010 <s> SUDDEN </s>
-0.3010 <s> SUFFIX </s>
-0.3010 <s> SUGAR </s>
-0.3010 <s> SUGGEST </s>
-0.3010 <s> SUIT </s>
-0.3010 <s> SUMMER </s>
-0.3010 <s> SUN </s>
-0.3010 <s> SUPPLY </s>
-0.3010 <s> SUPPORT </s>
-0.3010 <s> SURE </s>
-0.3010 <s> SURFACE </s>
-0.3010 <s> SURPRISE </s>
-0.3010 <s> SWIM </s>
-0.3010 <s> SYLLABLE </s>
-0.3010 <s> SYMBOL </s>
-0.3010 <s> SYSTEM </s>
-0.3010 <s> TABLE </s>
-0.3010 <s> TAIL </s>
-0.3010 <s> TAKE </s>
-0.3010 <s> TALK </s>
-0.3010 <s> TALL </s>
-0.3010 <s> TEACH </s>
-0.3010 <s> TEAM </s>
-0.3010 <s> TEETH </s>
-0.3010 <s> TELL </s>
-0.3010 <s> TEMPERATURE </s>
-0.3010 <s> TEN </s>
-0.3010 <s> TERM </s>
-0.3010 <s> TEST </s>
-0.3010 <s> THAN </s>
-0.3010 <s> THANK </s>
-0.3010 <s> THAT </s>
-0.3010 <s> THE </s>
-0.3010 <s> THEIR </s>
-0.3010 <s> THEM </s>
-0.3010 <s> THEN </s>
-0.3010 <s> THERE </s>
-0.3010 <s> THESE </s>
-0.3010 <s> THEY </s>
-0.3010 <s> THICK </s>
-0.3010 <s> THIN </s>
-0.3010 <s> THING </s>
-0.3010 <s> THINK </s>
-0.3010 <s> THIRD </s>
-0.3010 <s> THIS </s>
-0.3010 <s> THOSE </s>
-0.3010 <s> THOUGH </s>
-0.3010 <s> THOUGHT </s>
-0.3010 <s> THOUSAND </s>
-0.3010 <s> THREE </s>
-0.3010 <s> THROUGH </s>
-0.3010 <s> THROW </s>
-0.3010 <s> THUS </s>
-0.3010 <s> TIE </s>
-0.3010 <s> TIME </s>
-0.3010 <s> TINY </s>
-0.3010 <s> TIRE </s>
-0.3010 <s> TO </s>
-0.3010 <s> TOGETHER </s>
-0.3010 <s> TOLD </s>
-0.3010 <s> TONE </s>
-0.3010 <s> TOO </s>
-0.3010 <s> TOOK </s>
-0.3010 <s> TOOL </s>
-0.3010 <s> TOOTH DECAY
-0.3010 <s> TOP </s>
-0.3010 <s> TOTAL </s>
-0.3010 <s> TOUCH </s>
-0.3010 <s> TOWARD </s>
-0.3010 <s> TOWN </s>
-0.3010 <s> TRACK </s>
-0.3010 <s> TRADE </s>
-0.3010 <s> TRAIN </s>
-0.6021 <s> TRANSLATION END
-0.6021 <s> TRANSLATION START
-0.3010 <s> TRAVEL </s>
-0.3010 <s> TREE </s>
-0.3010 <s> TRIANGLE </s>
-0.3010 <s> TRIP </s>
-0.3010 <s> TROUBLE </s>
-0.3010 <s> TRUCK </s>
-0.3010 <s> TRUE .
-0.3010 <s> TRY </s>
-0.3010 <s> TUBE </s>
-0.3010 <s> TURN </s>
-0.3010 <s> TWENTY </s>
-0.3010 <s> TWO </s>
-0.3010 <s> TYPE </s>
-0.3010 <s> UNDER </s>
-0.3010 <s> UNIT </s>
-0.3010 <s> UNTIL </s>
-0.3010 <s> UP </s>
-0.3010 <s> US </s>
-0.3010 <s> USE </s>
-0.3010 <s> USUAL </s>
-0.3010 <s> VALLEY </s>
-0.3010 <s> VALUE </s>
-0.3010 <s> VARY </s>
-0.3010 <s> VERB </s>
-0.3010 <s> VERY </s>
-0.3010 <s> VIEW </s>
-0.3010 <s> VILLAGE </s>
-0.3010 <s> VISIT </s>
-0.3010 <s> VOICE </s>
-0.3010 <s> VOWEL </s>
-0.3010 <s> WAIT </s>
-0.3010 <s> WALK </s>
-0.3010 <s> WALL </s>
-0.3010 <s> WANT </s>
-0.3010 <s> WAR </s>
-0.3010 <s> WARM </s>
-0.3010 <s> WAS </s>
-0.3010 <s> WASH </s>
-0.3010 <s> WATCH </s>
-0.3010 <s> WATER </s>
-0.3010 <s> WAVE </s>
-0.3010 <s> WAY </s>
-0.3010 <s> WE </s>
-0.3010 <s> WEAR </s>
-0.3010 <s> WEATHER </s>
-0.3010 <s> WEEK </s>
-0.3010 <s> WEIGHT </s>
-0.3010 <s> WELL </s>
-0.3010 <s> WENT </s>
-0.3010 <s> WERE </s>
-0.3010 <s> WEST </s>
-0.3010 <s> WHAT </s>
-0.3010 <s> WHEEL </s>
-0.3010 <s> WHEN </s>
-0.3010 <s> WHERE </s>
-0.3010 <s> WHETHER </s>
-0.3010 <s> WHICH </s>
-0.3010 <s> WHILE </s>
-0.3010 <s> WHITE </s>
-0.3010 <s> WHO </s>
-0.3010 <s> WHOLE </s>
-0.3010 <s> WHOSE </s>
-0.3010 <s> WHY </s>
-0.3010 <s> WIDE </s>
-0.3010 <s> WIFE </s>
