Language model created by QuickLM on Wed Oct 14 10:25:37 EDT 2015
Copyright (c) 1996-2010 Carnegie Mellon University and Alexander I. Rudnicky

The model is in standard ARPA format, designed by Doug Paul while he was at MITRE.

The code that was used to produce this language model is available in Open Source.
Please visit http://www.speech.cs.cmu.edu/tools/ for more information

The (fixed) discount mass is 0.5. The backoffs are computed using the ratio method.
This model based on a corpus of 33 sentences and 39 words

\data\
ngram 1=39
ngram 2=69
ngram 3=42

\1-grams:
-0.8199 </s> -0.3010
-0.8199 <s> -0.2297
-2.3385 下巴 -0.2297
-2.3385 伸出 -0.2990
-2.3385 内层 -0.2297
-2.3385 印模 -0.2297
-2.3385 发炎 -0.2297
-2.3385 口臭 -0.2297
-2.3385 咀嚼 -0.2990
-2.3385 外层 -0.2297
-2.3385 定期 -0.2990
-2.3385 开始 -0.2297
-2.3385 敏感 -0.2297
-2.3385 智慧牙 -0.2297
-2.0374 根管 -0.2274
-2.3385 检查 -0.2297
-2.3385 氟化物 -0.2297
-2.3385 治疗 -0.2297
-2.3385 洗牙齿 -0.2297
-2.3385 漱口水 -0.2297
-2.3385 牙周病 -0.2297
-2.3385 牙垢 -0.2297
-2.3385 牙套 -0.2297
-2.3385 牙本质 -0.2297
-2.3385 牙桥 -0.2297
-2.0374 牙石 -0.2297
-2.3385 牙线 -0.2297
-2.3385 牙髓 -0.2297
-1.7364 牙齿 -0.2930
-2.3385 珐琅质 -0.2297
-2.3385 种牙 -0.2297
-2.3385 细菌 -0.2297
-2.3385 结束 -0.2297
-2.0374 翻译 -0.2970
-2.3385 脓肿 -0.2297
-2.3385 蛀牙 -0.2297
-2.3385 补牙 -0.2297
-2.3385 表面 -0.2297
-2.3385 麻醉 -0.2297

\2-grams:
-1.8195 <s> 伸出 0.0000
-1.8195 <s> 印模 0.0000
-1.8195 <s> 发炎 0.0000
-1.8195 <s> 口臭 0.0000
-1.8195 <s> 定期 0.0000
-1.8195 <s> 智慧牙 0.0000
-1.5185 <s> 根管 0.0000
-1.8195 <s> 氟化物 0.0000
-1.8195 <s> 洗牙齿 0.0000
-1.8195 <s> 漱口水 0.0000
-1.8195 <s> 牙周病 0.0000
-1.8195 <s> 牙垢 0.0000
-1.8195 <s> 牙套 0.0000
-1.8195 <s> 牙本质 0.0000
-1.8195 <s> 牙桥 0.0000
-1.5185 <s> 牙石 0.0000
-1.8195 <s> 牙线 0.0000
-1.8195 <s> 牙髓 0.0000
-1.2175 <s> 牙齿 0.0000
-1.8195 <s> 珐琅质 0.0000
-1.8195 <s> 种牙 0.0000
-1.8195 <s> 细菌 0.0000
-1.5185 <s> 翻译 0.0000
-1.8195 <s> 脓肿 0.0000
-1.8195 <s> 蛀牙 0.0000
-1.8195 <s> 补牙 0.0000
-1.8195 <s> 麻醉 0.0000
-0.3010 下巴 </s> -0.3010
-0.3010 伸出 下巴 0.0000
-0.3010 内层 </s> -0.3010
-0.3010 印模 </s> -0.3010
-0.3010 发炎 </s> -0.3010
-0.3010 口臭 </s> -0.3010
-0.3010 咀嚼 表面 0.0000
-0.3010 外层 </s> -0.3010
-0.3010 定期 检查 0.0000
-0.3010 开始 </s> -0.3010
-0.3010 敏感 </s> -0.3010
-0.3010 智慧牙 </s> -0.3010
-0.6021 根管 </s> -0.3010
-0.6021 根管 治疗 0.0000
-0.3010 检查 </s> -0.3010
-0.3010 氟化物 </s> -0.3010
-0.3010 治疗 </s> -0.3010
-0.3010 洗牙齿 </s> -0.3010
-0.3010 漱口水 </s> -0.3010
-0.3010 牙周病 </s> -0.3010
-0.3010 牙垢 </s> -0.3010
-0.3010 牙套 </s> -0.3010
-0.3010 牙本质 </s> -0.3010
-0.3010 牙桥 </s> -0.3010
-0.3010 牙石 </s> -0.3010
-0.3010 牙线 </s> -0.3010
-0.3010 牙髓 </s> -0.3010
-0.9031 牙齿 内层 0.0000
-0.9031 牙齿 咀嚼 0.0000
-0.9031 牙齿 外层 0.0000
-0.9031 牙齿 敏感 0.0000
-0.3010 珐琅质 </s> -0.3010
-0.3010 种牙 </s> -0.3010
-0.3010 细菌 </s> -0.3010
-0.3010 结束 </s> -0.3010
-0.6021 翻译 开始 0.0000
-0.6021 翻译 结束 0.0000
-0.3010 脓肿 </s> -0.3010
-0.3010 蛀牙 </s> -0.3010
-0.3010 补牙 </s> -0.3010
-0.3010 表面 </s> -0.3010
-0.3010 麻醉 </s> -0.3010

\3-grams:
-0.3010 <s> 伸出 下巴
-0.3010 <s> 印模 </s>
-0.3010 <s> 发炎 </s>
-0.3010 <s> 口臭 </s>
-0.3010 <s> 定期 检查
-0.3010 <s> 智慧牙 </s>
-0.6021 <s> 根管 </s>
-0.6021 <s> 根管 治疗
-0.3010 <s> 氟化物 </s>
-0.3010 <s> 洗牙齿 </s>
-0.3010 <s> 漱口水 </s>
-0.3010 <s> 牙周病 </s>
-0.3010 <s> 牙垢 </s>
-0.3010 <s> 牙套 </s>
-0.3010 <s> 牙本质 </s>
-0.3010 <s> 牙桥 </s>
-0.3010 <s> 牙石 </s>
-0.3010 <s> 牙线 </s>
-0.3010 <s> 牙髓 </s>
-0.9031 <s> 牙齿 内层
-0.9031 <s> 牙齿 咀嚼
-0.9031 <s> 牙齿 外层
-0.9031 <s> 牙齿 敏感
-0.3010 <s> 珐琅质 </s>
-0.3010 <s> 种牙 </s>
-0.3010 <s> 细菌 </s>
-0.6021 <s> 翻译 开始
-0.6021 <s> 翻译 结束
-0.3010 <s> 脓肿 </s>
-0.3010 <s> 蛀牙 </s>
-0.3010 <s> 补牙 </s>
-0.3010 <s> 麻醉 </s>
-0.3010 伸出 下巴 </s>
-0.3010 咀嚼 表面 </s>
-0.3010 定期 检查 </s>
-0.3010 根管 治疗 </s>
-0.3010 牙齿 内层 </s>
-0.3010 牙齿 咀嚼 表面
-0.3010 牙齿 外层 </s>
-0.3010 牙齿 敏感 </s>
-0.3010 翻译 开始 </s>
-0.3010 翻译 结束 </s>

\end\
