Language model created by QuickLM on Wed Oct 14 10:24:38 EDT 2015
Copyright (c) 1996-2010 Carnegie Mellon University and Alexander I. Rudnicky

The model is in standard ARPA format, designed by Doug Paul while he was at MITRE.

The code that was used to produce this language model is available in Open Source.
Please visit http://www.speech.cs.cmu.edu/tools/ for more information

The (fixed) discount mass is 0.5. The backoffs are computed using the ratio method.
This model based on a corpus of 33 sentences and 44 words

\data\
ngram 1=44
ngram 2=76
ngram 3=51

\1-grams:
-0.8544 </s> -0.3010
-0.8544 <s> -0.2313
-2.3729 ABSCESS -0.2356
-2.3729 ANAESTHESIA -0.2356
-2.3729 BACTERIA -0.2356
-2.3729 BITING -0.2955
-2.3729 BRIDGE -0.2356
-2.0719 CALCULUS -0.2356
-2.0719 CANAL -0.2335
-2.3729 CHECK-UP -0.2356
-2.3729 CROWN -0.2356
-2.3729 DECAY -0.2356
-1.7709 DENTAL -0.2917
-2.3729 DENTINE -0.2356
-2.3729 DISEASE -0.2356
-2.3729 ENAMEL -0.2356
-2.3729 END -0.2356
-2.3729 FILLING -0.2356
-2.3729 FLOSS -0.2356
-2.3729 FLUORIDE -0.2356
-2.3729 GUM -0.2992
-2.3729 HALITOSIS -0.2356
-2.3729 IMPLANTS -0.2356
-2.3729 IMPRESSION -0.2356
-2.3729 INFLAMMATION -0.2356
-2.3729 INNER -0.2955
-2.3729 LOCAL -0.2992
-2.3729 MANDIBLE -0.2356
-2.3729 MOUTHRINSE -0.2356
-2.3729 OUTER -0.2955
-2.3729 PLAQUE -0.2356
-2.3729 PROTRUDE -0.2992
-2.3729 PULP -0.2356
-2.3729 REGULAR -0.2992
-2.0719 ROOT -0.2973
-2.3729 SCALING -0.2356
-2.3729 SENSITIVE -0.2992
-2.3729 START -0.2356
-1.8958 SURFACE -0.2356
-2.3729 TEETH -0.2356
-2.0719 TOOTH -0.2335
-2.0719 TRANSLATION -0.2973
-2.3729 TREATMENT -0.2356
-2.3729 WISDOM -0.2973

\2-grams:
-1.8195 <s> ABSCESS 0.0000
-1.8195 <s> BACTERIA 0.0000
-1.8195 <s> BITING 0.0000
-1.8195 <s> BRIDGE 0.0000
-1.8195 <s> CALCULUS 0.0000
-1.8195 <s> CROWN 0.0000
-1.2175 <s> DENTAL 0.0000
-1.8195 <s> DENTINE 0.0000
-1.8195 <s> ENAMEL 0.0000
-1.8195 <s> FILLING 0.0000
-1.8195 <s> FLUORIDE 0.0000
-1.8195 <s> GUM 0.0000
-1.8195 <s> HALITOSIS 0.0000
-1.8195 <s> IMPRESSION 0.0000
-1.8195 <s> INFLAMMATION 0.0000
-1.8195 <s> INNER 0.0000
-1.8195 <s> LOCAL 0.0000
-1.8195 <s> MOUTHRINSE 0.0000
-1.8195 <s> OUTER 0.0000
-1.8195 <s> PROTRUDE 0.0000
-1.8195 <s> PULP 0.0000
-1.8195 <s> REGULAR 0.0000
-1.5185 <s> ROOT 0.0000
-1.8195 <s> SCALING 0.0000
-1.8195 <s> SENSITIVE 0.0000
-1.8195 <s> TOOTH -0.1761
-1.5185 <s> TRANSLATION 0.0000
-1.8195 <s> WISDOM 0.0000
-0.3010 ABSCESS </s> -0.3010
-0.3010 ANAESTHESIA </s> -0.3010
-0.3010 BACTERIA </s> -0.3010
-0.3010 BITING SURFACE 0.0000
-0.3010 BRIDGE </s> -0.3010
-0.3010 CALCULUS </s> -0.3010
-0.6021 CANAL </s> -0.3010
-0.6021 CANAL TREATMENT 0.0000
-0.3010 CHECK-UP </s> -0.3010
-0.3010 CROWN </s> -0.3010
-0.3010 DECAY </s> -0.3010
-0.9031 DENTAL CALCULUS 0.0000
-0.9031 DENTAL FLOSS 0.0000
-0.9031 DENTAL IMPLANTS 0.0000
-0.9031 DENTAL PLAQUE 0.0000
-0.3010 DENTINE </s> -0.3010
-0.3010 DISEASE </s> -0.3010
-0.3010 ENAMEL </s> -0.3010
-0.3010 END </s> -0.3010
-0.3010 FILLING </s> -0.3010
-0.3010 FLOSS </s> -0.3010
-0.3010 FLUORIDE </s> -0.3010
-0.3010 GUM DISEASE 0.0000
-0.3010 HALITOSIS </s> -0.3010
-0.3010 IMPLANTS </s> -0.3010
-0.3010 IMPRESSION </s> -0.3010
-0.3010 INFLAMMATION </s> -0.3010
-0.3010 INNER SURFACE 0.0000
-0.3010 LOCAL ANAESTHESIA 0.0000
-0.3010 MANDIBLE </s> -0.3010
-0.3010 MOUTHRINSE </s> -0.3010
-0.3010 OUTER SURFACE 0.0000
-0.3010 PLAQUE </s> -0.3010
-0.3010 PROTRUDE MANDIBLE 0.0000
-0.3010 PULP </s> -0.3010
-0.3010 REGULAR CHECK-UP 0.0000
-0.3010 ROOT CANAL 0.0000
-0.3010 SCALING </s> -0.3010
-0.3010 SENSITIVE TEETH 0.0000
-0.3010 START </s> -0.3010
-0.3010 SURFACE </s> -0.3010
-0.3010 TEETH </s> -0.3010
-0.6021 TOOTH </s> -0.3010
-0.6021 TOOTH DECAY 0.0000
-0.6021 TRANSLATION END 0.0000
-0.6021 TRANSLATION START 0.0000
-0.3010 TREATMENT </s> -0.3010
-0.3010 WISDOM TOOTH -0.1761

\3-grams:
-0.3010 <s> ABSCESS </s>
-0.3010 <s> BACTERIA </s>
-0.3010 <s> BITING SURFACE
-0.3010 <s> BRIDGE </s>
-0.3010 <s> CALCULUS </s>
-0.3010 <s> CROWN </s>
-0.9031 <s> DENTAL CALCULUS
-0.9031 <s> DENTAL FLOSS
-0.9031 <s> DENTAL IMPLANTS
-0.9031 <s> DENTAL PLAQUE
-0.3010 <s> DENTINE </s>
-0.3010 <s> ENAMEL </s>
-0.3010 <s> FILLING </s>
-0.3010 <s> FLUORIDE </s>
-0.3010 <s> GUM DISEASE
-0.3010 <s> HALITOSIS </s>
-0.3010 <s> IMPRESSION </s>
-0.3010 <s> INFLAMMATION </s>
-0.3010 <s> INNER SURFACE
-0.3010 <s> LOCAL ANAESTHESIA
-0.3010 <s> MOUTHRINSE </s>
-0.3010 <s> OUTER SURFACE
-0.3010 <s> PROTRUDE MANDIBLE
-0.3010 <s> PULP </s>
-0.3010 <s> REGULAR CHECK-UP
-0.3010 <s> ROOT CANAL
-0.3010 <s> SCALING </s>
-0.3010 <s> SENSITIVE TEETH
-0.3010 <s> TOOTH DECAY
-0.6021 <s> TRANSLATION END
-0.6021 <s> TRANSLATION START
-0.3010 <s> WISDOM TOOTH
-0.3010 BITING SURFACE </s>
-0.3010 CANAL TREATMENT </s>
-0.3010 DENTAL CALCULUS </s>
-0.3010 DENTAL FLOSS </s>
-0.3010 DENTAL IMPLANTS </s>
-0.3010 DENTAL PLAQUE </s>
-0.3010 GUM DISEASE </s>
-0.3010 INNER SURFACE </s>
-0.3010 LOCAL ANAESTHESIA </s>
-0.3010 OUTER SURFACE </s>
-0.3010 PROTRUDE MANDIBLE </s>
-0.3010 REGULAR CHECK-UP </s>
-0.6021 ROOT CANAL </s>
-0.6021 ROOT CANAL TREATMENT
-0.3010 SENSITIVE TEETH </s>
-0.3010 TOOTH DECAY </s>
-0.3010 TRANSLATION END </s>
-0.3010 TRANSLATION START </s>
-0.3010 WISDOM TOOTH </s>

\end\
