Language model created by QuickLM on Tue Jan  5 20:25:44 EST 2016
Copyright (c) 1996-2010 Carnegie Mellon University and Alexander I. Rudnicky

The model is in standard ARPA format, designed by Doug Paul while he was at MITRE.

The code that was used to produce this language model is available in Open Source.
Please visit http://www.speech.cs.cmu.edu/tools/ for more information

The (fixed) discount mass is 0.5. The backoffs are computed using the ratio method.
This model based on a corpus of 2 sentences and 293 words

\data\
ngram 1=293
ngram 2=305
ngram 3=304

\1-grams:
-2.4886 </s> -0.3010
-2.4886 <s> -0.2982
-2.7896 A -0.3003
-2.7896 ABOUT -0.3003
-2.7896 ABSCESS -0.3003
-2.7896 ACT -0.3003
-2.7896 ADD -0.3003
-2.7896 AFTER -0.3003
-2.7896 AGAIN -0.3003
-2.7896 AIR -0.3003
-2.7896 ALL -0.3003
-2.7896 ALSO -0.3003
-2.7896 AN -0.3003
-2.7896 ANAESTHESIA -0.3003
-2.7896 AND -0.3003
-2.7896 ANIMAL -0.3003
-2.7896 ANSWER -0.3003
-2.7896 ANY -0.3003
-2.7896 ARE -0.3003
-2.7896 AS -0.3003
-2.7896 ASK -0.3003
-2.7896 AT -0.3003
-2.7896 BACK -0.3003
-2.7896 BACTERIA -0.3003
-2.7896 BE -0.3003
-2.7896 BEEN -0.3003
-2.7896 BEFORE -0.3003
-2.7896 BETWEEN -0.3003
-2.7896 BIG -0.3003
-2.7896 BITING -0.2989
-2.7896 BOY -0.3003
-2.7896 BRIDGE -0.2996
-2.7896 BUILD -0.3003
-2.7896 BUT -0.3003
-2.7896 BY -0.3003
-2.4886 CALCULUS -0.2975
-2.7896 CALL -0.3003
-2.7896 CAME -0.3003
-2.7896 CAN -0.3003
-2.4886 CANAL -0.2989
-2.7896 CAUSE -0.3003
-2.7896 CHANGE -0.3003
-2.7896 CHECK-UP -0.2996
-2.7896 CITY -0.3003
-2.7896 CLOSE -0.3003
-2.7896 COME -0.3003
-2.7896 COULD -0.3003
-2.7896 COUNTRY -0.3003
-2.7896 COVER -0.3003
-2.7896 CROSS -0.3003
-2.7896 CROWN -0.2982
-2.7896 DAY -0.3003
-2.7896 DECAY -0.3003
-2.1875 DENTAL -0.2975
-2.7896 DENTINE -0.3003
-2.7896 DID -0.3003
-2.7896 DIFFER -0.3003
-2.7896 DISEASE -0.3003
-2.7896 DO -0.3003
-2.7896 DOES -0.3003
-2.7896 DON'T -0.3003
-2.7896 DOOR -0.3003
-2.7896 DOWN -0.3003
-2.7896 DRAW -0.3003
-2.7896 EACH -0.3003
-2.7896 EARTH -0.3003
-2.7896 ENAMEL -0.3003
-2.4886 END -0.2996
-2.7896 EVEN -0.3003
-2.7896 EVERY -0.3003
-2.7896 EYE -0.3003
-2.7896 FAR -0.3003
-2.7896 FATHER -0.3003
-2.7896 FEW -0.3003
-2.7896 FILLING -0.3003
-2.7896 FIND -0.3003
-2.7896 FIRST -0.3003
-2.7896 FLOSS -0.2982
-2.7896 FLUORIDE -0.3003
-2.7896 FOLLOW -0.3003
-2.7896 FOOD -0.3003
-2.7896 FOR -0.3003
-2.7896 FORM -0.3003
-2.7896 FOUND -0.3003
-2.7896 FOUR -0.3003
-2.7896 FROM -0.3003
-2.7896 GET -0.3003
-2.7896 GIVE -0.3003
-2.7896 GO -0.3003
-2.7896 GOOD -0.3003
-2.7896 GREAT -0.3003
-2.7896 GROW -0.3003
-2.7896 GUM -0.3003
-2.7896 HAD -0.3003
-2.7896 HALITOSIS -0.3003
-2.7896 HAND -0.3003
-2.7896 HARD -0.2996
-2.7896 HAS -0.3003
-2.7896 HAVE -0.3003
-2.7896 HE -0.3003
-2.7896 HEAD -0.3003
-2.7896 HELP -0.3003
-2.7896 HER -0.3003
-2.7896 HERE -0.3003
-2.7896 HIGH -0.3003
-2.7896 HIM -0.3003
-2.7896 HIS -0.3003
-2.7896 HOME -0.3003
-2.7896 HOT -0.3003
-2.7896 HOUSE -0.3003
-2.7896 HOW -0.3003
-2.7896 I -0.3003
-2.7896 IF -0.3003
-2.7896 IMPLANTS -0.2982
-2.7896 IMPRESSION -0.3003
-2.7896 IN -0.3003
-2.7896 INFLAMMATION -0.3003
-2.7896 INNER -0.2989
-2.7896 IS -0.3003
-2.7896 IT -0.3003
-2.7896 JUST -0.3003
-2.7896 KEEP -0.3003
-2.7896 KIND -0.3003
-2.7896 KNOW -0.3003
-2.7896 LAND -0.3003
-2.7896 LARGE -0.3003
-2.7896 LAST -0.3003
-2.7896 LATE -0.3003
-2.7896 LEARN -0.3003
-2.7896 LEFT -0.3003
-2.7896 LET -0.3003
-2.7896 LIFE -0.3003
-2.7896 LIGHT -0.3003
-2.7896 LIKE -0.3003
-2.7896 LINE -0.3003
-2.7896 LITTLE -0.3003
-2.7896 LIVE -0.3003
-2.7896 LOCAL -0.3003
-2.7896 LONG -0.3003
-2.7896 LOOK -0.3003
-2.7896 LOW -0.3003
-2.7896 MADE -0.3003
-2.7896 MAKE -0.3003
-2.7896 MAN -0.3003
-2.7896 MANDIBLE -0.3003
-2.7896 MANY -0.3003
-2.7896 MAY -0.3003
-2.7896 ME -0.3003
-2.7896 MEAN -0.3003
-2.7896 MEN -0.3003
-2.7896 MIGHT -0.3003
-2.7896 MORE -0.3003
-2.7896 MOST -0.3003
-2.7896 MOTHER -0.3003
-2.7896 MOUTH -0.3003
-2.7896 MOVE -0.3003
-2.7896 MUCH -0.3003
-2.7896 MUST -0.3003
-2.7896 MY -0.3003
-2.7896 NAME -0.3003
-2.7896 NEAR -0.3003
-2.7896 NEED -0.3003
-2.7896 NEVER -0.3003
-2.7896 NEW -0.3003
-2.7896 NIGHT -0.3003
-2.7896 NO -0.3003
-2.7896 NOW -0.3003
-2.7896 NUMBER -0.3003
-2.7896 OF -0.3003
-2.7896 OFF -0.3003
-2.7896 OLD -0.3003
-2.7896 ON -0.3003
-2.7896 ONE -0.3003
-2.7896 ONLY -0.3003
-2.7896 OR -0.3003
-2.7896 OTHER -0.3003
-2.7896 OUR -0.3003
-2.7896 OUT -0.3003
-2.7896 OUTER -0.2989
-2.7896 OVER -0.3003
-2.7896 OWN -0.3003
-2.7896 PAGE -0.3003
-2.7896 PART -0.3003
-2.7896 PEOPLE -0.3003
-2.7896 PICTURE -0.3003
-2.7896 PLACE -0.3003
-2.7896 PLANT -0.3003
-2.7896 PLAQUE -0.3003
-2.7896 PLAY -0.3003
-2.7896 POINT -0.3003
-2.7896 PORT -0.3003
-2.7896 PRESS -0.3003
-2.7896 PROTRUDE -0.3003
-2.7896 PULP -0.3003
-2.7896 PUT -0.3003
-2.7896 READ -0.3003
-2.7896 REAL -0.3003
-2.7896 REGULAR -0.3003
-2.7896 RIGHT -0.3003
-2.7896 RINSE -0.3003
-2.4886 ROOT -0.2996
-2.7896 ROUND -0.3003
-2.7896 RUN -0.3003
-2.7896 SAID -0.3003
-2.7896 SAME -0.3003
-2.7896 SAW -0.3003
-2.7896 SAY -0.3003
-2.7896 SCALING -0.3003
-2.7896 SCHOOL -0.3003
-2.7896 SEA -0.3003
-2.7896 SEE -0.3003
-2.7896 SELF -0.3003
-2.7896 SENSITIVE -0.3003
-2.7896 SENTENCE -0.3003
-2.7896 SET -0.3003
-2.7896 SHE -0.3003
-2.7896 SHOULD -0.3003
-2.7896 SHOW -0.3003
-2.7896 SIDE -0.3003
-2.7896 SINCE -0.3003
-2.7896 SMALL -0.2996
-2.7896 SO -0.3003
-2.7896 SOME -0.3003
-2.7896 SOUND -0.3003
-2.7896 SPELL -0.3003
-2.7896 STAND -0.3003
-2.4886 START -0.2982
-2.7896 STILL -0.3003
-2.7896 STOP -0.2996
-2.7896 STORY -0.3003
-2.7896 STUDY -0.3003
-2.7896 SUCH -0.3003
-2.7896 SUN -0.3003
-2.3125 SURFACE -0.2989
-2.7896 TAKE -0.3003
-2.7896 TEETH -0.2996
-2.7896 TELL -0.3003
-2.7896 THAN -0.3003
-2.7896 THAT -0.3003
-2.7896 THE -0.2996
-2.7896 THEIR -0.3003
-2.7896 THEM -0.3003
-2.7896 THEN -0.3003
-2.7896 THERE -0.3003
-2.7896 THESE -0.3003
-2.7896 THEY -0.3003
-2.7896 THING -0.3003
-2.7896 THINK -0.3003
-2.7896 THIS -0.3003
-2.7896 THOUGHT -0.3003
-2.7896 THREE -0.3003
-2.7896 THROUGH -0.3003
-2.7896 TIME -0.3003
-2.7896 TO -0.3003
-2.7896 TOO -0.3003
-2.4886 TOOTH -0.2982
-2.3125 TRANSLATION -0.2975
-2.7896 TREATMENT -0.3003
-2.7896 TREE -0.3003
-2.7896 TRY -0.3003
-2.7896 TURN -0.3003
-2.7896 TWO -0.3003
-2.7896 UNDER -0.3003
-2.7896 UP -0.3003
-2.7896 US -0.3003
-2.7896 USE -0.3003
-2.7896 VERY -0.3003
-2.7896 WANT -0.3003
-2.7896 WAS -0.3003
-2.7896 WATER -0.3003
-2.7896 WAY -0.3003
-2.7896 WE -0.3003
-2.7896 WELL -0.3003
-2.7896 WENT -0.3003
-2.7896 WERE -0.3003
-2.7896 WHAT -0.3003
-2.7896 WHEN -0.3003
-2.7896 WHERE -0.3003
-2.7896 WHICH -0.3003
-2.7896 WHILE -0.3003
-2.7896 WHO -0.3003
-2.7896 WHY -0.3003
-2.7896 WILL -0.3003
-2.7896 WISDOM -0.2996
-2.7896 WITH -0.3003
-2.7896 WORD -0.3003
-2.7896 WORK -0.3003
-2.7896 WORLD -0.3003
-2.7896 WOULD -0.3003
-2.7896 WRITE -0.3003
-2.7896 YEAR -0.3003
-2.7896 YOU -0.3003
-2.7896 YOUR -0.3003

\2-grams:
-0.6021 <s> ABSCESS 0.0000
-0.6021 <s> TRANSLATION -0.2218
-0.3010 A IN 0.0000
-0.3010 ABOUT MANY 0.0000
-0.3010 ABSCESS BACTERIA 0.0000
-0.3010 ACT WHY 0.0000
-0.3010 ADD EVEN 0.0000
-0.3010 AFTER BACK 0.0000
-0.3010 AGAIN ANIMAL 0.0000
-0.3010 AIR WELL 0.0000
-0.3010 ALL YOUR 0.0000
-0.3010 ALSO PLAY 0.0000
-0.3010 AN EACH 0.0000
-0.3010 ANAESTHESIA MOUTH 0.0000
-0.3010 AND A 0.0000
-0.3010 ANIMAL POINT 0.0000
-0.3010 ANSWER SCHOOL 0.0000
-0.3010 ANY NEW 0.0000
-0.3010 ARE WITH 0.0000
-0.3010 AS I 0.0000
-0.3010 ASK MEN 0.0000
-0.3010 AT ONE 0.0000
-0.3010 BACK LITTLE 0.0000
-0.3010 BACTERIA BITING 0.0000
-0.3010 BE AT 0.0000
-0.3010 BEEN NOW 0.0000
-0.3010 BEFORE TURN 0.0000
-0.3010 BETWEEN CITY 0.0000
-0.3010 BIG HIGH 0.0000
-0.3010 BITING SURFACE -0.2218
-0.3010 BOY OLD 0.0000
-0.3010 BRIDGE CALCULUS -0.1761
-0.3010 BUILD SELF 0.0000
-0.3010 BUT SOME 0.0000
-0.3010 BY HOT 0.0000
-0.6021 CALCULUS CROWN 0.0000
-0.6021 CALCULUS DENTAL -0.2430
-0.3010 CALL FIRST 0.0000
-0.3010 CAME SHOW 0.0000
-0.3010 CAN OUT 0.0000
-0.6021 CANAL ROOT 0.0000
-0.6021 CANAL TREATMENT 0.0000
-0.3010 CAUSE SAME 0.0000
-0.3010 CHANGE WENT 0.0000
-0.3010 CHECK-UP ROOT 0.0000
-0.3010 CITY TREE 0.0000
-0.3010 CLOSE NIGHT 0.0000
-0.3010 COME DID 0.0000
-0.3010 COULD GO 0.0000
-0.3010 COUNTRY FOUND 0.0000
-0.3010 COVER FOOD 0.0000
-0.3010 CROSS SINCE 0.0000
-0.3010 CROWN DENTAL -0.2430
-0.3010 DAY COULD 0.0000
-0.3010 DECAY WISDOM 0.0000
-0.9031 DENTAL CALCULUS -0.1761
-0.9031 DENTAL FLOSS 0.0000
-0.9031 DENTAL IMPLANTS 0.0000
-0.9031 DENTAL PLAQUE 0.0000
-0.3010 DENTINE ENAMEL 0.0000
-0.3010 DID MY 0.0000
-0.3010 DIFFER MOVE 0.0000
-0.3010 DISEASE HALITOSIS 0.0000
-0.3010 DO THEIR 0.0000
-0.3010 DOES TELL 0.0000
-0.3010 DON'T WHILE 0.0000
-0.3010 DOOR BETWEEN 0.0000
-0.3010 DOWN SIDE 0.0000
-0.3010 DRAW LEFT 0.0000
-0.3010 EACH SHE 0.0000
-0.3010 EARTH FATHER 0.0000
-0.3010 ENAMEL FILLING 0.0000
-0.6021 END PUT 0.0000
-0.6021 END THE 0.0000
-0.3010 EVEN LAND 0.0000
-0.3010 EVERY GOOD 0.0000
-0.3010 EYE NEVER 0.0000
-0.3010 FAR SEA 0.0000
-0.3010 FATHER HEAD 0.0000
-0.3010 FEW STOP 0.0000
-0.3010 FILLING FLUORIDE 0.0000
-0.3010 FIND ANY 0.0000
-0.3010 FIRST PEOPLE 0.0000
-0.3010 FLOSS DENTAL -0.2430
-0.3010 FLUORIDE GUM 0.0000
-0.3010 FOLLOW ACT 0.0000
-0.3010 FOOD SUN 0.0000
-0.3010 FOR ON 0.0000
-0.3010 FORM MUCH 0.0000
-0.3010 FOUND ANSWER 0.0000
-0.3010 FOUR THOUGHT 0.0000
-0.3010 FROM OR 0.0000
-0.3010 GET PLACE 0.0000
-0.3010 GIVE OUR 0.0000
-0.3010 GO COME 0.0000
-0.3010 GOOD ME 0.0000
-0.3010 GREAT THINK 0.0000
-0.3010 GROW STUDY 0.0000
-0.3010 GUM DISEASE 0.0000
-0.3010 HAD BY 0.0000
-0.3010 HALITOSIS IMPRESSION 0.0000
-0.3010 HAND PORT 0.0000
-0.3010 HARD START -0.1761
-0.3010 HAS LOOK 0.0000
-0.3010 HAVE THIS 0.0000
-0.3010 HE WAS 0.0000
-0.3010 HEAD STAND 0.0000
-0.3010 HELP LOW 0.0000
-0.3010 HER LONG 0.0000
-0.3010 HERE MUST 0.0000
-0.3010 HIGH SUCH 0.0000
-0.3010 HIM TWO 0.0000
-0.3010 HIS THEY 0.0000
-0.3010 HOME READ 0.0000
-0.3010 HOT BUT 0.0000
-0.3010 HOUSE PICTURE 0.0000
-0.3010 HOW SAID 0.0000
-0.3010 I HIS 0.0000
-0.3010 IF WILL 0.0000
-0.3010 IMPLANTS DENTAL -0.2430
-0.3010 IMPRESSION INFLAMMATION 0.0000
-0.3010 IN IS 0.0000
-0.3010 INFLAMMATION INNER 0.0000
-0.3010 INNER SURFACE -0.2218
-0.3010 IS IT 0.0000
-0.3010 IT YOU 0.0000
-0.3010 JUST FORM 0.0000
-0.3010 KEEP EYE 0.0000
-0.3010 KIND OFF 0.0000
-0.3010 KNOW WATER 0.0000
-0.3010 LAND HERE 0.0000
-0.3010 LARGE SPELL 0.0000
-0.3010 LAST DOOR 0.0000
-0.3010 LATE RUN 0.0000
-0.3010 LEARN PLANT 0.0000
-0.3010 LEFT LATE 0.0000
-0.3010 LET KEEP 0.0000
-0.3010 LIFE FEW 0.0000
-0.3010 LIGHT KIND 0.0000
-0.3010 LIKE SO 0.0000
-0.3010 LINE BEFORE 0.0000
-0.3010 LITTLE ONLY 0.0000
-0.3010 LIVE WHERE 0.0000
-0.3010 LOCAL ANAESTHESIA 0.0000
-0.3010 LONG MAKE 0.0000
-0.3010 LOOK MORE 0.0000
-0.3010 LOW LINE 0.0000
-0.3010 MADE LIVE 0.0000
-0.3010 MAKE THING 0.0000
-0.3010 MAN YEAR 0.0000
-0.3010 MANDIBLE PULP 0.0000
-0.3010 MANY THEN 0.0000
-0.3010 MAY DOWN 0.0000
-0.3010 ME GIVE 0.0000
-0.3010 MEAN DIFFER 0.0000
-0.3010 MEN CHANGE 0.0000
-0.3010 MIGHT STORY 0.0000
-0.3010 MORE DAY 0.0000
-0.3010 MOST NUMBER 0.0000
-0.3010 MOTHER WORLD 0.0000
-0.3010 MOUTH RINSE 0.0000
-0.3010 MOVE RIGHT 0.0000
-0.3010 MUCH GREAT 0.0000
-0.3010 MUST BIG 0.0000
-0.3010 MY SOUND 0.0000
-0.3010 NAME VERY 0.0000
-0.3010 NEAR BUILD 0.0000
-0.3010 NEED HOUSE 0.0000
-0.3010 NEVER LAST 0.0000
-0.3010 NEW WORK 0.0000
-0.3010 NIGHT REAL 0.0000
-0.3010 NO MOST 0.0000
-0.3010 NOW FIND 0.0000
-0.3010 NUMBER WHO 0.0000
-0.3010 OF TO 0.0000
-0.3010 OFF NEED 0.0000
-0.3010 OLD TOO 0.0000
-0.3010 ON ARE 0.0000
-0.3010 ONE HAVE 0.0000
-0.3010 ONLY ROUND 0.0000
-0.3010 OR HAD 0.0000
-0.3010 OTHER WERE 0.0000
-0.3010 OUR UNDER 0.0000
-0.3010 OUT OTHER 0.0000
-0.3010 OUTER SURFACE -0.2218
-0.3010 OVER KNOW 0.0000
-0.3010 OWN PAGE 0.0000
-0.3010 PAGE SHOULD 0.0000
-0.3010 PART TAKE 0.0000
-0.3010 PEOPLE MAY 0.0000
-0.3010 PICTURE TRY 0.0000
-0.3010 PLACE MADE 0.0000
-0.3010 PLANT COVER 0.0000
-0.3010 PLAQUE DENTINE 0.0000
-0.3010 PLAY SMALL 0.0000
-0.3010 POINT MOTHER 0.0000
-0.3010 PORT LARGE 0.0000
-0.3010 PRESS CLOSE 0.0000
-0.3010 PROTRUDE MANDIBLE 0.0000
-0.3010 PULP REGULAR 0.0000
-0.3010 PUT HOME 0.0000
-0.3010 READ HAND 0.0000
-0.3010 REAL LIFE 0.0000
-0.3010 REGULAR CHECK-UP 0.0000
-0.3010 RIGHT BOY 0.0000
-0.3010 RINSE OUTER 0.0000
-0.3010 ROOT CANAL 0.0000
-0.3010 ROUND MAN 0.0000
-0.3010 RUN DON'T 0.0000
-0.3010 SAID AN 0.0000
-0.3010 SAME MEAN 0.0000
-0.3010 SAW FAR 0.0000
-0.3010 SAY HELP 0.0000
-0.3010 SCALING SENSITIVE 0.0000
-0.3010 SCHOOL GROW 0.0000
-0.3010 SEA DRAW 0.0000
-0.3010 SEE HIM 0.0000
-0.3010 SELF EARTH 0.0000
-0.3010 SENSITIVE TEETH 0.0000
-0.3010 SENTENCE SET 0.0000
-0.3010 SET THREE 0.0000
-0.3010 SHE WHICH 0.0000
-0.3010 SHOULD COUNTRY 0.0000
-0.3010 SHOW EVERY 0.0000
-0.3010 SIDE BEEN 0.0000
-0.3010 SINCE HARD 0.0000
-0.3010 SMALL END -0.1761
-0.3010 SO THESE 0.0000
-0.3010 SOME WHAT 0.0000
-0.3010 SOUND NO 0.0000
-0.3010 SPELL ADD 0.0000
-0.3010 STAND OWN 0.0000
-0.6021 START MIGHT 0.0000
-0.6021 START TRANSLATION -0.2218
-0.3010 STILL LEARN 0.0000
-0.3010 STOP </s> -0.3010
-0.3010 STORY SAW 0.0000
-0.3010 STUDY STILL 0.0000
-0.3010 SUCH FOLLOW 0.0000
-0.3010 SUN FOUR 0.0000
-0.7782 SURFACE BRIDGE 0.0000
-0.7782 SURFACE LOCAL 0.0000
-0.7782 SURFACE PROTRUDE 0.0000
-0.3010 TAKE GET 0.0000
-0.3010 TEETH TOOTH -0.1761
-0.3010 TELL SENTENCE 0.0000
-0.3010 THAN CALL 0.0000
-0.3010 THAT HE 0.0000
-0.3010 THE </s> -0.3010
-0.3010 THEIR TIME 0.0000
-0.3010 THEM WOULD 0.0000
-0.3010 THEN THEM 0.0000
-0.3010 THERE WE 0.0000
-0.3010 THESE HER 0.0000
-0.3010 THEY BE 0.0000
-0.3010 THING SEE 0.0000
-0.3010 THINK SAY 0.0000
-0.3010 THIS FROM 0.0000
-0.3010 THOUGHT LET 0.0000
-0.3010 THREE WANT 0.0000
-0.3010 THROUGH JUST 0.0000
-0.3010 TIME IF 0.0000
-0.3010 TO AND 0.0000
-0.3010 TOO DOES 0.0000
-0.6021 TOOTH DECAY 0.0000
-0.6021 TOOTH TRANSLATION -0.2218
-0.7782 TRANSLATION END -0.1761
-0.7782 TRANSLATION OF 0.0000
-0.7782 TRANSLATION START -0.1761
-0.3010 TREATMENT SCALING 0.0000
-0.3010 TREE CROSS 0.0000
-0.3010 TRY US 0.0000
-0.3010 TURN CAUSE 0.0000
-0.3010 TWO HAS 0.0000
-0.3010 UNDER NAME 0.0000
-0.3010 UP USE 0.0000
-0.3010 US AGAIN 0.0000
-0.3010 USE WORD 0.0000
-0.3010 VERY THROUGH 0.0000
-0.3010 WANT AIR 0.0000
-0.3010 WAS FOR 0.0000
-0.3010 WATER THAN 0.0000
-0.3010 WAY ABOUT 0.0000
-0.3010 WE CAN 0.0000
-0.3010 WELL ALSO 0.0000
-0.3010 WENT LIGHT 0.0000
-0.3010 WERE ALL 0.0000
-0.3010 WHAT THERE 0.0000
-0.3010 WHEN UP 0.0000
-0.3010 WHERE AFTER 0.0000
-0.3010 WHICH DO 0.0000
-0.3010 WHILE PRESS 0.0000
-0.3010 WHO OVER 0.0000
-0.3010 WHY ASK 0.0000
-0.3010 WILL WAY 0.0000
-0.3010 WISDOM TOOTH -0.1761
-0.3010 WITH AS 0.0000
-0.3010 WORD HOW 0.0000
-0.3010 WORK PART 0.0000
-0.3010 WORLD NEAR 0.0000
-0.3010 WOULD WRITE 0.0000
-0.3010 WRITE LIKE 0.0000
-0.3010 YEAR CAME 0.0000
-0.3010 YOU THAT 0.0000
-0.3010 YOUR WHEN 0.0000

\3-grams:
-0.3010 <s> ABSCESS BACTERIA
-0.3010 <s> TRANSLATION OF
-0.3010 A IN IS
-0.3010 ABOUT MANY THEN
-0.3010 ABSCESS BACTERIA BITING
-0.3010 ACT WHY ASK
-0.3010 ADD EVEN LAND
-0.3010 AFTER BACK LITTLE
-0.3010 AGAIN ANIMAL POINT
-0.3010 AIR WELL ALSO
-0.3010 ALL YOUR WHEN
-0.3010 ALSO PLAY SMALL
-0.3010 AN EACH SHE
-0.3010 ANAESTHESIA MOUTH RINSE
-0.3010 AND A IN
-0.3010 ANIMAL POINT MOTHER
-0.3010 ANSWER SCHOOL GROW
-0.3010 ANY NEW WORK
-0.3010 ARE WITH AS
-0.3010 AS I HIS
-0.3010 ASK MEN CHANGE
-0.3010 AT ONE HAVE
-0.3010 BACK LITTLE ONLY
-0.3010 BACTERIA BITING SURFACE
-0.3010 BE AT ONE
-0.3010 BEEN NOW FIND
-0.3010 BEFORE TURN CAUSE
-0.3010 BETWEEN CITY TREE
-0.3010 BIG HIGH SUCH
-0.3010 BITING SURFACE BRIDGE
-0.3010 BOY OLD TOO
-0.3010 BRIDGE CALCULUS CROWN
-0.3010 BUILD SELF EARTH
-0.3010 BUT SOME WHAT
-0.3010 BY HOT BUT
-0.3010 CALCULUS CROWN DENTAL
-0.3010 CALCULUS DENTAL FLOSS
-0.3010 CALL FIRST PEOPLE
-0.3010 CAME SHOW EVERY
-0.3010 CAN OUT OTHER
-0.3010 CANAL ROOT CANAL
-0.3010 CANAL TREATMENT SCALING
-0.3010 CAUSE SAME MEAN
-0.3010 CHANGE WENT LIGHT
-0.3010 CHECK-UP ROOT CANAL
-0.3010 CITY TREE CROSS
-0.3010 CLOSE NIGHT REAL
-0.3010 COME DID MY
-0.3010 COULD GO COME
-0.3010 COUNTRY FOUND ANSWER
-0.3010 COVER FOOD SUN
-0.3010 CROSS SINCE HARD
-0.3010 CROWN DENTAL CALCULUS
-0.3010 DAY COULD GO
-0.3010 DECAY WISDOM TOOTH
-0.3010 DENTAL CALCULUS DENTAL
-0.3010 DENTAL FLOSS DENTAL
-0.3010 DENTAL IMPLANTS DENTAL
-0.3010 DENTAL PLAQUE DENTINE
-0.3010 DENTINE ENAMEL FILLING
-0.3010 DID MY SOUND
-0.3010 DIFFER MOVE RIGHT
-0.3010 DISEASE HALITOSIS IMPRESSION
-0.3010 DO THEIR TIME
-0.3010 DOES TELL SENTENCE
-0.3010 DON'T WHILE PRESS
-0.3010 DOOR BETWEEN CITY
-0.3010 DOWN SIDE BEEN
-0.3010 DRAW LEFT LATE
-0.3010 EACH SHE WHICH
-0.3010 EARTH FATHER HEAD
-0.3010 ENAMEL FILLING FLUORIDE
-0.3010 END PUT HOME
-0.3010 END THE </s>
-0.3010 EVEN LAND HERE
-0.3010 EVERY GOOD ME
-0.3010 EYE NEVER LAST
-0.3010 FAR SEA DRAW
-0.3010 FATHER HEAD STAND
-0.3010 FEW STOP </s>
-0.3010 FILLING FLUORIDE GUM
-0.3010 FIND ANY NEW
-0.3010 FIRST PEOPLE MAY
-0.3010 FLOSS DENTAL IMPLANTS
-0.3010 FLUORIDE GUM DISEASE
-0.3010 FOLLOW ACT WHY
-0.3010 FOOD SUN FOUR
-0.3010 FOR ON ARE
-0.3010 FORM MUCH GREAT
-0.3010 FOUND ANSWER SCHOOL
-0.3010 FOUR THOUGHT LET
-0.3010 FROM OR HAD
-0.3010 GET PLACE MADE
-0.3010 GIVE OUR UNDER
-0.3010 GO COME DID
-0.3010 GOOD ME GIVE
-0.3010 GREAT THINK SAY
-0.3010 GROW STUDY STILL
-0.3010 GUM DISEASE HALITOSIS
-0.3010 HAD BY HOT
-0.3010 HALITOSIS IMPRESSION INFLAMMATION
-0.3010 HAND PORT LARGE
-0.3010 HARD START MIGHT
-0.3010 HAS LOOK MORE
-0.3010 HAVE THIS FROM
-0.3010 HE WAS FOR
-0.3010 HEAD STAND OWN
-0.3010 HELP LOW LINE
-0.3010 HER LONG MAKE
-0.3010 HERE MUST BIG
-0.3010 HIGH SUCH FOLLOW
-0.3010 HIM TWO HAS
-0.3010 HIS THEY BE
-0.3010 HOME READ HAND
-0.3010 HOT BUT SOME
-0.3010 HOUSE PICTURE TRY
-0.3010 HOW SAID AN
-0.3010 I HIS THEY
-0.3010 IF WILL WAY
-0.3010 IMPLANTS DENTAL PLAQUE
-0.3010 IMPRESSION INFLAMMATION INNER
-0.3010 IN IS IT
-0.3010 INFLAMMATION INNER SURFACE
-0.3010 INNER SURFACE LOCAL
-0.3010 IS IT YOU
-0.3010 IT YOU THAT
-0.3010 JUST FORM MUCH
-0.3010 KEEP EYE NEVER
-0.3010 KIND OFF NEED
-0.3010 KNOW WATER THAN
-0.3010 LAND HERE MUST
-0.3010 LARGE SPELL ADD
-0.3010 LAST DOOR BETWEEN
-0.3010 LATE RUN DON'T
-0.3010 LEARN PLANT COVER
-0.3010 LEFT LATE RUN
-0.3010 LET KEEP EYE
-0.3010 LIFE FEW STOP
-0.3010 LIGHT KIND OFF
-0.3010 LIKE SO THESE
-0.3010 LINE BEFORE TURN
-0.3010 LITTLE ONLY ROUND
-0.3010 LIVE WHERE AFTER
-0.3010 LOCAL ANAESTHESIA MOUTH
-0.3010 LONG MAKE THING
-0.3010 LOOK MORE DAY
-0.3010 LOW LINE BEFORE
-0.3010 MADE LIVE WHERE
-0.3010 MAKE THING SEE
-0.3010 MAN YEAR CAME
-0.3010 MANDIBLE PULP REGULAR
-0.3010 MANY THEN THEM
-0.3010 MAY DOWN SIDE
-0.3010 ME GIVE OUR
-0.3010 MEAN DIFFER MOVE
-0.3010 MEN CHANGE WENT
-0.3010 MIGHT STORY SAW
-0.3010 MORE DAY COULD
-0.3010 MOST NUMBER WHO
-0.3010 MOTHER WORLD NEAR
-0.3010 MOUTH RINSE OUTER
-0.3010 MOVE RIGHT BOY
-0.3010 MUCH GREAT THINK
-0.3010 MUST BIG HIGH
-0.3010 MY SOUND NO
-0.3010 NAME VERY THROUGH
-0.3010 NEAR BUILD SELF
-0.3010 NEED HOUSE PICTURE
-0.3010 NEVER LAST DOOR
-0.3010 NEW WORK PART
-0.3010 NIGHT REAL LIFE
-0.3010 NO MOST NUMBER
-0.3010 NOW FIND ANY
-0.3010 NUMBER WHO OVER
-0.3010 OF TO AND
-0.3010 OFF NEED HOUSE
-0.3010 OLD TOO DOES
-0.3010 ON ARE WITH
-0.3010 ONE HAVE THIS
-0.3010 ONLY ROUND MAN
-0.3010 OR HAD BY
-0.3010 OTHER WERE ALL
-0.3010 OUR UNDER NAME
-0.3010 OUT OTHER WERE
-0.3010 OUTER SURFACE PROTRUDE
-0.3010 OVER KNOW WATER
-0.3010 OWN PAGE SHOULD
-0.3010 PAGE SHOULD COUNTRY
-0.3010 PART TAKE GET
-0.3010 PEOPLE MAY DOWN
-0.3010 PICTURE TRY US
-0.3010 PLACE MADE LIVE
-0.3010 PLANT COVER FOOD
-0.3010 PLAQUE DENTINE ENAMEL
-0.3010 PLAY SMALL END
-0.3010 POINT MOTHER WORLD
-0.3010 PORT LARGE SPELL
-0.3010 PRESS CLOSE NIGHT
-0.3010 PROTRUDE MANDIBLE PULP
-0.3010 PULP REGULAR CHECK-UP
-0.3010 PUT HOME READ
-0.3010 READ HAND PORT
-0.3010 REAL LIFE FEW
-0.3010 REGULAR CHECK-UP ROOT
-0.3010 RIGHT BOY OLD
-0.3010 RINSE OUTER SURFACE
-0.6021 ROOT CANAL ROOT
-0.6021 ROOT CANAL TREATMENT
-0.3010 ROUND MAN YEAR
-0.3010 RUN DON'T WHILE
-0.3010 SAID AN EACH
-0.3010 SAME MEAN DIFFER
-0.3010 SAW FAR SEA
-0.3010 SAY HELP LOW
-0.3010 SCALING SENSITIVE TEETH
-0.3010 SCHOOL GROW STUDY
-0.3010 SEA DRAW LEFT
-0.3010 SEE HIM TWO
-0.3010 SELF EARTH FATHER
-0.3010 SENSITIVE TEETH TOOTH
-0.3010 SENTENCE SET THREE
-0.3010 SET THREE WANT
-0.3010 SHE WHICH DO
-0.3010 SHOULD COUNTRY FOUND
-0.3010 SHOW EVERY GOOD
-0.3010 SIDE BEEN NOW
-0.3010 SINCE HARD START
-0.3010 SMALL END PUT
-0.3010 SO THESE HER
-0.3010 SOME WHAT THERE
-0.3010 SOUND NO MOST
-0.3010 SPELL ADD EVEN
-0.3010 STAND OWN PAGE
-0.3010 START MIGHT STORY
-0.3010 START TRANSLATION END
-0.3010 STILL LEARN PLANT
-0.3010 STORY SAW FAR
-0.3010 STUDY STILL LEARN
-0.3010 SUCH FOLLOW ACT
-0.3010 SUN FOUR THOUGHT
-0.3010 SURFACE BRIDGE CALCULUS
-0.3010 SURFACE LOCAL ANAESTHESIA
-0.3010 SURFACE PROTRUDE MANDIBLE
-0.3010 TAKE GET PLACE
-0.3010 TEETH TOOTH DECAY
-0.3010 TELL SENTENCE SET
-0.3010 THAN CALL FIRST
-0.3010 THAT HE WAS
-0.3010 THEIR TIME IF
-0.3010 THEM WOULD WRITE
-0.3010 THEN THEM WOULD
-0.3010 THERE WE CAN
-0.3010 THESE HER LONG
-0.3010 THEY BE AT
-0.3010 THING SEE HIM
-0.3010 THINK SAY HELP
-0.3010 THIS FROM OR
-0.3010 THOUGHT LET KEEP
-0.3010 THREE WANT AIR
-0.3010 THROUGH JUST FORM
-0.3010 TIME IF WILL
-0.3010 TO AND A
-0.3010 TOO DOES TELL
-0.3010 TOOTH DECAY WISDOM
-0.3010 TOOTH TRANSLATION START
-0.3010 TRANSLATION END THE
-0.3010 TRANSLATION OF TO
-0.3010 TRANSLATION START TRANSLATION
-0.3010 TREATMENT SCALING SENSITIVE
-0.3010 TREE CROSS SINCE
-0.3010 TRY US AGAIN
-0.3010 TURN CAUSE SAME
-0.3010 TWO HAS LOOK
-0.3010 UNDER NAME VERY
-0.3010 UP USE WORD
-0.3010 US AGAIN ANIMAL
-0.3010 USE WORD HOW
-0.3010 VERY THROUGH JUST
-0.3010 WANT AIR WELL
-0.3010 WAS FOR ON
-0.3010 WATER THAN CALL
-0.3010 WAY ABOUT MANY
-0.3010 WE CAN OUT
-0.3010 WELL ALSO PLAY
-0.3010 WENT LIGHT KIND
-0.3010 WERE ALL YOUR
-0.3010 WHAT THERE WE
-0.3010 WHEN UP USE
-0.3010 WHERE AFTER BACK
-0.3010 WHICH DO THEIR
-0.3010 WHILE PRESS CLOSE
-0.3010 WHO OVER KNOW
-0.3010 WHY ASK MEN
-0.3010 WILL WAY ABOUT
-0.3010 WISDOM TOOTH TRANSLATION
-0.3010 WITH AS I
-0.3010 WORD HOW SAID
-0.3010 WORK PART TAKE
-0.3010 WORLD NEAR BUILD
-0.3010 WOULD WRITE LIKE
-0.3010 WRITE LIKE SO
-0.3010 YEAR CAME SHOW
-0.3010 YOU THAT HE
-0.3010 YOUR WHEN UP

\end\
