Language model created by QuickLM on Sat Jan  9 22:07:55 EST 2016
Copyright (c) 1996-2010 Carnegie Mellon University and Alexander I. Rudnicky

The model is in standard ARPA format, designed by Doug Paul while he was at MITRE.

The code that was used to produce this language model is available in Open Source.
Please visit http://www.speech.cs.cmu.edu/tools/ for more information

The (fixed) discount mass is 0.5. The backoffs are computed using the ratio method.
This model based on a corpus of 1 sentences and 5 words

\data\
ngram 1=5
ngram 2=5
ngram 3=4

\1-grams:
-1.0792 </s> -0.3010
-1.0792 <s> -0.2218
-1.0792 END -0.2632
-1.0792 START -0.2218
-0.7782 TRANSLATION -0.2218

\2-grams:
-0.3010 <s> TRANSLATION -0.1761
-0.3010 END </s> -0.3010
-0.3010 START TRANSLATION -0.1761
-0.6021 TRANSLATION END 0.0000
-0.6021 TRANSLATION START 0.0000

\3-grams:
-0.3010 <s> TRANSLATION START
-0.3010 START TRANSLATION END
-0.3010 TRANSLATION END </s>
-0.3010 TRANSLATION START TRANSLATION

\end\
